{{0.05920496, 0.08440534, -0.10095684, -0.05814468, 0.005932279, -0.014873415, 0.022301503, 0.08679413, -0.021305546, 0.09599527, 0.07566581, -0.028135404, -0.017061464, -0.061331894, -0.032378025, 0.058496602, 0.073963575, 0.08702838, -0.04557704, 0.06518423, -0.04120048, 0.027557619, -0.08740752, -0.016439453, 0.08899038, -0.0061103627, -0.022251286, -0.0018070564, -0.08136316, 0.0023900196, 0.008323632, -0.081400774, 0.07971553, -0.06331469, 0.044881456, 0.012005433, -0.011188842, 0.026614912, 0.032000266, 0.031991713, -0.041459054, 0.055176802, -0.097139254, 0.1043412, -0.06772068, 0.05568505, 0.10330314, -0.06612594, 0.006103769, 0.06822259, -0.08704903, -0.0065582246, 0.061464734, 0.052860565, 0.102679126, 0.08334894, -0.0083975345, -0.060982384, 0.041712962, -0.105305284, 0.028466485, -0.06965014, -0.10581291, 0.043354012, -0.08290969, -0.04540474, 0.08031211, -0.040412292, 0.01433859, 0.056476884, -0.08063775, -0.0569492, 0.002399385, 0.03392545, -0.05435824, -0.08289103, 0.06771981, -0.051398706, 0.026813723, -0.03723216, 0.03518022, 0.10752831, 0.06302854, -0.0653465, -0.073360324, -0.086533114, -0.02157259, 0.0218141, 0.02532015, 0.059892826, -0.03600622, 0.092014425, -0.016647369, -0.003991537, 0.015552707, -0.02093371, 0.090582184, -0.0065941736, 0.029138364, -0.09199038, -0.02680736, 0.01649218, 0.0961132, 0.0067697614, 0.06862555, 0.025802962, 0.06113758, -0.06006618, -0.049869623, -0.06919883, 0.014721483, 0.04477813, -0.032476656, 0.06815731, -0.037506185, -0.051270537, 0.055626012, 0.0011418834, -0.022447325, 0.021668427, 0.10449541, 0.0709809, -0.015738301, -0.06059564, 0.02721838, 0.010969527, -0.055214092, 0.08744424, 0.007324934, -0.087800086, 0.014911465, -0.041646242, 0.03367179, -0.06825079, 0.030298673, -0.086758636, 0.09894497, -0.047762424, 0.0848841, 0.0052039847, 0.007965989, 0.06813424, -0.00044332445, -0.050604694, -0.07671891, 0.08959591, -0.056935545, 0.10124452, 0.037167735, 0.05103398, 0.042729028, -0.06631982, 0.017652385, 0.09252233, -0.049233645, 0.02930022, -0.08483424, 0.09076501, 0.08178977, -0.0791164, -0.00076393783, -0.0819686, -0.048920676, 0.06195285, 0.06462156, 0.062398545, 0.053067885, 0.02359175, 0.07480679, 0.098781876, -0.031616934, 0.048795618, -0.052421037, -0.082486436, -0.09868497, -0.0036127493, 0.09249971, 0.017605372, 0.06678749, 0.0013601929, 0.07073321, -0.008970283, 0.101662435, 0.05841198, 0.00062198937, -0.041760683, 0.1074971, 0.030377053, 0.017048687, 0.06072078, -0.007346362, -0.027221948, -0.08484663, -0.09414734, 0.101220034, -0.017031237, -0.103787415, 0.097857855, -0.10377389, -0.07936373, 0.0964049, -0.014784887, -0.002471432, 0.098837174, 0.015551448, -0.081314735, 0.10209703, -0.06640814, 0.06267861, 0.03228853, 0.09828601, -0.055909034, -0.06730741, 0.007840715, 0.10740007, -0.0958107, -0.051881056, -0.049790975, -0.040032044, 0.0065638423, -0.05270645, -0.0766435, 0.096615486, 0.031133525, 0.026482917, -0.08543039, -0.023187116, 0.10056404, 0.016392238, -0.016590893, 0.04433825, 0.07835854, 0.07827825, 0.0743135, 0.08369585, -0.059116386, -0.040841274, 0.054442175, -0.0001828745, -0.082934655, 0.047500126, -0.010119684, -0.050175767, -0.012571387, 0.026679195, 0.01560387, 0.051974736, 0.010724351, -0.016616963, -0.06164281, 0.06816221, -0.057826784, 0.066161714, 0.035451017, 0.01358135, 0.04099559, -0.0060850084, -0.061070856, 0.0375546, -0.0047019795, 0.07940651, 0.09652894, 0.0073264763, 0.0833314, -0.08889406, 0.094332926, 0.0755041, 0.083292685, -0.08175028, -0.038356155, 0.043094166, 0.098541684, 0.090251245, -0.107205175, -0.07672586, 0.00350447, 0.09738476, -0.009671353, -0.026867636, 0.04831878, 0.0031277612, -0.014816813, 0.009871088, -0.033655465, 0.042441405, -0.043260694, 0.068315096, -0.10118062, -0.06580919, -0.097202785, -0.059577003, -0.026290193, 0.07732607, -0.08517641, -0.061350983, -0.045071907, -0.057552457, -0.096583925, -0.042682275, 0.050398238, 0.047548763, 0.051565193, 0.0991532, 0.05609175, 0.04288218, 0.014834642, -0.09889047, 0.049984626, -0.036816813, 0.03850647, 0.076255836, -0.032059997, -0.026547454, 0.017826252, 0.101269655, -0.106013976, 0.057608478, -0.017644785, 0.046626322, -0.048826016, 0.0017599463, -0.0019673258, 0.024815582, 0.10049277, 0.098673366, 0.06816652, -0.026073396, 0.06274568, -0.05593826, -0.06112659, -0.062005896, -0.026616223, 0.075687416, 0.07106999, 0.101561315, -0.027009279, -0.0060916543, 0.0043509007, -0.06844852, 0.06427354, 0.09505304, -0.10094155, 0.089638166, -0.049199544, -0.016552247, 0.083768286, -0.008658417, -0.043068506, -0.04919775, -0.039035857, -0.03130319, 0.035947792, 0.0018666908, -0.022335991, 0.07345425, 0.0057357773, -0.068896644, 0.008032344, -0.09100341, 0.052963354, 0.061108448, -0.035354927, -0.030183531, 0.101794325, -0.026251525, 0.084498696, -0.08748088, -0.054391187, 0.049512617, 0.054322444, 0.08094966, 0.058338337, -0.09940007, -0.033592574, 0.10669727, 0.087260105, -0.044082165, -0.009045184, -0.07546726, 0.0019897297, -0.010076314, -0.015839837, 0.084111385, -0.10401086, -0.07165808, 0.079978175, -0.041305788, -0.08679538, 0.09969174, -0.07551714, -0.06917764, -0.031226367, -0.003599435, -0.10096316, 0.06445459, 0.07260885, 0.00923001, -0.03805363, -0.0032320917, -0.088771306, 0.024750866, 0.023416184, 0.0781148, -0.02938141, 0.08836473, 0.075630404, 0.103220545, -0.025033794, 0.040083073, -0.028200552, -0.07801216, 0.045035653, -0.09777418, 0.041571565, -0.053391177, 0.046314366, 0.079366855, -0.048487924, 0.055755787, -0.07891455, -0.016873278, -0.03733267, -0.055755973, -0.038227193, 0.09201669, 0.0849464, 0.031409808, 0.09381542, 0.09723779, 0.10260563, 0.0663498, -0.08363809, 0.057248466, 0.02433955, 0.070438094, -0.10611908, -0.05097727, 0.08152009, -0.071468994, 0.05101443, -0.10329341, -0.070630826, -0.016314976, 0.096681125, 0.06778578, 0.086021, -0.07419105, 0.10273414, -0.0010341108, 0.062473364, -0.02954676, -0.051391777, -0.0066897795, -0.065598965, 0.03438569, -0.019907556, -0.09254838, 0.057624944, 0.032576732, -0.09383647, -0.027864076, -0.015470386, 0.08134001, 0.0626579, 0.042065002, 0.05823446, 0.045180477, 0.023200877, 0.04675796, -0.08746651, -0.06673117, -0.09731251, -0.087134756, 0.027252711, 0.031810813, 0.086957656, 0.074442334, 0.026299246, -0.047291186, -0.07088421, 0.042009063, 0.057595275, -0.09956032, -0.0065910965, 0.0888715, -0.09998752, 0.090369694, 0.013252161, -0.07512822, 0.0147482455, -0.043398872, 0.014017515, 0.007002853, 0.029654868, 0.027462937, 0.08523055, -0.053800218, 0.08500818, 0.1036175, -0.06509737, -0.047395233, -0.09233458, 0.06710439, -0.038660556, -0.076569825, 0.027689077, -0.022833116, -0.044114158, -0.020631209, -0.06648317, 0.02520027, -0.10012075}, 
{0.0015877932, 0.06744977, 0.014680557, 0.029668383, 0.08875155, -0.015260801, -0.04991078, 0.06761152, -0.028727219, -0.084605694, 0.07456722, 0.02208922, -0.0966354, 0.07522706, 0.039811157, -0.048679527, -0.054479994, -0.09228301, 0.0037457198, -0.061344106, -0.016184114, 0.07890176, 0.086427115, 0.011117406, 0.0058156624, 0.019821934, 0.0874215, -0.049483392, -0.049239114, -0.08614281, -0.020616792, -0.005483523, 0.071461506, -0.016596206, -0.0615616, 0.018269055, 0.07673269, 0.05587051, -0.09743641, 0.07701067, -0.0004760921, -0.035672493, 0.032245643, -0.005852811, -0.06177719, 0.06558918, 0.0046505034, 0.053007804, -0.04393205, -0.06012004, -0.030191667, 0.10362678, -0.06364065, 0.027686082, -0.05858546, -0.033779398, -0.039150655, -0.05010851, -0.06425981, -0.045986265, -0.07165557, -0.025055297, -0.024180427, 0.039149113, 0.07345044, -0.10639256, -0.039509922, -0.030708246, 0.014962867, 0.07358863, 0.037279718, -0.06784432, -0.026415437, 0.014333591, -0.010865942, 0.062313966, 0.073396854, 0.008590236, 0.08198164, 0.10431797, 0.096119724, 0.085176416, -0.020428888, -0.035058483, -0.08049129, 0.10751089, -0.09553691, -0.094775304, 0.023065932, 0.0015573353, 0.10097807, -0.05224491, -0.01579421, -0.095758274, 0.07052257, -0.07707776, 0.022532485, 0.091778, 0.07036101, 0.10222078, 0.0549322, 0.0025420487, -0.039136313, 0.041251935, 0.02764567, -0.0518857, 0.026305236, -0.020874724, 0.030511387, 0.07021838, -0.0007632226, -0.034986302, -0.105497785, 0.066794045, -0.083057895, 0.06944873, 0.0705129, -0.034001715, 0.035356216, -0.022150978, 0.095221914, -0.012062579, 0.09999759, -0.021508262, 0.09568501, -0.059787773, -0.105583616, 0.01093933, 0.035877235, -0.09035312, -0.07251886, -0.056244224, 0.051380225, -0.09736557, 0.100041516, 0.06365969, -0.026269995, 0.050527997, -0.027055748, 0.09867401, -0.09656486, 0.10180212, 0.062260516, 0.07120662, 0.030565374, 0.0851002, 0.025686495, 0.06319409, 0.06186662, 0.08989715, -0.07344184, -0.07191612, 0.09302255, -0.10303215, 0.06430777, 0.08798263, -0.06968385, -0.06850338, -0.05838065, -0.016515583, -0.073140495, 0.103955515, 0.09460362, -0.055368125, -0.039959654, -0.035591766, 0.010243952, 0.039391674, -0.05773854, -0.06328426, 0.008476235, -0.07563038, -0.06352754, 0.0024684593, -0.00337822, -0.032144472, 0.06027993, -0.09626497, 0.08173954, -0.02843488, 0.027003743, 0.049205802, -0.054658353, -0.04690634, 0.057793193, -0.058749504, -0.020855963, 0.0012625605, -0.02861847, 0.08102278, 0.03203582, -0.019743592, -0.020509638, -0.017732516, -0.030306645, 0.09126412, 0.03164751, -0.07506443, 0.065701984, -0.06664342, 0.042451464, -0.0843113, -0.055724487, -0.047262628, 0.0442606, 0.04949432, -0.042740315, 0.0680381, -0.008226819, 0.056062423, 0.10355265, 0.0877532, -0.08060381, 0.0502721, 0.07035711, -0.0028207675, 0.04078462, -0.016988903, -0.07840534, 0.030342825, -0.09148366, -0.062512934, -0.048680987, -0.0001899302, -0.058575146, 0.03641867, 0.03449381, -0.09144471, 0.020475484, 0.10203443, 0.09160801, 0.005459942, 0.09299668, -0.099931434, 0.051713265, 0.003030099, -0.08683885, 0.010456488, 0.088948645, -0.0468464, -0.08757908, -0.044837713, 0.069847666, 0.09413431, -0.0876296, 0.0076063946, -0.035983793, -0.10626496, -0.021705225, 0.092710294, -0.028674409, -0.044693656, 0.09911453, 0.09279535, 0.053534843, 0.09934763, -0.025073178, -0.0684613, 0.100616135, 0.0012424886, 0.02389843, 0.057257555, -0.03243742, 0.10634973, -0.07088611, -0.035757244, 0.041712053, -0.052077275, 0.1005652, 0.09155851, 0.014882036, 0.066105075, -0.020616561, 0.10740175, 0.059654005, 0.09518806, 0.05183413, 0.08838146, -0.05910494, -0.04909596, -0.05642415, -0.07397235, 0.046954073, 0.040469877, -0.04431972, -0.014033601, -0.08512153, -0.099016234, 0.06667457, -0.039156713, 0.08977429, -0.054510377, 0.015451476, -0.0015883595, -0.041634254, 0.07380048, -0.08497049, -0.06535427, 0.04173807, -0.00014294684, -0.09191782, 0.022928186, 0.04665249, 0.010387413, 0.06446514, 0.07616412, 0.044634275, 0.09622679, 0.054461293, -0.05287629, 0.04874947, 0.0904128, 0.07860107, -0.104873635, -0.005334027, 0.038464703, 0.06242653, -0.08520739, -0.029845364, -0.027071863, 0.0001508519, 0.004111111, -0.024948344, -0.061217118, -0.04138972, -0.052026805, 0.09796906, -0.001997836, -0.04784451, -0.09545762, 0.1060816, -0.017071985, 0.040768497, -0.0483731, -0.057473782, -0.05566701, 0.08647435, -0.09281547, -0.051266637, -0.09701832, 0.09280182, -0.06692277, -0.06453951, -0.071496375, 0.08101926, 0.0833138, 0.07530137, 0.04587128, -0.010536268, 0.0998513, -0.03876794, 0.062683545, -0.04146128, -0.012391485, 0.069248326, -0.04039751, -0.04467816, 0.008142322, -0.031310298, 0.012649775, 0.05342979, -0.0342957, 0.005164519, -0.026735775, -0.07559007, -0.018481314, -0.036579512, -0.0066548064, 0.09824564, 0.07953393, 0.051799305, -0.010088839, -0.0749021, 0.037729345, -0.059525657, -0.0064070597, -0.1001042, -0.09832468, -0.00914143, 0.02972307, -0.009573385, -0.011024289, -0.084615186, -0.08401085, -0.033100523, -0.07066034, -0.05638448, 0.015157312, 0.0622529, -0.08349814, 0.006770171, 0.017369151, -0.020344436, 0.047563516, 0.060623966, 0.03802622, -0.10392844, 0.0024468303, -0.064885065, -0.1036186, 0.09251956, -0.0807181, -0.07890145, 0.082707204, -0.0046685413, -0.038767383, -0.07998752, -0.09083711, -0.08699517, -0.09659388, 0.07157425, -0.05270286, 0.022856928, 0.09956909, 0.011457756, 0.082429476, -0.067645654, -0.030029468, 0.10049664, 0.042658947, 0.09504814, -0.03486698, -0.013963424, 0.10578822, -0.05857815, 0.042643912, 0.042429827, -0.030625187, 0.052500613, 0.07596291, -0.01201041, 0.10571305, -0.095457464, -0.06069166, -0.038547963, -0.0026482567, -0.053301703, 0.043696724, 0.021821745, -0.004783243, -0.06985685, -0.05578166, -0.10046066, 0.010281697, -0.08117789, -0.0901064, -0.08924116, -0.05457201, 0.10066425, 0.0035224035, -0.09544533, 0.07600527, 0.048891656, -0.033602886, 0.049437456, -0.092962325, -0.028038435, 0.052882932, 0.059114404, 0.09401735, 0.062480472, -0.06453748, -0.015313834, -0.10078479, -0.004341662, -0.09081958, -0.009941399, -0.03444144, -0.00026334822, 0.10408262, -0.06766185, -0.023174107, 0.047474213, 0.04887452, -0.08072775, 0.09338047, 0.097137116, 0.00032785535, 0.04792536, 0.038466163, -0.06501149, -0.084839344, -0.05951257, 0.06717626, -0.081231855, -0.022190958, 0.08566887, -0.0041753426, 0.005713634, 0.09197081, -0.060505267, 0.04803195, -0.024404079, 0.023096226, 0.10262469, 0.08530461, -0.023054019, -0.05043257, 0.03258633, -0.019346587, -0.046459682, 0.09994314, -0.0653776, 0.0086738095, -0.07742573, 0.0936062, 0.101177625, 0.06713159, 0.009790748, -0.08411541, 0.00010918081, 0.0029819086}, 
{0.02947738, -0.052872982, 0.031620286, -0.10685846, -0.08453407, 0.092404015, 0.06616042, -0.092672184, 0.030733086, 0.09267693, 0.042043217, 0.047449328, 0.079695426, 0.009620912, 0.07675084, -0.08307758, -0.07580271, 0.032568164, 0.056249075, -0.0017647967, 0.032317795, 0.099602945, -0.061837133, 0.07128789, -0.013469629, -0.095737025, -0.0013916492, 0.0049025565, 0.052809827, -0.011497401, 0.04303401, -0.057037443, -0.06020782, -0.04080853, -0.026629567, -0.060814057, -0.0031163916, -0.071035326, -0.04635091, 0.040311344, -0.08466892, -0.0029054657, 0.007974073, -2.7276576e-05, -0.08932178, -0.056581907, -0.09064685, -0.00167083, -0.04201135, 0.09861476, -0.004311435, -0.02037803, -0.06747902, -0.09610078, 0.039162748, -0.00047957897, -0.083276086, -0.007910386, 0.0048095435, -0.059592962, -0.078836754, 0.060602434, -0.0074633956, -0.07617511, 0.026477821, -0.032989778, -0.011986271, 0.09583249, 0.054455794, 0.05956518, 0.08371004, -0.048981696, 0.06333055, -0.033136524, -0.07309353, -0.06132979, 0.0948197, 0.091790415, 0.024252526, 0.027840786, 0.09972865, 0.08990479, -0.0382324, 0.06980867, 0.05573509, -0.10023484, -0.09454832, 0.07627929, 0.0054803863, 0.07398223, 0.009884641, 0.013290934, -0.011762209, 0.067797, 0.08909205, -0.009266704, -0.10200902, 0.040599503, -0.09489696, 0.041535236, 0.10375219, 0.07091647, 0.027108587, 0.008380443, 0.09631681, -0.001517795, 0.09228162, -0.00080070645, -0.07123208, -0.059131116, -0.0502053, -0.027412035, 0.0033194348, -0.059464358, 0.005062446, 0.08892203, -0.0875944, 0.08727934, -0.05538614, 0.029009275, -0.087145686, 0.02426102, 0.03717222, 0.018437974, -0.057239845, -0.026045479, 0.063409396, 0.018830977, 0.03460159, -0.05637704, 0.09136247, 0.032659374, 0.013316236, 0.09429257, 0.056932084, 0.05974055, 0.03726796, -0.016331322, 0.011591695, -0.03921891, 0.07303365, 0.04094132, 0.005992174, 0.04480592, 0.037842758, -0.018702067, 0.03170138, -0.08983818, 0.050222464, -0.033093594, 0.06695328, -0.09629548, 0.048246346, -0.045925785, 0.057807647, 0.05549147, -0.064443275, -0.09635512, 0.061427988, 0.104567416, 0.08453325, -0.09253162, -0.08125926, -0.0019508004, 0.017006554, -0.041319564, 0.07544301, 0.004832737, -0.072141334, -0.08547268, 0.048507787, -0.0737388, -0.047365446, -0.01919917, -0.05589369, -0.09604508, 0.0028176606, -0.027683638, 0.06537255, -0.07519172, 0.026940234, -0.029687427, 0.005559884, 0.006848514, -0.048871588, 0.022979759, 0.07774899, 0.09313037, -0.039465196, 0.10746329, -0.062135834, -0.02827625, -0.09330508, 0.030575015, -0.07225767, 0.012196779, 0.0626579, -0.028066352, -0.10256953, 0.090108074, 0.1034533, -0.063826576, 0.07795227, -0.052644763, 0.020561539, -0.05348766, 0.1043595, -0.039202057, 0.04615297, -0.040591113, 0.038341098, 0.0012631714, 0.06220699, -0.046906956, 0.0408052, 0.029074885, 0.062328003, 0.025309972, -0.10338704, 0.015462123, -0.051501933, -0.05119887, 0.003240019, -0.06344314, 0.049374513, -0.027174704, -0.083755456, -0.090080924, -0.070193455, -0.04098943, -0.02359742, 0.04599919, 0.015488327, -0.088982224, -0.053138815, 0.07710888, -0.017320141, 0.10646253, 0.030393101, -0.09493429, 0.088050686, 0.0028517619, -0.009472907, -0.07835215, -0.07341674, -0.011095263, 0.068633966, -0.09719303, 0.024747424, 0.002987191, -0.06933725, -0.068483956, -0.09521927, -0.026282497, 0.05245226, -0.016207717, 0.01601509, 0.08753348, -0.0855183, 0.06224314, 0.012156747, -0.06411617, 0.0063241795, -0.021577485, -0.10476292, -0.08064779, 0.011743166, 0.035726868, -0.050182182, -0.0011192262, -0.027363405, -0.028700508, 0.04219558, -0.07387508, 0.073142774, 0.08858057, 0.090144254, 0.035201333, 0.0036504716, 0.0071431845, -0.029416203, 0.010938302, -0.004389569, -0.072773024, -0.068346344, 0.06034123, 0.02814541, -0.06150671, -0.043437235, 0.08672462, 0.026015319, 0.031854056, -0.059631325, -0.029761381, -0.08663332, 0.03797575, -0.06954168, 0.03353507, 0.05087956, 0.024097271, -0.018338934, 0.06875492, -0.09717369, 0.051231407, -0.08714297, 0.04503811, 0.058472894, 0.04805795, -0.0006643012, 0.06481304, 0.058093898, -0.05204933, -0.058133803, -0.011144936, 0.105703704, -0.06756947, 0.023575373, 0.051611014, 0.09555238, -0.009706281, 0.09575791, 0.062284015, 0.10600305, 0.0647757, 0.10209941, 0.08969525, -0.018269494, -0.010735512, -0.07473619, -0.018974364, 0.07070237, 0.0954235, -0.0835187, 0.016747773, -0.048601624, 0.099841185, -0.055024363, -0.02017308, 0.10675829, 0.016210154, 0.018245764, -0.002668731, -0.10203237, -0.085342914, 0.03847391, 0.06556461, -0.01650583, 0.04072524, 0.0026738867, 0.0166222, 0.09866338, -0.051932503, -0.024335392, 0.056158267, 0.010807231, 0.09079645, -0.055613305, 0.078622065, 0.06939972, 0.07384742, 0.072692476, 0.04251436, -0.090028375, -0.0976577, -0.026832767, -0.10575412, 0.0014587492, -0.10039331, 0.062069125, 0.091865964, 0.101436965, -0.054213416, 0.089421116, -0.0866327, -0.09045822, 0.053955667, -0.074693695, -0.09379169, 0.025350027, -0.009485938, 0.023448892, 0.011443488, -0.020528294, -0.023649968, 0.07146265, -0.104068026, -0.026287012, 0.09169542, -0.09908346, -0.030114844, -0.014310598, 0.10701101, 0.001885727, 0.09292909, -0.07667644, -0.03741458, -0.047392976, 0.04403656, -0.105032265, 0.057250388, 0.00924433, -0.062508106, 0.0095985085, 0.042292677, 0.023898639, -0.08518719, -0.032511503, -0.031976394, -0.09279261, 0.098118655, 0.106254436, -0.050558943, -0.04901467, 0.09004479, 0.090124495, -0.07340771, -0.046032578, 0.09965541, 0.08063788, 0.020609252, 0.04231993, 0.0027276725, 0.04460513, 0.08192179, 0.04905062, 0.104576044, -0.076667696, -0.03220292, -0.09562697, -0.02632165, 0.011780173, -0.08744213, -0.05333973, 0.037370138, 0.019174077, -0.03140439, 0.024112917, 0.05483233, 0.072446086, -0.05771724, 0.096858256, 0.022746108, 0.00046667457, -0.07314435, -0.0990392, 0.030031316, -0.037963696, -0.093462095, -0.038345434, -0.10295581, 0.03868971, 0.050947614, -0.020991623, -0.0073036402, 0.0778845, -0.10300849, 0.07711119, 0.007847056, 0.060289957, 0.083142854, -0.053428333, 0.107440986, -0.08672736, -0.086784706, 0.008464225, 0.0022439137, -0.023961246, -0.012386508, 0.040434517, -0.05432509, -0.08462619, -0.087183304, 0.10313546, 0.01886516, -0.09628007, 0.0922853, -0.008796565, -0.019161351, -0.08026905, 0.058316223, -0.069722526, 0.10658126, 0.0058996677, -0.059800446, 0.06412885, -0.045509018, -0.061370306, -0.036200464, 0.007270612, 0.0029897094, 0.10615944, 0.07599079, -0.09180763, 0.090790994, -0.008095644, -0.07613985, -0.031852208, 0.058862202, -0.00010843575, 0.09544853, 0.094948865, 0.053544782, -0.10234237, -0.026940584, -0.09789429, -0.04419776, 0.08851374, -0.08750949, -0.061858866, -0.01966849, -0.10761419, -0.011801697}, 
{-0.033253968, -0.0761349, -0.095298864, 0.02722264, -0.08764765, -0.031386845, -0.045837436, -0.039459214, -0.092795715, 0.08105106, 0.06538574, -0.1043481, 0.07064099, -0.041926034, 0.07019677, 0.03379067, -0.10711424, -0.016455382, 0.058651336, 0.008929923, 0.03878721, -0.08097428, 0.07384921, -0.0960471, 0.052817322, -0.027082585, -0.029554129, 0.0064743683, -0.067028336, -0.019561283, -0.03588339, 0.072250746, 0.053003542, 0.056760572, 0.07182687, -0.041382946, -0.011495478, 0.04216846, 0.059181385, -0.07177809, 0.061838754, 0.034793444, 0.08490948, -0.030512847, -0.049867723, -0.0557172, -0.0514762, 0.07915261, -0.05354652, 0.10320956, -0.0220301, 0.027859174, 0.0085498765, -0.03876838, -0.089107856, 0.091074266, -0.06265147, 0.07322376, -0.07817137, -0.05882484, 0.044331186, 0.08484555, -0.102953166, 0.0004740879, 0.008856893, -0.07520684, 0.104612984, 0.048289962, -0.002774477, 0.037310995, -0.053418968, 0.06308509, -0.062341165, 0.050099842, -0.03595683, -0.06385134, -0.0012407973, -0.089396045, 0.028673641, -0.03455437, 0.019549452, 0.026897557, 0.022455044, 0.026907109, -0.064325735, 0.03631226, 0.09877793, 0.09946173, 0.047810636, 0.036610506, 0.048750423, -0.062150948, -0.08315879, -0.082063176, -0.07141026, -0.07848899, -0.09163341, -0.074936494, 0.026086815, 0.08551828, -0.08096695, 0.060211204, -0.049999997, 0.09997875, -0.03413094, -0.05387399, -0.08942704, -0.10194251, -0.053491276, -0.10087332, 0.103763856, 0.019309767, -0.103331104, -0.045338023, 0.07895916, 0.08613228, -0.01829344, 0.036357634, 0.008600399, -0.016148396, -0.078644924, -0.10385123, -0.045847572, 0.025814228, -0.079211384, -0.04559888, -0.07072787, 0.101013936, 0.07937644, 0.014733933, -0.023601934, -0.032237045, -0.043497227, -0.031251997, -0.039683998, -0.07743933, 0.09780415, 0.078905754, -0.02020403, -0.07105924, -0.053192135, 0.00859683, 0.09170354, -0.042034164, -0.044179387, 0.10201687, -0.042538762, -0.07510741, 0.076412715, 0.062062316, -0.102313474, 0.0066293254, 0.015955329, -0.03485895, 0.036002763, -0.010196097, -0.09799944, 0.0037107691, -0.013826579, -0.032522663, -0.079025865, 0.0632245, -0.09028322, -0.009590782, -0.0066257343, 0.0908154, 0.08402475, 0.0018099025, -0.04951498, 0.07294745, 0.09980934, -0.10463423, 0.041710414, 0.014865227, 0.014783837, 0.030470975, 0.042785533, 0.049574815, 0.08361948, 0.03215199, 0.0328568, -0.04286515, 0.08617557, 0.08549372, 0.00029280037, -0.07458714, 0.07054787, -0.04386075, -0.08697644, 0.0774379, 0.050155424, -0.10219492, 0.06196294, 0.02575975, 0.10667051, 0.015571535, 0.010744162, 0.10719625, -0.077867106, -0.05563527, 0.029087864, 0.092555515, 0.025308587, -0.0429905, 0.09839671, 0.017813109, 0.0026379153, 0.10137623, 0.07538248, -0.083225176, 0.025888182, 0.10437017, -0.106001996, 0.0154487565, 0.036614813, 0.10399977, 0.00207261, 0.07955045, 0.098821886, 0.016231142, -0.038851187, 0.09820189, 0.07043699, -0.045841955, 0.028364755, -0.09456903, -0.046230875, 0.040189542, 0.05725863, 0.06728288, 0.094701536, -0.09302642, 0.015227571, 0.078803636, 0.033146255, 0.032483228, 0.034998573, 0.074649416, 0.007426575, -0.088480785, 0.106216736, -0.080752224, -0.021399952, 0.08080878, 0.019534342, 0.08031509, 0.0033585653, -0.025897138, 0.024141021, -0.033917062, -0.042960785, 0.020568006, -0.0749038, 0.0072324574, -0.06879416, -0.08730909, 0.10483592, 0.002640739, 0.051398017, -0.0011077821, -0.046992607, -0.08021301, -0.015537202, -0.021764673, -0.101810925, -0.02170366, 0.020277776, 0.011076167, -0.09118747, -0.09904433, -0.095586024, 0.04261925, -0.05698679, -0.08381142, 0.046488725, -0.080087356, 0.09734576, 0.071533374, 0.05322554, 0.04150372, 0.082826905, 0.067055635, 0.102883376, -0.0709763, -0.0741317, 0.027948521, 0.023677193, -0.07678555, 0.03083729, -0.005315244, -0.019304402, 0.09906957, -0.07408403, -0.03719029, -0.0004910752, 0.08250099, 0.04787328, -0.07116567, -0.09446916, 0.062012054, -0.021096058, 0.10257872, -0.071603045, 0.049764745, -0.09851058, 0.091894604, -0.011829689, 0.059865884, -0.09094922, 0.09682862, 0.038809083, 0.041900866, 0.091711335, 0.032940246, -0.06549279, 0.08925109, 0.09047965, -0.03561376, -0.061557006, 0.09868055, -0.043016106, -0.04433935, -0.013849288, -0.05436699, 0.019563697, 0.07455062, -0.007617019, -0.06100712, 0.0073493347, -0.02432482, -0.02008646, 0.038668983, -0.060325265, -0.025181927, -0.10736845, 0.081675924, -0.078318946, -0.098626256, -0.0271414, 0.06974364, -0.0355113, 0.050388567, 0.039726026, -0.061387934, -0.07368186, -0.073386386, -0.005834572, -0.093784615, 0.009815767, 0.024616264, -0.022470213, -0.076858476, 0.051231764, -0.061325658, 0.041845866, 0.03564755, 0.077980824, -0.030599117, -0.08400223, -0.043136552, -0.016901478, 0.103978224, 0.03279882, 0.05253268, 0.046294816, -0.0127518475, -0.06705344, -4.723668e-05, 0.08912446, -0.040342033, 0.080333866, -0.035857268, -0.022007622, -0.013015091, -0.023727715, 0.052863024, -0.07773298, -0.060135692, 0.10036152, -0.022000156, 0.048333205, 0.0041930154, -0.10665318, -0.023441993, -0.000871785, -0.026512995, 0.09877, -0.04732241, -0.07860664, 0.08768765, 0.02423919, 0.062360145, 0.06623299, -0.07983731, 0.08127152, -0.09700595, -0.0760306, 0.062491886, 0.083118714, -0.046288893, -0.104624584, -0.07153979, 0.044571392, -0.07713783, 0.021700628, 0.009566918, -0.081281275, 0.057930805, 0.10626205, -0.032896273, 0.0012775436, -0.092743315, 0.0023449883, -0.08054441, 0.06406706, 0.023203872, 0.03099107, -0.014066599, -0.051170208, -0.06403006, -0.060728505, -0.09063868, -0.10107588, 0.053165324, 0.09721824, 0.034306444, 0.05560065, -0.049829207, 0.008306183, -0.07769868, -0.105320424, 0.07986448, 0.04280033, -0.050042566, 0.10249614, -0.064498655, 0.049343772, -0.079551786, -0.057952054, 0.10755276, -0.08783724, -0.040559813, 0.0053243563, 0.024655364, 0.041924335, -0.094878614, 0.0014445856, -0.089957446, 0.038772725, 0.0424458, 0.06120775, -0.094818205, -0.005988091, -0.106187, 0.059176736, -0.04467562, 0.08069206, -0.014078662, -0.072188824, 0.06627265, -0.062202115, 0.03965933, -0.008224666, 0.014946081, -0.039750457, 0.0006093681, 0.04625746, -0.05277368, -0.012058809, 0.06856286, -0.059335314, -0.074320406, 0.018719189, -0.07708254, 0.08644637, 0.040632017, -0.10293952, 0.033472426, 0.0062444583, 0.057850413, -0.042133287, -0.003014572, -0.0036961436, 0.09970162, -0.0051681623, -0.078483656, -0.070516765, 0.10573488, 0.089436196, -0.005409904, -0.081932515, -0.080819555, 0.06428041, -0.012476906, -0.004043266, -0.03359226, 0.1044543, -0.08466157, 0.019815512, -0.0149260685, -0.016211107, -0.00695654, 0.08239921, -0.027761623, -0.06081526, -0.062471464, -0.06397097, 0.024387248, 0.08406899, -0.09231475, -0.07474268, -0.024737678}, 
{-0.025488712, 0.052517064, 0.03661587, -0.09740909, 0.08347828, 0.07297384, -0.053757522, 0.10295368, -0.04502564, 0.0672049, -0.08290802, 0.012979552, 0.03964048, -0.035302095, -0.026091278, -0.059987046, -0.08619054, 0.08018275, 0.04346197, 0.094959386, 0.052869804, -0.09103818, -0.00043598562, 0.017039426, -0.07215511, 0.097199045, 0.047524042, -0.016849875, -0.03763222, 0.058075733, -0.019860469, 0.01577843, -0.016535774, 0.007424362, 0.006325595, 0.026474454, -0.065091625, 0.10254639, -0.049026754, -0.00033716857, 0.077888794, 0.07704576, -0.078091115, 0.020448007, 0.1039755, 0.023509912, 0.09579014, -0.06084595, -0.008711323, -0.048351545, 0.045875497, -0.058670808, -0.022270247, 0.055931054, 0.0980872, -0.05343072, -0.04489293, -0.006108664, 0.053766735, 0.05555623, 0.04237526, -0.05042836, 0.013079397, 0.10558774, -0.099131234, 0.08000689, -0.07047713, -0.02120106, 0.041778438, -0.0072382316, -0.1019225, 0.10141631, 0.05018162, 0.04250709, -0.08643679, -0.07853626, -0.07299364, -0.033964917, -0.05752169, 0.008839287, 0.036506332, -0.00932572, -0.033660464, -0.092840515, -0.057411637, -0.047535926, 0.10386842, -0.10010089, -0.059286844, 0.057557173, 0.059775554, -0.041180156, -0.09971402, 0.009496689, -0.08712952, -0.045479845, -0.029341742, -0.10380373, -0.10150588, -0.01659441, -0.07610603, 0.010470293, -0.08441522, 0.012002796, 0.07823589, 0.016221218, 0.030229636, -0.0029644594, -0.021385528, 0.09647382, 0.07118408, 0.068161495, 0.08084621, -0.020447388, 0.0679925, 0.073674284, 0.061987676, 0.07576691, -0.015295826, -0.02502758, -0.0038073808, 0.083980985, 0.023055486, -0.072481245, 0.064798184, -0.09034914, 0.0067458227, 0.082354076, -0.027461454, 0.055445723, -0.06311378, -0.104895756, -0.09737393, -0.025130168, -0.013223983, 0.032840647, -0.015649438, 0.052977137, 0.106438644, -0.08237815, 0.017277956, -0.030147426, -0.012346812, -0.06535481, 0.0682357, 0.06737258, 0.058229513, -0.07385514, 0.07072992, -0.07598266, 0.031675257, -0.036832333, 0.054258533, -0.10576336, 0.011257634, -0.061203185, 0.033369385, -0.09832419, -0.008701444, -0.0006198585, 0.08346786, 0.09503139, 0.07428468, 0.04153537, -0.079285726, 0.101094194, -0.0332532, -0.07524453, -0.04658775, 0.08231021, 0.06804418, 0.013745107, -0.018773347, -0.075322226, 0.036968462, -0.02283971, 0.024284013, 0.033594467, -0.10359614, 0.0019106194, -0.0802222, -0.09490001, -0.032981947, 0.036590986, -0.08177512, 0.09062036, 0.05339641, 0.079328395, -0.012184799, 0.09410957, 0.06304968, -0.035453536, -0.087010846, -0.0022698268, 0.035747163, -0.07973929, -0.07424496, 0.07599317, 0.025074594, -0.012201294, -0.032909103, -0.078777686, 0.038886003, 0.08715331, 0.045222633, 0.060203098, 0.09710146, 0.08255974, -0.09489726, -0.09019272, -0.099223435, -0.066867016, -0.0123832, 0.013567157, 0.048320852, 0.09017291, -0.041927576, 0.009933986, -0.00976114, -0.060075033, -0.09196824, -0.052640762, 0.058294587, 0.0006874725, -0.08150526, -0.046119053, 0.09171759, 0.04397986, 0.017376073, 0.026122503, -0.042217195, -0.01754602, -0.060240332, 0.10073864, -0.04269164, -0.021873347, -0.014583074, -0.052992683, -0.036901027, 0.040367283, -0.05649289, -0.02502992, -0.1019577, -0.0113554, -0.072945714, -0.04511086, -0.0869866, -0.052418165, -0.032482177, -0.048089046, -0.06997833, 0.061727025, -0.07603739, -0.10230955, -0.090855636, -0.053449966, 0.060967736, -0.007958755, -0.089669675, -0.019852027, 0.019559331, -0.04930929, -0.08994287, -0.09583595, 0.059626065, -0.056823798, -0.106980294, -0.027442545, 0.097910665, -0.07849407, 0.065370314, -0.0806559, -0.042898044, -0.055460323, -0.017188378, 0.023895375, 0.009097427, -0.081075, -0.07581636, -0.07223183, -0.09648709, 0.047298215, -0.070784345, 0.053603403, -0.06981388, -0.05456249, 0.09718623, -0.03917896, -0.0025706366, -0.018925793, 0.034679674, -0.06544326, 0.012121648, -0.088170536, 0.020310394, 0.07774668, 0.09620694, 0.016241692, 0.09022931, -0.021404237, 0.0824435, 0.02217058, 0.0006429255, -0.042499475, 0.02214279, -0.01946824, -0.07088834, 0.052142836, -0.03873846, -0.06320146, 0.082316466, -0.041412607, 0.01750242, 0.06583347, -0.09183574, -0.08436218, 0.014904872, 0.03518244, -0.101459876, 0.01258301, -0.09052691, 0.06346885, -0.073935226, 0.0126405135, 0.052079, -0.0877249, 0.024124749, 0.076958366, -0.007012531, -0.012927182, -0.07804175, 0.087863676, -0.045479663, 0.10406836, -0.024692006, 0.09167484, 0.05910725, -0.0377694, 0.07914793, 0.022956692, 0.04146754, -0.009437241, 0.1039524, -0.012734398, 0.05282674, -0.010903046, -0.025358208, 0.088322766, 0.08891071, -0.0078282505, 0.10498043, 0.08661107, 0.087099604, -0.04599355, 0.055133156, -0.0010509416, 0.030217685, -0.10316183, 0.06591537, -0.019774407, -0.063489586, 0.035464115, 0.058249302, 0.057990156, 0.0076373667, -0.07095444, -0.037275627, 0.039792694, -0.06319188, -0.0075663626, -0.053323746, 0.04067666, 0.030812807, 0.06804577, 0.06634938, 0.066115014, -0.077471845, 0.081513144, -0.030939847, 0.031360947, -0.009212539, -0.002477385, -0.016539447, 0.023455985, -0.039039962, 0.067102544, -0.029933527, 0.018745609, -0.10549835, -0.0268808, 0.047388904, 0.09428459, 0.025274612, -0.09015805, 0.043370314, -0.10221956, -0.10659301, -0.016660765, 0.1066977, -0.055334922, 0.023126967, 0.0049275756, 0.10466807, -0.023567751, -0.05799534, 0.0400073, -0.09496809, 0.00046797842, -0.089353494, 0.077694185, 0.012743764, -0.06564261, 0.010609701, -0.06420229, -0.06376779, -0.09254912, 0.030669577, 0.0802642, -0.086179376, -0.103091985, -0.08179893, -0.09934319, 0.10318244, 0.08424694, -0.02396635, -0.012378886, -0.08187024, -0.03896103, 0.06333407, 0.02420684, -0.023591101, -0.087861694, 0.073987, -0.08787694, -0.07138555, -0.06934366, -0.045878313, -0.068181485, 0.008015797, 0.043576382, -0.09407303, 0.011785068, -0.06860523, -0.0027005225, -0.052425914, 0.08592387, -0.0741745, 0.035898276, 0.09352627, -0.019217521, -0.041703463, -0.06106873, -0.017700933, 0.08673113, 0.0019460768, -0.030443698, -0.040653363, -0.07402111, 0.07544019, -0.016558945, 0.07809845, 0.10546579, 0.00092292577, 0.098044656, -0.012326159, 0.086855985, -0.028949864, -0.02793967, 0.0873952, -0.10182314, 0.041525356, -0.10145644, 0.091786645, -0.008773245, 0.00202211, -0.078795314, -0.030156948, -0.05660559, -0.003032282, 0.014954142, -0.028575107, 0.068220146, -0.09389805, 0.0077205524, -0.0621626, -0.034612417, -0.04638853, -0.04032877, -0.028261498, 0.014127053, -0.007606752, -0.068048105, -0.07689117, 0.08889825, -0.048310157, -0.10594234, -0.0013065413, -0.06725784, -0.030933104, -0.009704433, -0.09598575, 0.10386988, -0.008099623, 0.091812365, -0.09344978, -0.018052645, -0.00579603, 0.03685502, -0.10005929, -0.10404517, -0.06781937, -0.06259014}, 
{-0.04643759, 0.042362265, -0.06486995, -0.0074640885, 0.07608297, -0.069267705, 0.08034883, 0.012143254, -0.021107301, -0.06326204, -0.037410244, 0.043803774, -0.019735128, 0.102186374, -0.10178588, -0.07463434, -0.012018368, -0.09224413, -0.08552335, -0.078170195, -0.014124975, 0.04803095, 0.07498304, 0.04536196, 0.06498318, 0.084519885, 0.09767171, -0.002817355, 0.009119645, 0.10549744, -0.09536289, -0.088963136, 0.044931494, 0.041498877, -0.08199869, 0.029365398, -0.08670057, 0.0062147975, 0.014562346, 0.09349833, 0.007170178, -0.026382312, 0.057693563, -0.003874682, 0.026153944, -0.07114941, -0.026591308, 0.08396078, -0.027877912, 0.071123846, 0.032578327, -0.08406915, 0.04196789, 0.0006963536, 0.09476786, 0.054368652, -0.053644877, 0.0975358, 0.0034611002, 0.098510064, -0.0618379, -0.0738633, -0.0345729, 0.0027755573, -0.009847999, 0.063424386, 0.023615144, -0.028908685, 0.034744658, -0.030427687, -0.089306384, -0.05004331, -0.06061514, 0.07872737, 0.10625387, 0.01582136, -0.009660348, -0.10177041, 0.10699882, 0.049085923, -0.058644764, -0.08692191, -0.07584356, -0.05624394, 0.09760698, -0.004606679, -0.007555306, -0.023249753, 0.054462396, 0.07144641, -0.10466379, -0.06907742, -0.060772486, -0.05685092, 0.05488231, -0.03428156, -0.011536427, -0.044270918, 0.07729245, 0.0667089, 0.08660179, 0.10426056, 0.09350007, -0.092080094, -0.04732113, 0.056069233, -0.02295544, -0.05134934, 0.09960953, 0.028366111, 0.012304395, 0.042415, 0.0034265667, -0.08808991, 0.08407643, -0.038785756, 0.014368691, -0.05842504, 0.045534544, -0.053660013, -0.053980812, 0.001663208, 0.061354212, 0.008596778, -0.036376953, -0.007006496, 0.045441203, -0.05587198, 0.041618757, -0.065223515, 0.04232519, 0.038065277, -0.05771288, -0.09642147, 0.04258559, -0.050766144, 0.09169922, -0.035034694, -0.06334166, -0.030055106, -0.074958965, -0.0036270171, 0.09267973, 0.005809374, -0.09142059, 0.064745136, 0.001379773, -0.081022546, -0.10550587, 0.03180953, 0.028400488, -0.051140264, -0.10257946, -0.067964554, 0.016542062, -0.046371516, 0.023308687, -0.01111982, 0.024203219, -0.08925627, -0.031308502, -0.106317736, -0.04183992, 0.073112, -0.03417869, -0.059894722, -0.07899069, -0.034709536, -0.105540894, -0.10241788, 0.10284691, 0.030951984, -0.057404555, 0.05505041, 0.025492378, -0.009951688, 0.030450873, 0.024803393, -0.008198418, 0.043003075, 0.08437999, -0.043204144, 0.088659815, -0.04622967, -0.07094267, 0.036618046, -0.09967176, 0.1024295, 0.014822505, -0.051516972, -0.024653822, 0.011690848, -0.08954779, 0.041393332, 0.003491275, 0.0029786527, -0.097606055, -0.021788947, 0.07060801, 0.024419405, 0.08873189, 0.08588267, 0.015126161, 0.09645144, 0.10061919, -0.10393624, -0.046477415, -0.06763011, 0.026211388, 0.075362645, -0.105895, 0.021641664, -0.014251068, 0.08957512, 0.10562342, -0.052204393, 0.0129868165, -0.04951785, 0.04362116, 0.08905036, 0.07993262, 0.051969178, 0.039943077, 0.04042069, 0.046852194, 0.004772797, -0.027499042, -0.061958604, -0.10157103, 0.10655216, 0.08649268, 0.021704532, -0.0073426664, -0.052230336, 0.04354439, 0.050941996, 0.037637003, -0.020928144, 0.05165302, -0.013175204, -0.012698807, 0.058324225, 0.105025135, -0.07846433, 0.054386236, -0.07772043, -0.020620361, 0.07880499, 0.10372981, 0.044732608, -0.08517392, 0.02437567, 0.043851025, -0.09666514, 0.0054552183, -0.05830898, 0.0359303, 0.026183806, -0.030019566, 0.09309583, 0.004196435, 0.08408926, 0.05842889, 0.049794726, 0.07383349, 0.084569715, -0.059588883, -0.07533704, 0.05467131, -0.07700625, 0.10357023, 0.05475106, 0.057690434, -0.057978302, 0.021703638, 0.07721094, -0.077497706, 0.03656902, 0.074770905, -0.05610353, -0.019939452, 0.033188127, -0.061933767, 0.018313788, 0.061455064, 0.017885648, -0.042105623, -0.08690913, 0.019410037, 0.028690837, -0.016648471, -0.027391687, -0.08978694, -0.10635751, -0.003875889, 0.020383082, -0.013148345, 0.0978258, 0.010831252, 0.06310115, 0.011427529, 0.043753482, -0.0057948455, -0.007272154, 0.031316303, -0.040830083, -0.08306567, 0.08602149, 0.096191056, -0.04689572, -0.0098222345, 0.056684546, 0.086384006, 0.08003647, 0.028896682, -0.09416563, -0.055804137, 0.010190755, -0.04347772, -0.025955766, 0.10686115, 0.10325544, 0.084896855, 0.034364052, 0.009525329, 0.07900185, 0.08697874, 0.0637817, 0.09263814, 0.08096292, 0.036453463, -0.023340821, 0.028877638, 0.08833142, -7.587671e-05, -0.09535583, -0.104266606, -0.06913446, 0.016318232, -0.059120722, -0.03279943, -0.03249611, -0.02304902, -0.05237472, 0.03693933, -0.0039848387, -0.08310807, -0.04496699, -0.036923885, -0.10683996, 0.00025436282, -0.004168004, 0.051183574, -0.04635045, 0.04654192, -0.10563201, 0.031277068, -0.04922826, 0.09330993, -0.10627342, 0.01746992, 0.10755528, 0.07070444, 0.060255162, 0.097637795, -0.04541639, -0.09211535, -0.08269581, 0.062338166, -0.1062007, -0.019938096, -0.07161869, 0.046812125, 0.031607054, -0.003940992, 0.030172862, -0.0023311004, 0.08954129, 0.06393542, 0.09211848, -0.05868369, -0.099425144, 0.06495344, 0.047677003, 0.087040074, 0.045571245, -0.007646017, 0.034069873, -0.0037319139, 0.075184666, 0.023513846, -0.010019146, 0.08448317, 0.07132166, 0.04529079, 0.03314311, 0.024893083, 0.064821966, -0.082626075, -0.05835083, 0.06720852, 0.082514785, 0.051522277, -0.0297933, 0.10194961, -0.021809913, -0.07840049, 0.08293409, -0.03769265, -0.084153004, 0.055612154, -0.008113429, -0.06678421, 0.015194267, -0.058508895, 0.09483104, -0.029768817, 0.104884006, -0.08289442, 0.036497124, -0.045345183, 0.010008112, -0.08822367, 0.068671174, 0.023120217, 0.0871957, 0.015500329, -0.01952292, 0.06346377, -0.03419175, 0.014610611, -0.044161603, 0.020578988, 0.08225634, 0.06830988, 0.09404511, -0.05072614, -0.0922398, -0.019337043, 0.07050922, 0.061863817, 0.088732846, -0.10423761, 0.02912151, -0.027755976, 0.077280425, 0.104045905, -0.052566066, -0.076956645, 0.08849544, -0.020121895, -0.01733949, -0.105345, 0.047491632, -0.0059180185, 0.04168447, 0.06805711, 0.0947895, 0.07571223, -0.09322616, 0.074231796, -0.019587457, 0.02505248, 0.02186308, 0.007019177, 0.056851335, -0.01737208, 0.00095746666, 0.003467545, 0.0758725, -0.07734011, -0.03822904, -0.083693616, -0.038249597, 0.04902949, -0.03650836, 0.036053993, 0.0058545843, -0.027466506, -0.08710081, -0.016452484, -0.0475495, -0.040322512, -0.027864002, -0.06061268, -0.011029497, 0.043931387, -0.0116843805, 0.05569192, -0.029818319, 0.061560802, 0.1015568, 0.027015768, 0.08407297, -0.029177569, 0.036949016, 0.0067484677, 0.020438068, -0.08278157, 0.06773677, -0.090016514, 0.038775332, -0.060750343, 0.019453637, -0.09439867, -0.039447486, -0.052717485, -0.012049876, 0.09163161, 0.016708955, 0.10544608, -0.067879006}}