const integer layer_1_input_size = 64 
const integer layer_1_kernel_size = 128 
const data_t layer_1_kernel_weights[layer_1_input_size][layer_1_kernel_size] = {{0.14403433, -0.15225396, 0.151843, -0.05092456, -0.035128213, -0.004633214, -0.19047998, -0.024504015, -0.0016453386, 0.16502544, -0.06888414, 0.21057853, 0.022195527, -0.15910065, -0.043899715, -0.033603575, 0.026355894, 0.23176374, -0.087836616, 0.09010226, -0.12469797, -0.14308903, -0.10115873, -0.10794818, 0.21839179, 0.19449018, -0.16994621, 0.024897916, 0.15651794, -0.12630586, 0.010195973, -0.12948953, 0.21307641, 0.083657, 0.11431229, 0.056408882, 0.026098987, -0.07516037, -0.048496526, 0.14151911, 0.0666294, 0.1022656, 0.011084233, -0.07842, -0.07276378, 0.07808822, 0.22286813, 0.040833972, -0.04771069, -0.024948306, 0.26042822, -0.07442245, -0.012520628, -0.06420727, 0.24647005, 0.14369002, -0.08261983, 0.12050213, -0.120878674, -0.08810818, -0.021532565, -0.009215607, -0.021928864, 0.12600212, -0.09257341, -0.1288248, -0.026902948, 0.18796769, -0.09833419, 0.13207696, 0.03995949, -0.18324247, 0.180371, 0.17922243, -0.016705343, -0.06437754, -0.16843794, -0.08472462, -0.13450958, -0.0923384, 0.15852739, 0.21749158, 0.2017657, 0.09309704, 0.17895633, 0.18833801, 0.13784575, -0.18326919, -0.094117, -0.13011146, 0.004457115, 0.059102893, 0.16997902, -0.12522046, 0.012718566, 0.14770739, -0.04838669, 0.02307719, 0.11811822, 0.080589645, -0.13998868, -0.02407958, -0.13058935, 0.023246352, 0.12753882, -0.015911046, -0.038131844, 0.1408909, 0.24649248, 0.0994326, 0.033154912, 0.03515091, 0.37432063, 0.11531163, 0.0037155023, 0.06861587, -0.03224263, 0.12348404, -0.11912093, -0.10946294, 0.22784711, -0.039828423, -0.10354987, 0.020090612, 0.1711343, -0.14110547, -0.0055456613, -0.025507106}, 
{-0.13176328, -0.14775522, 0.034374498, 0.10414295, -0.00338234, 0.080683224, 0.07959286, 0.21601318, 0.17362495, -0.027555428, -0.08724858, 0.0787881, -0.059356045, -0.19388336, -0.06188833, -0.16522615, -0.0642432, -0.049172543, -0.087568745, 0.054680835, 0.06782222, -0.06710956, 0.14845917, -0.023956148, 0.041103072, 0.02083029, -0.1136749, 0.18984164, 0.14211638, -0.051386964, -0.0056991954, 0.18321326, 0.1183079, 0.032054625, -0.021830816, -0.05572661, 0.05229442, -0.1316854, 0.061774608, 0.14999267, 0.114982724, -0.16208328, 0.007174581, 0.07371875, -0.06500926, 0.0023395398, 0.14128694, -0.12251091, 0.18789847, -0.21871075, 0.07915777, -0.07020281, 0.1753762, 0.016272215, 0.053913407, -0.04076874, -0.10473221, 0.1769507, -0.06681949, 0.073449515, 0.07861093, 0.08794907, 0.24945322, -0.042582914, 0.14154321, 0.0033387155, 0.01622093, 0.1492379, 0.20074281, 0.107807264, -0.064120285, 0.082188845, 0.012281489, 0.1784616, -0.10200778, -0.0965112, -0.16656718, -0.0037785815, 0.05720156, 0.027760802, -0.063664034, -0.07251635, -0.033209607, 0.10703962, 0.19090296, 0.11513378, 0.11909761, -0.13325827, 0.034910426, 0.022813419, -0.07468926, -0.07338864, 0.10739354, -0.00020990385, -0.10073928, -0.012264548, 0.047271833, -0.09760009, -0.042913537, 0.11947906, 0.08909161, -0.14672124, 0.15885599, 0.0053813485, 0.044967532, -0.04286958, 0.14546245, 0.0443441, -0.0010225825, -0.07585507, 0.027985783, 0.017928004, 0.2552701, 0.064557634, -0.023052013, -0.20108764, 0.08710185, -0.05822656, -0.21391186, 0.0763737, -0.13951594, -0.052813824, -0.06501512, -0.06490996, 0.12811524, 0.1490961, 0.1373172, 0.18738979}, 
{-0.057133056, 0.017065354, 0.1338351, 0.11395861, -0.11735138, -0.13970749, 0.09427369, 0.1807124, 0.08849308, 0.08687982, -0.19430895, -0.14271931, -0.11172286, -0.17887872, 0.08142843, -0.09511789, 0.057522643, 0.012448009, -0.12258383, -0.12887126, 0.02032797, 0.14822, -0.1325684, 0.095165156, 0.14395493, -0.13398044, 0.09109602, 0.06042429, 0.12762216, 0.026667206, -0.029263506, 0.15082557, 0.011243586, -0.16548494, 0.13275084, 0.01574522, -0.122576006, -0.16211373, 0.038785975, 0.0027193017, -0.04827248, 0.19014251, -0.17624637, 0.11859561, 0.05979896, 0.18629692, -0.116011985, 0.14571737, 0.10405198, -0.23926601, 0.072871864, 0.08661264, 0.027497103, 0.14789541, 0.1823772, 0.077985115, 0.096773766, 0.054201026, 0.03511523, 0.14949751, 0.1309724, 0.12902229, -0.13931051, 0.021534825, -0.030722892, -0.02259499, 0.16619883, 0.10613784, -0.001953749, -0.12387138, -0.17816302, 0.0613284, 0.011339669, 0.07844, 0.20041779, -0.04914524, -0.13733155, -0.1432861, -0.06550169, -0.024931684, 0.048551753, 0.09209235, -0.12555322, 0.17733306, -0.053469546, 0.08502776, 0.12321094, -0.13412783, 0.13263398, -0.16381831, -0.059096698, -0.05337021, -0.140363, -0.18599042, 0.21442883, -0.08187389, 0.088926636, 0.06769995, -0.13036272, 0.056795903, -0.10750276, -0.03702128, 0.16546904, -0.11399134, 0.15785627, 0.13426486, -0.1533429, 0.13287467, -0.12794115, -0.14218742, 0.03420843, 0.07953021, 0.075965874, 0.022016156, -0.119378604, -0.13361913, 0.0060009076, -0.024093848, 0.042455554, -0.09996951, -0.1541877, -0.13467504, -0.09522421, 0.06936782, -0.10143815, 0.07630683, 0.15174851, -0.07016499}, 
{0.0077005825, 0.18784735, -0.031117406, -0.19813392, 0.16308399, 0.12401035, 0.122686096, -0.08414928, -0.20711863, 0.07273113, -0.17344037, -0.09859007, -0.18740153, 0.050813016, -0.22190876, -0.13611256, -0.104280956, -0.20845546, 0.054544143, 0.10420277, 0.13995273, 0.055721972, -0.117556244, -0.08517533, -0.16803437, -0.18809505, -0.11119467, 0.0765984, 0.13930064, -0.21703108, -0.005636223, 0.1215353, -0.08656471, 0.10159451, -0.050057996, -0.17077549, -0.042938832, -0.05139055, 0.1853439, -0.20270267, -0.11504403, -0.049912315, 0.1417308, -0.06367671, 0.0888891, 0.12123713, -0.16369307, 0.17460059, -0.03456501, -0.0821311, -0.10977969, -0.14220327, -0.11964199, 0.12461711, -0.0930789, -0.095080994, -0.038663205, -0.16780281, 0.0033827466, -0.067153364, 0.145636, -0.05061131, 0.06960288, 0.12964527, 0.05702782, 0.13425337, 0.03745246, 0.02795027, -0.04494423, -0.08648118, -0.115608335, -0.03316525, 0.103140704, -0.17008671, -0.12739642, 0.059699032, 0.0657269, -0.03165579, -0.07853947, 0.029172476, 0.05218065, -0.0009071672, -0.044656694, -0.07214517, -0.1634026, 0.060284078, -0.10259373, 0.05998009, 0.18379882, 0.044207666, -0.09447412, 0.026663456, 0.06614584, 0.21308519, -0.09588021, -0.19271134, -0.029564291, 0.12681194, -0.0858527, -0.13293813, -0.14251503, -0.2139963, 0.045523003, -0.049411, 0.1068466, -0.13745338, 0.017520498, -0.112485476, 0.02352232, -0.23125203, 0.025251187, -0.07981482, 0.060737986, 0.062351182, -0.030330097, 0.027098354, -0.24749489, -0.032575365, -0.1594419, -0.13660537, -0.11403299, 0.02816193, 0.102701016, -0.021980973, -0.14040494, -0.10548054, 0.007117389, -0.13751948}, 
{0.043287292, 0.040663898, -0.031421337, -0.20087174, -0.11815116, 0.10616007, 0.0050799144, 0.029824276, 0.10188688, -0.19887608, 0.11626708, -0.13687934, -0.1984249, -0.1322842, 0.022617454, 0.029332833, -0.0029964498, -0.14345099, -0.10526052, 0.10998834, -0.06250915, -0.045832522, -0.15008514, -0.12327598, -0.0032372526, -0.035363752, 0.15823057, 0.05828395, -0.08761461, 0.08080485, -0.16453616, 0.052646156, -0.13421023, 0.0829991, -0.027696474, 0.114313014, 0.07149011, -0.17694105, -0.111156136, -0.18940519, -0.10342031, 0.112714514, 0.03415543, -0.13233036, -0.05697429, 0.060326796, 0.024057599, -0.11947801, 0.055679258, -0.049048416, -0.048032124, -0.16129178, -0.17317398, -0.06511707, -0.051684298, -0.098232016, -0.023751058, -0.1464444, 0.1181772, -0.17895949, -0.16446345, -0.12325044, 0.17488308, 0.0629893, 0.10853785, 0.023214867, -0.13973868, -0.06761874, -0.0573172, 0.086583644, 0.063662976, 0.12704399, 0.16098371, -0.1426034, -0.0783294, -0.07459522, 0.07184622, -0.022555383, -0.06668687, 0.104732715, 0.03174783, -0.13075714, -0.09197404, -0.06618852, 0.014728708, -0.11661921, -0.08597508, 0.13139017, 0.14261016, -0.10830607, 0.16048768, -0.1135341, -0.08925355, -0.057868328, -0.122334234, 0.086822994, 0.05938966, -0.14732473, 0.069861814, -0.011381888, -0.1692472, -0.245114, 0.026812734, -0.22672388, 0.041945063, -0.18685608, 0.091168866, -0.12504585, -0.04083897, 0.11231893, 0.11537049, -0.15992242, -0.010811606, -0.016932167, 0.03642584, -0.13235258, -0.16148631, 0.10091416, -0.07932758, -0.10569571, 0.043638833, -0.107085176, -0.022585724, -0.17677112, -0.15135063, 0.090143494, 0.039039813, -0.13733667}, 
{-0.059149053, -0.042643785, -0.0035238208, 0.054041468, 0.0770679, 0.09939701, 0.011689863, 0.1583121, 0.11682111, 0.024332292, -0.14472573, 0.04271276, 0.1324831, -0.011122734, 0.16074197, -0.010520116, 0.025369896, 0.0094535295, -0.12671854, -0.0268346, 0.16010268, 0.09693783, -0.14284512, 0.06745526, 0.058837786, 0.06815648, 0.11424506, 0.061181854, -0.00032842223, -0.13940255, -0.07035917, 0.19215801, 0.107209586, -0.07471385, 0.00769537, 0.09633047, -0.0978908, 0.12644112, 0.09249195, 0.18044311, 0.14229332, 0.11804304, 0.11112969, 0.02526649, -0.0016371714, 0.19426693, -0.052158605, 0.14469486, 0.06375743, -0.18711352, -0.08025807, -0.09189608, 0.07394723, 0.05437493, -0.068903916, -0.12091536, 0.009660976, 0.14530964, -0.017938154, -0.12904128, -0.09186159, -0.045221794, 0.12780604, 0.056853518, 0.094181076, 0.13172397, -0.025289398, 0.12273137, 0.22228296, -0.028061816, 0.1440075, -0.05363496, -0.12890455, -0.0025876423, -0.010676025, -0.037523355, 0.03296947, -0.13120036, -0.10743885, -0.0063920384, 0.058685005, 0.08429729, -0.09264474, 0.090229005, 0.0147625385, -0.07590039, 0.14365517, 0.028245807, 0.01843316, -0.03840702, 0.0011582864, 0.059704386, 0.08293964, 0.06508881, -0.14204897, 0.0060815727, -0.051985692, 0.16753542, 0.14930105, -0.028155519, 0.08076581, -0.047255307, -0.18615472, 0.10642056, -0.050473467, -0.086664096, -0.016429773, 0.05015287, -0.021405587, -0.042500082, 0.19252306, -0.024971878, -0.0052679814, -0.03462845, 0.12889741, -0.091837965, 0.06854412, 0.026321853, -0.03677029, -0.09876651, 0.011381177, -0.1170511, -0.109479964, -0.0062742555, 0.14974798, 0.07482923, 0.26229367, 0.19869603}, 
{-0.14167693, 0.2298706, -0.11296588, -0.12834097, 0.22061566, 0.10189876, -0.049527556, 0.15563998, 0.06311607, 0.15429282, -0.051218085, -0.107016616, 0.080826655, 0.08075566, 0.0380813, -0.08043698, 0.08164115, -0.024786413, 0.15076536, -0.09091868, -0.09664196, 0.007095452, 0.09510884, 0.15749314, 0.0011405944, 0.043460984, 0.1596972, 0.08132125, -0.08027089, -0.09608223, 0.070454136, 0.05224862, -0.105165474, 0.17947045, 0.07909119, 0.13452789, 0.18794893, 0.14014123, 0.1450773, 0.032188863, -0.09181879, -0.071834594, 0.169771, 0.10224085, 0.19544886, 0.057985865, 0.17502898, -0.008716231, 0.17690584, -0.11062041, 0.25390884, 0.055934593, 0.117717266, -0.017983416, 0.10604363, -0.15029846, 0.07727539, 0.15886879, -0.063986674, -0.10449544, -0.13126934, -0.048882436, 0.26732, 0.14687511, -0.0052696764, 0.17470232, -0.14788288, -0.13484403, 0.17507862, -0.18336348, -0.021962626, -0.08656707, -0.12727045, 0.05803464, 0.10273433, 0.08480834, 0.011653111, 0.081319496, -0.16275087, -0.06657061, -0.13527396, -0.043487117, 0.009788768, -0.047034662, 0.11635749, -0.1796092, 0.11876509, -0.14149226, 0.044080757, 0.10454119, -0.12929377, 0.05106094, 0.16279672, 0.13927524, -0.16246365, 0.15723144, 0.072524324, 0.1057412, -0.016539695, -0.14962745, 0.19701736, 0.04594701, 0.23594755, 0.05654788, 0.0781292, 0.13864376, -0.04233593, -0.0028384554, 0.047005568, 0.05863591, -0.07588643, 0.07170677, 0.043618068, 0.2088198, 0.17057133, -0.11088504, -0.017431984, -0.08978682, -0.07210409, 0.08700493, 0.043563213, -0.06858929, -0.042024706, 0.16337983, -0.076759435, -4.202694e-05, -0.07626833, -0.09222794}, 
{0.044896875, -0.115168735, -0.061758682, -0.0891923, -0.08562157, -0.20330234, -0.14685091, 0.07485469, -0.13598579, 0.11513963, 0.11998047, 0.032492053, -0.126018, -0.037240233, 0.107161954, -0.022935769, -0.10508195, -0.0018191277, -0.21720491, 0.07109852, -0.21124248, -0.00031823252, -0.0609753, -0.110432774, 0.04519819, -0.0005481143, 0.11361365, 0.117265634, -0.11952004, 0.020810852, 0.04226975, -0.07612448, 0.04165468, -0.011919939, -0.0674797, -0.051258966, -0.16255453, -0.059865788, 0.006575555, 0.080784425, 0.0071538487, -0.17847997, -0.12840304, 0.13551766, -0.10224922, 0.143526, 0.049899742, 0.054630645, -0.18638436, -0.17454863, 0.07673437, -0.16595948, 0.069537625, -0.06701739, 0.052027885, -0.02597386, 0.090049475, 0.13754082, 0.079116456, -0.10199746, 0.06427391, -0.1270018, -0.04094271, 0.06625976, 0.07398421, -0.05429319, -0.03231865, -0.038297206, -0.0027942176, -0.0038296343, 0.09360747, 0.0551134, -0.06765233, -0.057052337, 0.0958064, 0.08218509, -0.08456924, 0.063667774, 0.1466729, 0.10004316, -0.05211227, -0.20588271, -0.03313181, -0.11360542, -0.118964806, -0.09950722, 0.12020371, 0.11030194, 0.037992172, 0.14832576, 0.01803001, -0.014802162, 0.022883397, -0.05189031, 0.18620054, 0.10068532, -0.0413742, 0.05523106, -0.11145266, 0.040548217, -0.012542196, -0.14782247, -0.15379368, 0.121450566, 0.07357688, 0.07624138, -0.15032272, 0.12252392, -0.094322644, 0.12074051, -0.20096281, -0.18522885, 0.008455396, -0.0803418, -0.20937568, -0.09519397, -0.25491646, -0.04015178, -0.16489778, -0.12782255, -0.11856941, 0.07958218, 0.09846219, -0.03656982, -0.03178464, -0.14882003, -0.012093613, -0.06879665}, 
{0.103578165, -0.1184132, -0.03516594, -0.12221698, -0.10988765, 0.015546003, -0.09192069, -0.21537265, 0.13486704, 0.09323375, 0.046676077, 0.19643922, -0.04871032, 0.009923966, 0.15901902, 0.035079718, -0.20362413, 0.11512103, 0.03582637, 0.061475124, 0.13386519, 0.062417995, -0.061403602, 0.03383652, -0.06391506, 0.15330584, 0.007670439, -0.11269407, 0.15238139, -0.0555803, 0.18175697, 0.08483218, 0.19273418, 0.1266845, 0.10696762, -0.14013049, 0.15839079, 0.21416067, 0.17952827, -0.025363078, 0.08463183, -0.16219458, 0.22380446, -0.093482025, 0.046030194, 0.005525891, 0.09752931, 0.17175218, 0.12163742, 0.070126876, -0.072184466, 0.014061823, -0.10063584, 0.02717654, 0.2038223, -0.028049128, -0.11749596, 0.16351968, -0.045759756, -0.16242285, -0.07181408, 0.1497561, -0.14129323, 0.15194546, -0.052477833, -0.1110542, 0.040804077, -0.020585237, 0.058838766, 0.04139413, 0.16489528, 0.09971486, -0.045650613, -0.021950917, -0.016555877, -0.06560874, 0.20144993, -0.1532119, -0.1451111, 0.11948993, 0.13748825, 0.06330908, 0.102091, 0.03517228, 0.15312079, -0.07348981, 0.07987304, 0.060639564, 0.06733457, -0.14912023, 0.03169136, 0.16928165, 0.18352503, 0.111592956, 0.012713805, 0.12844384, 0.10610001, -0.054872647, 0.06871487, -0.094278336, 0.17064476, 0.024322327, 0.0651588, 0.022546222, -0.18788856, 0.11594447, 0.04729435, 0.121839225, 0.110679455, -0.06495582, -0.042541787, -0.0029280065, 0.078255124, 0.17321101, 0.23273113, 0.10152912, -0.04453439, -0.09170429, -0.074619725, 0.16721056, 0.2020295, -0.12352951, -0.002498582, 0.10416917, -0.024288315, 0.016343446, 0.17425326, 0.028396277}, 
{-0.033004638, -0.18645978, 0.18035729, 0.11119643, -0.07165036, 0.045831405, 0.15190154, 0.011004401, 0.12356599, 0.06610761, 0.10737018, -0.03005589, 0.13676514, 0.11471486, -0.10989825, 0.005359085, -0.018462418, 0.13158846, 0.06077792, 0.12579677, 0.10844654, -0.084926106, -0.15880045, -0.14217897, -0.038618416, 0.09745479, -0.12257466, -0.058805287, 0.13317673, -0.1379665, 0.015845366, 0.07534593, -0.027427457, 0.067315325, -0.04056275, 0.11234452, 0.022048064, -0.05596988, -0.18540476, 0.07285089, -0.10026948, -0.07234881, 0.145373, 0.15278502, -0.1383344, -0.16299202, 0.06701464, 0.04485461, 0.1097597, 0.15761931, 0.091015734, 0.16625232, -0.13481927, -0.04613486, 0.006493137, 0.03474775, 0.026020493, 0.07620376, 5.207784e-05, 0.0789394, 0.034037035, 0.051111925, -0.103214376, -0.09735352, 0.084458336, 0.022569228, -0.16826327, -0.11126976, 0.053130902, 0.008559774, 0.14244965, -0.06049411, -0.060322404, -0.15115024, 0.058512542, -0.18313904, -0.1636891, 0.05122834, -0.17417802, 0.0752848, 0.07105983, -0.08503246, 0.00044600133, -0.13065067, 0.026712095, 0.096855305, 0.18947673, 0.070881225, 0.10851343, -0.066741385, -0.121211134, -0.07818256, -0.0013935936, 0.032011874, 0.02204302, -0.14616765, -0.164609, -0.0077096703, -0.08206723, -0.08499046, -0.009682053, -0.15659086, -0.20180374, -0.20922035, 0.08545815, 0.06276497, 0.061812922, -0.024567349, -0.035842456, -0.15010686, -0.03470553, -0.03109982, -0.07495297, 0.16664083, 0.08126901, 0.102746814, -0.16895634, 0.06934254, 0.14907913, 0.043227535, 0.030588906, 0.16183044, -0.1292824, -0.03284509, 0.09149702, -0.2056434, 0.0033268156, -0.12777281}, 
{0.12945709, -0.057035398, 0.1575487, -0.033137947, -0.22697498, -0.101136036, -0.18370578, -0.048422713, 0.17256254, 0.12275995, 0.11368933, -0.026024334, -0.050502814, -0.093387835, -0.09801774, 0.053881906, 0.102248885, -0.098772705, -0.147579, -0.10847537, 0.0062809824, -0.18898517, 0.10853219, -0.10754525, 0.06609884, 0.021555496, -0.14140266, -0.028166357, 0.00901831, -0.16255921, -0.2273394, 0.0065901214, -0.029048841, -0.15446736, 0.18220963, -0.16151482, -0.18703744, 0.1136295, -0.14107944, 0.0930654, 0.0036426706, 0.14994271, -0.1236528, 0.10108635, -0.18182749, 0.0813789, 0.06812163, 0.087418206, 0.24120437, 0.0045346827, -0.14808859, -0.19498564, 0.019372515, 0.015454823, -0.07541008, -0.013507521, -0.115727164, 0.005010025, 0.005874818, 0.22975476, -0.10930551, -0.16941836, 0.11443632, -0.11994681, -0.037517227, 0.13653448, -0.011857986, -0.012731343, -0.16496113, -0.09229756, 0.049484655, 0.008454395, 0.010447822, -0.16790025, 0.012222567, -0.123576134, -0.022381935, -0.16476905, 0.017016593, -0.14499165, 0.017911224, 0.04241489, 0.091870055, -0.049204852, -0.100841366, -0.035095137, 0.084171034, -0.09516793, -0.076009504, 0.017355343, 0.037061717, -0.12203831, -0.057127852, 0.049221758, -0.14391078, -0.026436292, -0.11039435, 0.06299408, 0.09167561, 0.01409491, -0.20114565, -0.070491776, 0.035408802, 0.18112828, 0.029620158, 0.18782397, -0.045577247, -0.06044943, -0.12157807, 0.15637563, 0.16421656, -0.15081584, 0.066490486, -0.21060398, -0.06426538, -0.1451708, 0.10517272, -0.13486402, -0.16598888, 0.0016442221, -0.20530704, -0.12640253, -0.17217675, 0.12801738, -0.009073916, -0.18017139, -0.16818339, -0.013359636}, 
{-0.1151715, 0.038448863, 0.021603825, 0.090981364, 0.035778243, -0.028222656, -0.10700272, -0.051000588, -0.04173385, 0.0060712406, 0.051785275, -0.16881834, 0.21259136, -0.007619417, 0.14654174, -0.053653553, -0.039134666, -0.043280788, 0.18446422, 0.029428914, 0.031643033, 0.005062907, -0.19812919, 0.10866826, -0.074908525, 0.14611077, -0.04329324, 0.1579246, 0.058676094, -0.14530559, -0.12622815, -0.08614779, -0.12873608, 0.10537887, 0.034343448, -0.17896546, 0.045077547, -0.24590093, 0.08221229, 0.07373835, -0.19779794, -0.042448394, -0.17056537, 0.09146258, 0.017980192, 0.04089329, -0.0033416874, 0.13176407, 0.13856922, -0.17566057, 0.04256399, -0.14697745, -0.103106156, -0.02462522, -0.055608537, 0.029078543, 0.09264712, 0.026011098, -0.11041927, 0.14795716, 0.07396493, -0.11080308, 0.029799417, -0.0583893, -0.15151118, -0.011867939, 0.049330857, 0.12609647, -0.05067632, -0.03776791, -0.17193075, -0.05173408, 0.07260487, -0.059784733, 0.13307011, 0.06651967, 0.07926858, -0.05499193, 0.124967, -0.13926473, -0.033348523, -0.10207554, -0.19884555, -0.0013841451, -0.15314572, -0.005966769, 0.041789122, 0.17357323, -0.1842125, -0.07018577, 0.104545526, 0.108786486, 0.0857915, 0.082711995, 0.17403278, 0.012372029, 0.14142263, 0.077873744, 0.18164164, 0.09325407, -0.101735294, -0.16674085, -0.11090945, 0.02569034, 0.1382268, -0.18026412, -0.0016266872, 0.008569765, -0.051566724, -0.11584939, -0.098829016, 0.07160754, 0.07706584, -0.007836348, -0.08045447, 0.002079079, -0.030406768, 0.15787804, 0.07039207, 0.014421028, -0.08729991, -0.159411, -0.06283843, 0.08819562, -0.0043760967, -0.089896575, 0.16085131, -0.1586734}, 
{0.08577413, -0.06644119, -0.024623215, -0.061677333, -0.022848874, 0.0038096276, -0.13833319, 0.14935896, 0.10424507, -0.04961476, -0.13275737, -0.16427392, -0.013292098, 0.0023564966, 0.1297112, 0.049586505, 0.103250526, -0.22918518, 0.03358681, -0.07574659, 0.096448906, 0.010500693, 0.11534242, -0.05905608, 0.06845861, 0.043327473, 0.036288932, -0.17484613, -0.12174098, 0.08294962, 0.17460832, 0.093018994, 0.05562334, -0.045341875, -0.040423527, -0.076257154, -0.016289772, -0.08198536, -0.037646946, 0.053980622, 0.1401134, -0.07524688, 0.10938105, 0.11168043, 0.02881859, -0.014032179, -0.19003871, -0.07482205, 0.047638018, -0.09409285, -0.07828271, 0.012044159, -0.061443817, -0.19977878, 0.022740519, 0.07906392, -0.21075292, 0.07493823, -0.052624185, -0.17903851, -0.12741444, 0.09431152, 0.14485319, -0.16472092, -0.031248646, -0.031508394, -0.05545325, 0.08105172, 0.114897035, -0.12852912, 0.01732488, 0.072889686, 0.08821369, 0.18017212, -0.05525615, 0.032980505, -0.17044151, 0.17739725, 0.047035716, 0.14729527, -0.08235333, -0.04565333, 0.034167837, -0.19043073, 0.19107561, -0.14668216, 0.1956169, -0.077713, 0.16659096, 0.016808437, -0.15513593, 0.052464623, 0.01512517, 0.17512949, 0.092508644, 0.14238475, -0.10504166, 0.042290658, 0.1414633, -0.17768566, -0.033648003, 0.08956845, 0.07951037, -0.13461955, 0.11629227, 0.037868474, -0.13452823, -0.18083571, -0.057567414, -0.12196268, 0.031794485, 0.030806782, -0.14107214, 0.019335344, 0.07202567, -0.044852223, 0.08944965, -0.028617535, -0.17940703, -0.18062165, 0.11092213, -0.11738485, 0.09825831, -0.08074956, -0.038264025, -0.13517535, -0.0017971584, -0.010611752}, 
{0.043283384, -0.061653364, -0.10853647, 0.054805867, 0.039777417, -0.09305832, -0.022670317, -0.007633739, -0.11566777, 0.07753592, -0.036907047, 0.08149067, 0.002522346, -0.16125807, -0.06868128, -0.063019305, 0.10729712, -0.0047033853, -0.093093716, 0.08861711, -0.14193106, -0.19602096, 0.012303765, 0.123440884, -0.16381511, 0.018080972, 0.08107373, 0.010956438, 0.08862323, 0.08487079, 0.12308498, 0.18265225, -0.018594824, 0.08527925, -0.11144323, -0.058993507, 0.15000992, -0.048259735, 0.0794854, -0.0552494, -0.13213862, -0.099956855, -0.07902041, -0.115990445, 0.062146634, -0.054054275, 0.14131889, 0.08585966, 0.15220818, -0.06315273, -0.12535863, -0.04517986, -0.04027469, -0.13972203, 0.042498328, 0.069628716, -0.23189259, 0.13104327, 0.0670166, -0.10767539, -0.10835508, -0.12041358, 0.09397366, -0.09048003, 0.16327849, 0.09871086, 0.010697327, -0.034014747, 0.10794026, -0.0016327205, 0.016354376, 0.104672894, -0.017407564, -0.1467007, -0.17880833, -0.024911033, 0.13502005, 0.06760965, -0.05741263, 0.06358103, 0.085248224, 0.03434867, 0.08974792, -0.02768723, -0.025837235, 0.10642626, 0.07049897, -0.04249826, 0.1414736, 0.1743362, -0.06989503, 0.030907612, -0.20695457, -0.10783176, 0.042169955, 0.0009956788, 0.05666148, 0.11175005, -0.032195788, -0.15969326, 0.01980422, -0.044724274, 0.016953195, 0.034102567, -0.014052254, 0.15892904, -0.074264675, -0.20204605, 0.11762092, -0.06803304, 0.02470718, -0.093023814, -0.010093012, -0.15800482, 0.037637826, 0.09215967, -0.14603636, 0.08408525, 0.039222777, -0.07198903, -0.21660519, -0.16347054, -0.091638945, 0.0026825552, -0.047760464, -0.064449936, 0.13855939, -0.11040327}, 
{-0.00074656436, 0.1258493, -0.026400004, 0.10693409, 0.059432782, 0.119316846, 0.017416585, 0.038881686, 0.05289775, -0.18112108, 0.018002765, 0.019058943, -0.010512848, 0.0023762835, -0.106897004, 0.16563742, -0.09242344, 0.13151902, 0.057095546, 0.045089774, 0.029811688, 0.18062206, 0.16519065, 0.08079984, 0.13907498, 0.09611898, -0.039879046, 0.10611677, 0.1680883, 0.0883176, 0.123393655, 0.10096033, -0.10202393, 0.0148542505, 0.00010420999, 0.059904892, 0.024322232, -0.055516124, -0.08202942, -0.077879295, 0.02941587, -0.11194666, 0.21347672, 0.15610373, 0.11312906, -0.038248282, 0.06892693, -0.07075828, -0.071222626, 0.22565548, -0.019048568, 0.20538831, -0.14291435, 0.053924214, 0.19211404, 0.10428523, -0.051766474, 0.020320723, -0.007787702, -0.17783776, 0.063577704, 0.08129588, 0.009339006, -0.160544, 0.10603937, -0.015637262, -0.0723574, -0.17554116, -0.052326813, 0.18364443, -0.095055185, 0.011712501, -0.17209834, -0.007429402, 0.1035972, 0.059780385, -0.024000155, -0.09297218, -0.01170987, -0.1242498, -0.06789968, 0.06073441, 0.19923669, 0.109035306, 0.01636015, 0.1034474, 0.04358487, 0.14127357, 0.15217873, 0.15861937, -0.15836982, 0.21463546, -0.018631957, -0.084095046, 0.08723874, -0.14993061, 0.15102936, 0.101475805, 0.045672912, 0.06565728, 0.16819245, 0.10897301, 0.014813178, -0.18091597, -0.039548606, 0.040947434, -0.0058141523, 0.056911096, 0.041347776, 0.11546899, 0.04998942, 0.08110457, 0.056191806, 0.04033455, -0.10963028, 0.06285384, 0.14311622, 0.07182995, 0.043031875, 0.030450368, -0.10128187, 0.12143236, 0.050075594, -0.108823724, 0.13980912, 0.1987598, -0.021152081, -0.18390031}, 
{0.1320331, -0.03282205, -0.08696345, 0.0035430042, -0.15250485, 0.13790944, -0.007462173, 0.22112279, -0.0907231, 0.14269434, 0.08383092, 0.096556365, 0.20836468, -0.0046740575, 0.14271812, 0.013987578, -0.0309585, 0.030612543, 0.06246913, -0.0889722, -0.07028948, 0.042013075, -0.1714641, -0.12215506, 0.001373683, 0.179559, -0.22195113, -0.09168579, 0.026175262, -0.09604445, 0.034522716, -0.068452634, 0.13504907, 0.014050831, -0.10384587, 0.16178863, 0.12819155, -0.15458956, 0.08327976, -0.041477967, -0.02953803, 0.121599205, -0.19685122, -0.014234009, -0.11053182, -0.13594854, 0.19761449, 0.09490469, 0.103906274, -0.23027226, -0.08280967, -0.035928655, 0.17034021, 0.14135754, -0.10172148, 0.17416608, -0.10231261, -0.013237105, -0.09772143, 0.05332793, -0.07940196, -0.09202827, 0.12963517, 0.076049775, 0.1679262, 0.1701951, 0.0859546, 0.086839534, 0.09461933, -0.013999878, -0.15129507, -0.015950678, 0.1524079, 0.17105244, 0.129385, -0.17023176, -0.035331074, -0.12930271, -0.11339832, -0.09471632, 0.0982246, 0.019849313, -0.02560234, -0.0912362, 0.063687585, -0.017695475, -0.061659344, 0.11200862, -0.09847319, -0.08151171, 0.04882399, -0.076721, -0.15094729, 0.0166866, 0.07239381, -0.042081773, 0.09780768, 0.12413194, 0.1616266, 0.15834898, -0.014788755, 0.07129432, -0.066205956, -0.067076705, 0.21654429, 0.15785299, 0.08400177, 0.05153208, 0.07214329, -0.087144166, -0.10783239, 0.04781304, -0.01728359, -0.21035318, 0.23786701, -0.14172177, -0.0867274, -0.14955118, -0.016412258, -0.11642268, 0.09636509, 0.101802014, -0.030590266, 0.024423137, 0.1421678, -0.09259287, 0.15845633, 0.13133067}, 
{0.14420737, 0.04899248, -0.08412212, -0.1030678, 0.1551685, 0.057024416, -0.055567674, 0.096424535, -0.008497846, 0.11270204, -0.05186103, -0.058689374, -0.114592336, 0.052254427, 0.10474432, -0.046679005, 0.10247008, -0.03316164, -0.14577504, -0.075197496, -0.0073194182, 0.11040521, 0.10300255, 0.0125329485, -0.18946928, -0.013420047, -0.009813643, -0.15421274, -0.095887884, -0.041486107, 0.018357523, 0.05158982, -0.1296502, -0.14060591, 0.090063594, -0.12563512, -0.18242976, -0.19603188, -0.14731659, 0.06258645, -0.039979924, 0.07487505, -0.21789604, -0.06478261, -0.07277956, 0.12530452, 0.0018781375, -0.09324553, 0.15732178, 0.04571982, -0.15037318, 0.11019884, 0.088556595, -0.07470416, -0.009145124, 0.112655364, -0.033238534, 0.16004318, -0.08105381, 0.09315328, -0.15724571, 0.040894292, 0.042276107, -0.05851688, -0.014531303, -0.09560585, 0.087860204, -0.040605, -0.064326346, -0.08212358, -0.014919312, 0.054257516, 0.0054209465, -0.012273047, -0.16934092, 0.024949674, -0.10577627, -0.014208045, 0.0031542315, 0.10004734, 0.18018097, -0.18006408, -0.11581021, -0.09427564, 0.047873188, -0.06943388, -0.09882375, 0.043998364, 0.046383932, 0.14688738, 0.118214026, -0.009749947, -0.09697494, 0.065316305, -0.14829628, -0.094763815, -0.043617956, -0.12954451, 0.007007289, -0.12528153, 0.12213392, -0.08175634, 0.06173476, -0.2148051, -0.043087244, 0.063886754, -0.2034443, -0.1588767, -0.106511325, -0.12032832, -0.14935549, -0.18363047, -0.1759356, -0.06403925, -0.21202317, -0.056067903, -0.0038735634, -0.20416132, -0.13987483, -0.0061077564, -0.10276574, -0.020474212, -0.070318036, -0.0870834, -0.07421671, -0.04685036, 0.11074828, 0.14500071}, 
{0.08224339, -0.13354866, -0.014344271, 0.17445831, -0.0421187, 0.057177514, 0.106629185, -0.23283224, -0.13351311, -0.08102121, -0.050411433, -0.108825244, 0.05529359, 0.08372584, 0.057396498, 0.13401663, -0.06353278, -0.15693511, -0.052030217, 0.09037607, -0.054464363, 0.17696151, 0.049210407, 0.049849793, 0.13361454, -0.11176516, 0.08640241, 0.2041478, 0.13197508, 0.008269739, -0.11724565, -0.101975486, 0.031912684, -0.13213508, 0.070396155, 0.052334808, -0.121953756, -0.21037623, -0.10877089, -0.24774902, 0.08935173, 0.05606445, 0.13866478, -0.034376483, -0.05913273, -0.05212503, 0.00971857, -0.057256524, 0.069250025, -0.051630877, -0.1181547, 0.016917499, -0.02794465, -0.07859967, -0.20181195, -0.009365855, 0.14409907, 0.133146, 0.04834367, 0.081174254, 0.041938283, -0.05228649, -0.049287245, -0.016287321, 0.078318805, 0.15752117, 0.13843435, -0.16282804, 0.073189706, 0.1542437, -0.12903214, 0.04477385, -0.10120049, -0.12537278, 0.055153, 0.124180675, 0.10420074, 0.17421964, 0.1461777, -0.19553094, -0.045084216, -0.13772662, -0.18273455, -0.055612445, 0.12300138, -0.19616015, 0.1134839, 0.11102737, 0.055031843, -0.061827816, -0.11217377, 0.14309557, 0.060617268, 0.15506141, 0.09439343, -0.07428098, 0.09237961, -0.18803737, -0.10912054, 0.1367103, -0.051566154, -0.15888284, 0.020734558, -0.018243786, -0.17844963, -0.25899956, -0.0998137, -0.14974436, -0.123415105, -0.17154743, -0.033184417, -0.15397634, -0.186705, -0.13015608, -0.06404948, -0.02340158, -0.1987496, -0.06375993, -0.23332782, 0.09732403, -0.094712764, -0.12304154, 0.104600206, 0.13829085, 0.014202978, 0.13139744, 0.08305049, -0.017781695}, 
{0.062302794, 0.0129898265, 0.16476882, -0.19484346, -0.12055738, -0.032809634, -0.10728604, 0.0946157, 0.12108945, 0.18629368, 0.08498551, 0.14063503, 0.052246656, 0.040951494, -0.13530922, 0.029048719, -0.087250665, 0.056965757, 0.17893542, -0.045258522, 0.158099, -0.088365465, -0.047149643, 0.11371466, 0.0024159455, -0.055456787, 0.0765517, 0.096257895, -0.05826327, -0.025910338, 0.016932072, -0.04800109, -0.20013992, -0.026140472, -0.016925791, -0.18091655, -0.10677332, -0.1401939, -0.13657996, -0.012367994, 0.0017408074, -0.13199857, 0.01267963, 0.11163944, -0.04397628, -0.14448015, -0.080245994, 0.018661698, 0.17883502, -0.19173205, 0.21416351, -0.12307977, -0.10049762, 0.11894398, -0.05838405, -0.11993656, -0.17337911, 0.10877139, 0.050229236, 0.10422029, -0.041671384, -0.12900816, 0.1346877, -0.07760091, 0.15137348, 0.16292675, -0.037230242, -0.019355552, -0.12614213, 0.06338416, -0.0917486, -0.1558504, -0.057017956, 0.039553307, 0.05388357, -0.11932661, -0.19448048, 0.09098448, 0.17241807, 0.09877138, -0.12029793, 0.06367625, 0.097509, -0.015696166, 0.030762589, 9.0219546e-05, 0.027520182, -0.046547797, -0.15567166, 0.008430027, 0.11837553, 0.08424937, -0.008554074, -0.102187224, 0.17557628, 0.16887413, -0.14797287, -0.042274255, 0.003671882, -0.21191302, 0.1538608, 0.15898702, 0.05946902, -0.10783768, -0.062411807, 0.18135293, 0.06633271, 0.023762658, 0.07532293, 0.09024819, 0.03879234, -0.0038928187, 0.11732853, 0.12636644, -0.063676454, 0.03466388, -0.033865426, -0.04083971, 0.047544274, -0.07028734, -0.08950948, 0.12789215, 0.033393465, 0.12642543, 0.049847174, -0.05384194, 0.23444036, -0.115597196}, 
{0.10481567, -0.121856965, -0.12725995, -0.004961307, -0.0077151614, -0.12639034, 0.11586294, -0.1636871, 0.17325647, -0.039556947, -0.0625539, -0.03573718, 0.14331502, -0.20820825, -0.19949336, -0.13665189, -0.04121529, 0.074231245, -0.035707977, 0.1458983, -0.12002927, 0.046473365, 0.074759714, 0.014258807, -0.04584848, 0.035547487, 0.017372508, 0.050619084, 0.071086325, 0.02221597, -0.04603949, -0.06501913, -0.17679521, 0.11342699, -0.012850111, -0.10658203, 0.08768622, 0.16492729, -0.036449324, -0.26402682, 0.07593991, -0.035041135, 0.014982466, 0.06659715, -0.037029684, -0.19089146, 0.0074427635, 0.11218041, -0.1838963, -0.047513776, 0.1937066, 0.02317104, -0.08622184, -0.078972176, -0.21365719, -0.08697436, 0.01784353, -0.118140094, -0.0060204566, -0.06623047, -0.13154711, 0.089159615, 0.07438337, -0.00378564, -0.0049210545, 0.1100267, 0.03434459, -0.15609157, 0.14797683, -0.04726884, 0.05306488, -0.16352735, -0.04909533, -0.049222063, -0.08402604, 0.09865384, 0.10414833, 0.013393936, 0.1639863, 0.040865105, 0.038452875, -0.087676, 0.06362418, 0.051143415, -0.11387043, -0.07752615, -0.107833154, 0.09719229, -0.103974365, -0.12676927, 0.14696057, -0.13283257, 0.07143003, 0.09852276, -0.055881534, -0.14664589, 0.010940748, -0.03761868, 0.031134563, 0.084679276, -0.02607631, -0.17891859, -0.08550526, -0.22689903, 0.019782936, 0.059085164, -0.008088143, -0.0037854707, -0.13023558, 0.06572949, -0.1922087, -0.073790625, -0.1485763, 0.14687996, 0.15257615, 0.095060095, -0.19614398, -0.020683086, -0.07982898, -0.13841362, 0.09639741, -0.07845535, -0.12362073, 0.044878297, -0.076212466, -0.12404346, -0.15058601, -0.13267273}, 
{-0.13242447, -0.0050328146, -0.13728578, 0.008018246, 0.14567891, -0.01645204, 0.17875361, -0.24370246, 0.14943197, -0.06875986, 0.014645394, 0.17578143, 0.062832765, 0.1426467, -0.1359161, -0.10260429, 0.09812528, -0.012204442, -0.0023245441, -0.058988348, 0.017385565, 0.11005505, -0.12695646, 0.13282636, -0.11384971, 0.1556302, 0.16370907, 0.18421264, -0.15416525, -0.005740889, 0.12534834, -0.014195149, 0.06563375, -0.040407933, 0.020141806, 0.07112348, 0.009426333, -0.024565037, -0.16730914, -0.21520019, -0.013248015, -0.06897174, -0.025534365, 0.026661292, 0.105061255, 0.10304491, 0.11764572, 0.019514635, -0.23825434, 0.07514219, 0.05896452, 0.091348596, 0.1292265, -0.14402674, 0.053759024, -0.13905907, 0.10188948, -0.11055985, 0.1978569, 0.14690824, -0.14600042, -0.0836243, 0.0011186575, 0.06165835, 0.16089128, 0.097804725, 0.1119434, -0.09465669, -0.18015733, 0.12488709, 0.071109526, -0.16357067, -0.08495868, -0.064670935, -0.02502025, 0.0019679822, -0.104435354, -0.13062042, -0.11995391, 0.053709537, 0.013667992, -0.08950662, 0.17136164, -0.16209693, 0.05630314, 0.007256375, -0.09608536, -0.085262105, -0.033574462, -0.0005360464, 0.073446296, -0.10164079, 0.16215837, -0.0076450375, -0.10002478, -0.08663326, 0.064937346, 0.017687548, -0.16105418, -0.02127121, 0.056991544, -0.02834983, 0.042219996, -0.17403245, 0.06634069, -0.07322086, -0.0371685, -0.13043416, 0.024642402, -0.12315045, -0.12602387, -0.066779405, -0.19775465, -0.043131206, -0.20843817, 0.14711261, -0.119583555, 0.11042434, -0.17101912, -0.06365114, -0.12410728, 0.055648025, -0.09706576, -0.0046603205, 0.1286392, -0.09651491, 0.05104318, 0.12382}, 
{0.083212495, 0.14478631, -0.16604128, -0.09807348, 0.029478358, 0.15243764, -0.05283897, -0.008931801, 0.0502918, -0.15551132, -0.004700985, -0.014341074, -0.037567016, -0.12857448, -0.2022848, 0.110670626, -0.011616606, -0.11135293, -0.0062313466, -0.14690071, -0.008256278, -0.06719953, 0.10324748, 0.10787999, -0.1462135, -0.079078436, 0.17589167, -0.01289772, -0.10071258, 0.021973977, 0.04461225, -0.0736747, 0.047845587, 0.032746226, 0.06633322, 0.0439033, 0.057196412, -0.1076468, -0.16054468, -0.15583506, 0.15667212, -0.1773892, -0.021389041, 0.105942436, -0.12195292, -0.034604926, 0.00988769, -0.0065316153, -0.19718796, -0.029506221, 0.052578963, -0.1609656, 0.0077922535, 0.11480611, 0.112323456, 0.031070814, -0.055343404, -0.17319584, 0.1867301, 0.06854497, -0.024301223, -0.08639936, -0.016473282, 0.041220963, 0.08853568, -0.04345541, -0.058406282, 0.014159272, -0.10194264, 0.04046728, -0.09689085, -0.11680768, -0.16266498, 0.025558675, -0.19147094, 0.12459274, 0.15962987, -0.096450545, 0.053828772, -0.08461823, -0.054951455, -0.21919602, 0.12899067, 0.111371204, -0.013079184, 0.059561197, -0.0014973981, 0.111426555, 0.056706328, -0.04971307, -0.030284762, 0.08416865, -0.13941085, 0.019417308, -0.20187575, -0.17155966, 0.06992381, -0.004862262, -0.1294485, -0.08955791, 0.059888232, 0.093698986, -0.14880212, 0.011407096, -0.05604265, 0.0058976808, 0.13139151, -0.22126338, -0.13992475, -0.15048052, -0.10686283, 0.114749506, -0.04130228, -0.020533403, -0.2572392, -0.17809056, -0.21211535, 0.15113108, -0.0050278963, -0.14756657, -0.120007515, 0.12077533, 0.086729534, 0.05507946, -0.041487727, 0.10544204, 0.056072284, -0.1090579}, 
{0.18170592, 0.13404995, 0.05743702, 0.19386414, 0.13429995, 0.041431766, 0.1055584, -0.07260271, 0.06178407, 0.17227301, -0.013651781, 0.0076215253, 0.122766465, -0.061658077, 0.10397329, 0.07928319, 0.09290352, -0.0007270273, 0.036872678, -0.031280763, 0.09502121, -0.17706127, -0.13075162, -0.05541623, 0.16740206, 0.015676636, 0.033791725, -0.043735147, 0.14218989, 0.07019572, -0.029131826, -0.07696544, 0.021757923, 0.07878861, 0.12981842, 0.1529413, 0.16136923, -0.011322677, 0.013241269, 0.05952115, -0.07207409, 0.18413311, 0.057928123, -0.068105854, -0.013362278, 0.0629156, 0.1486272, -0.08278086, -0.05681098, 0.08560897, 0.13431694, 0.07632604, 0.17982486, -0.15469518, 0.2795505, 0.12867157, 0.074974425, 0.06459105, -0.14692126, 0.03443361, 0.07219114, -0.048006233, -0.13499892, -0.05103976, 0.039313484, 0.19938804, -0.09812102, -0.12455931, -0.009336841, -0.14062522, -0.02101326, -0.10651588, -0.073904835, -0.1287722, -0.06748847, -0.07769351, 0.10247508, 0.036932673, 0.053748004, 0.16152492, -0.08492143, 0.08047147, 0.1738825, 0.06046424, -0.19035774, -0.09918193, 0.06995914, 0.1303001, -0.21219422, -0.12827457, 0.073085584, 0.15810673, -0.16601752, -0.0046062763, -0.034899995, -0.029475225, -0.06983145, -0.17382987, 0.050983097, 0.11783781, -0.03225485, 0.107946225, -0.121789075, 0.30011863, 0.16119571, 0.12934639, -0.012924809, 0.079316996, 0.17080909, 0.1444918, 0.08766796, -0.11409362, 0.13660982, 0.21120262, 0.15328766, 0.13500279, -0.059588052, 0.020797662, 0.21119721, -0.061482023, 0.14064035, -0.05182301, -0.12660256, -0.15403984, -0.05719078, -0.09923319, -0.09525878, -0.08840234}, 
{0.050347675, 0.10789612, -0.01311795, 0.13197917, -0.03998938, 0.12335255, -0.15494281, -0.013316567, -0.050846945, 0.17960624, -0.14529201, -0.026838155, 0.010595956, 0.18800876, 0.0440231, -0.13572517, 0.026691101, -0.18747616, 0.12592869, 0.02964175, 0.021745661, 0.121476024, -0.014925145, 0.15692118, 0.09290873, 0.06395958, -0.002826492, -0.15704115, -0.07060018, -0.04726254, 0.1109337, 0.08977273, -0.06521344, 0.07494988, 0.10453405, 0.14432134, 0.0853324, -0.087729864, -0.11791458, -0.09198191, 0.10334009, -0.1362734, 0.079349905, -0.08894953, -0.15656698, -0.08058086, 0.189663, 0.055185113, -0.07317274, -0.22645141, 0.031147674, -0.20348062, -0.04935442, 0.012518017, -0.15090305, 0.050940193, -0.2106469, -0.09994636, 0.15271416, 0.014222157, -0.16582167, 0.057166204, 0.14669192, -0.16057752, -0.15345068, 0.12819667, -0.040303543, 0.03600648, 0.08590329, 0.15777011, -0.20071924, -0.11402514, -0.19316329, -0.13342522, 0.055705324, -0.11022269, -0.14675413, -0.022247186, 0.086657174, 0.09256496, -0.11753639, 0.14458473, -0.21023491, -0.0052338103, -0.11980069, 0.10609075, -0.011929495, 0.04498367, 0.083971314, -0.03398681, 0.14411026, -0.052586827, -0.08887632, -0.10801663, 0.1882295, -0.007545773, -0.0845109, 0.1254802, 0.09649682, -0.11868464, -0.0701865, -0.16963182, -0.17257258, 0.21111594, 0.12646975, -0.06787819, 0.039192826, 0.1206537, -0.08612502, -0.10081908, 0.017787637, 0.07168323, 0.16418718, -0.03237824, 0.08128858, -0.12536107, -0.111581855, 0.112925485, 0.008954902, 0.038644586, -0.08495347, 0.019065376, 0.034638837, 0.009744943, -0.1466523, 0.14557168, 0.12551104, -0.1391402}, 
{0.088240385, 0.15258619, 0.17166705, -0.07381946, -0.09321539, 0.16966385, 0.07692347, 0.18189397, 0.049495, 0.07985774, -0.045726426, -0.08050983, 0.117313355, 0.20234399, -0.15230797, -0.0956626, 0.22253795, -0.18793856, -0.09605627, -0.11058458, 0.04318263, 0.028326876, 0.1365481, 0.052834865, -0.17616355, 0.1367454, -0.18093112, -0.2323124, 0.23034534, -0.055830736, -0.10926933, -0.07484091, -0.01949419, 0.07328125, 0.18373595, 0.1563134, -0.12261249, -0.036199015, -0.050972164, 0.10860465, 0.15605971, -0.022467311, -0.19182251, 0.15175776, -0.06729869, -0.082634285, 0.07598599, 0.089345396, 0.0036104461, -0.11511289, -0.011217043, 0.041048553, 0.07939706, -0.16102317, -0.14637741, -0.06424238, -0.038709406, -0.0077307876, -0.07123306, -0.043532804, 0.25283685, -0.07943193, 0.23106775, 0.07031217, -0.17554933, -0.009787462, -0.116256304, -0.10168413, 0.05683857, -0.020897888, -0.025503786, 0.08302662, 0.17592722, 0.112651825, 0.120252304, 0.012057589, -0.18670543, -0.063792765, -0.05736572, 0.18369986, -0.03752016, 0.015774995, 0.10843712, 0.055571552, 0.060657326, 0.15406387, -0.0665873, -0.071468845, 0.12270358, 0.12916356, -0.12601155, -0.038214408, -0.1211906, -0.034626156, -0.12844707, 0.1803332, 0.11989196, -0.11285776, 0.098356836, -0.18566248, 0.18371095, -0.12096854, -0.10024081, 0.07039601, 0.121745646, 0.18533102, -0.011923855, 0.09048797, 0.25043577, 0.13202475, -0.025819255, -0.04023305, -0.07967968, 0.17090815, -0.055240642, -0.11793426, -0.05837028, -0.20993409, 0.21359417, 0.0075691845, 0.042955138, -0.15171896, 0.21093749, -0.06005708, 0.20199823, 0.019618396, 0.2681434, 0.17377175}, 
{0.010650142, -0.024464155, 0.0004962967, 0.035017986, -0.19930635, -0.01044255, 0.010064245, -0.16784385, 0.08282545, -0.14686511, 0.12303077, 0.08658816, 0.051508766, -0.13738579, -0.12140964, 0.0099681495, -0.12353973, -0.106881134, -0.15456785, 0.18749148, 0.11844148, 0.05029626, -0.015144102, -0.12084809, 0.11219568, -0.06178999, 0.028654797, -0.032266002, 0.03168182, 0.011455578, -0.07970583, 0.046158865, 0.18331328, 0.0028513656, 0.06258754, 0.11772104, 0.09871053, 0.13891053, 0.05096902, -0.095070645, -0.07268205, 0.13943774, 0.08712159, 0.1239973, 0.15662637, 0.13582991, 0.17229186, -0.106430836, -0.15735094, -0.06983243, -0.1298363, 0.093499474, -0.12721613, 0.050064135, -0.057526466, 0.08612037, -0.098395206, 0.05941308, 0.05897438, 0.19289221, 0.00025197992, -0.09810966, -0.1585681, -0.021534624, -0.027354077, -0.12600785, -0.14391793, 0.127364, -0.16110443, -0.13651207, 0.016410634, 0.030726548, -0.07393212, 0.15200676, -0.013497514, -0.1666597, -0.08600574, -0.11224006, -0.12811431, 0.09727782, 0.0893924, 0.09691939, 0.10461093, -0.008544765, -0.031929597, 0.14049013, -0.0065650023, -0.029202579, -0.13366595, -0.06860174, 0.14208934, 0.16833068, 0.011813428, 0.14598206, -0.032464646, 0.02274086, -0.044554297, 0.12201941, 0.023549227, 0.007828143, 0.039688244, -0.026947375, -0.02443328, -0.09892455, 0.14868271, 0.12704591, -0.01422792, 0.18486848, 0.009341664, 0.049796417, -0.17120811, 0.09837941, -0.02425744, -0.003047833, -0.24912503, -0.1459428, -0.052912015, -0.12314524, -0.05684503, -0.064671345, -0.16176555, 0.11877573, 0.037042305, -0.029339176, -0.07557703, 0.106099226, -0.044687852, -0.23757815}, 
{0.18021286, -0.16918434, -0.04220642, -0.049186725, 0.025492735, -0.008702, 0.030732067, -0.09122172, -0.16853611, 0.14728358, -0.17506415, -0.12534012, 0.09018549, 0.0006220672, -0.032073993, 0.02858692, -0.15658802, 0.003804697, 0.040926207, -0.16235904, 0.05769471, 0.03210858, 0.05932215, -0.057975058, 0.022303289, 0.14708748, -0.0011937252, 0.22872096, -0.18712793, -0.10806139, -0.17250295, -0.050848793, 0.08050371, -0.17429969, 0.022711126, 0.118336156, -0.24933213, 0.09972247, 0.0970489, 0.11188781, -0.010670559, -0.10826915, 0.017433705, 0.18758836, 0.07690392, -0.026500028, 0.13135172, -0.11276747, -0.15575874, -0.16126592, -0.26733074, -0.04577032, 0.0505272, -0.104734965, -0.11292732, -0.0232544, 0.010769514, 0.06445307, 0.13061298, 0.09580176, -0.07667644, -0.14886563, -0.18755004, -0.016679373, -0.13302197, 0.19128105, -0.16999023, 0.13991721, -0.17957373, -0.09660741, -0.16675806, 0.071557365, 0.0034985563, 0.06559898, -0.06951669, -0.13861607, -0.07695643, -0.06608923, -0.10285864, 0.110237755, 0.06911708, -0.12197753, -0.008967559, 0.16179223, -0.10675279, -0.15239184, -0.029861733, -0.10063161, -0.20212713, -0.15802687, 0.03467808, -0.12491225, 0.1216303, -0.15531567, -0.084184006, -0.012805819, 0.006053075, -0.09976167, -0.06935929, 0.11247212, 0.015224788, -0.015160207, -0.12778261, -0.018049406, -0.07388939, 0.113747075, 0.0049470155, -0.062912405, 0.051193777, 0.079558626, 0.13419981, -0.19237812, -0.021609027, 0.16903383, -0.04589273, 0.050174892, 0.017678343, 0.024377467, 0.096644185, -0.1758042, -0.1873056, 0.16311264, 0.12846981, 0.054788303, -0.06430005, 0.12357935, -0.011536263, 0.009610399}, 
{-0.028009132, -0.0518092, -0.12499829, -0.12160633, -0.08503274, -0.07286032, 0.014517371, -0.07752478, -0.15922812, -0.024619961, 0.05418893, -0.026017858, -0.0762205, 0.04998369, -0.17978424, 0.060527194, -0.016772663, 0.0021224723, 0.04439312, 0.025112126, 0.02108806, -0.06532499, 0.04406235, -0.05180382, 0.2261056, -0.15450403, 0.006976678, 0.007724047, 0.12708336, 0.12187718, -0.09080739, -0.15350734, 0.15436321, 0.09668354, 0.14771537, -0.022997217, 0.051595613, -0.033382595, -0.09171514, -0.19013807, -0.06668822, -0.038906608, 0.22006339, -0.12830962, -0.014066803, 0.0921807, -0.07121575, -0.11375354, -0.078290634, 0.2323072, -0.0127801495, 0.08019408, -0.07834683, 0.13521692, -0.049460042, 0.0672304, -0.064520516, 0.011160022, -0.09186368, 0.15169346, -0.07106796, 0.16428705, 0.1404788, -0.10275546, -0.07973533, -0.049564157, -0.06674347, -0.1706228, 0.064193875, 0.038650524, -0.11302186, -0.13132524, -0.11169177, 0.13059862, -0.120270155, 0.036473047, -0.07191702, 0.09029542, 0.06507601, -0.1867242, -0.13782519, -0.04783762, 0.18327256, 0.036412932, -0.033358745, 0.0051849764, -0.05119977, 0.039717287, 0.14342402, -0.15981297, 0.18303691, 0.01970872, 0.20675868, 0.1674661, 0.026325295, -0.120356314, 0.014508301, -0.11933603, 0.106838815, 0.014633809, 0.032502975, -0.01920169, 0.06754072, -0.13228594, -0.014453026, -0.02999728, 0.2563249, -0.071214065, 0.011984404, 0.03100755, -0.13554136, -0.006206824, -0.16341017, -0.07586595, -0.13798621, 0.20566499, -0.16439804, 0.020381378, -0.12133631, 0.120051704, 0.22178033, -0.1388268, 0.005923527, 0.020306498, -0.18768762, -0.12502751, 0.16291423, -0.07135299}, 
{-0.14218384, -0.032187026, -0.12005133, 0.020694291, 0.09385472, -0.123011135, 0.015723575, -0.1876759, -0.1283928, 0.13624258, 0.13169596, 0.08271221, -0.15417229, 0.15414654, 0.035541903, -0.055449493, -0.13998446, -0.1683507, -0.12525062, 0.15727098, -0.05400812, -0.13863578, 0.10956262, 0.05585149, 0.10031718, 0.032649707, 0.18524992, -0.029519303, -0.025706965, -0.11944798, 0.12651283, 0.06564689, -0.10404485, -0.11013147, 0.1340469, 0.21012011, -0.0045957663, -0.035492957, -0.010067211, -0.17986533, -0.09333848, -0.015097657, 0.12847435, -0.12811352, -0.11321537, -0.08712658, -0.17835023, 0.19879949, 0.03726893, 0.13982134, 0.10826265, 0.17331761, 0.061903495, -0.053034987, -0.01237416, 0.08094867, 0.11050645, -0.12180668, -0.1396805, 0.14151943, -0.19325988, 0.08060394, -0.24415453, -0.0005472037, 0.023330538, -0.18918447, -0.083888896, 0.096518315, -0.13218826, 0.19969597, 0.008177072, 0.09158043, 0.018629719, 0.100977615, -0.069838986, 0.114035144, -0.16210343, 0.034944095, 0.10035533, 0.011196104, 0.04252339, -0.19356565, 0.13565652, -0.029393505, 0.102462076, -0.001227177, 0.06927209, 0.07214868, 0.07766814, -0.11794647, -0.16649835, -0.16652009, 0.11156866, 0.1082019, -0.18459086, 0.070734285, 0.012873799, 0.13042855, -0.016974634, -0.05647432, -0.0895089, -0.12885953, -0.07316682, -0.21374832, -0.040766396, -0.05458329, 0.11931411, 0.04544831, -0.23940666, 0.101096265, -0.025317658, 0.1676832, 0.028518612, -0.12925775, -0.06904481, 0.031214489, -0.10709864, -0.11460102, -0.08762561, -0.060811777, 0.111897886, -0.13313039, -0.18380941, -0.21168695, -0.08075207, -0.1629835, -0.13630813, -0.22494057}, 
{-0.1683092, -0.15557383, 0.11331668, 0.15761027, -0.119218245, -0.17804202, -0.15388381, 0.13603908, -0.0061669024, -0.047630947, -0.082647696, 0.02005485, 0.13139027, -0.040406212, -0.1785079, -0.101202846, -0.11433867, 0.03294645, -0.0899842, -0.19107886, -0.15674278, -0.09595179, -0.0007833424, -0.05378651, -0.1290474, -0.094421335, 0.11784282, -0.08801038, -0.12830693, 0.13192858, -0.1602671, 0.13186234, 0.12135241, -0.016747158, 0.122636415, -0.18447152, 0.09085264, -0.16563705, -0.1242923, 0.07327866, 0.0024265037, -0.04422084, -0.154162, 0.10498238, 0.10927244, -0.052384343, 0.054653198, 0.09353647, -0.06568877, -0.12121647, 0.15202495, -0.18297893, 0.12321646, -0.06275465, -0.095342994, 0.09373483, 0.07610417, -0.066270225, 0.13295482, 0.119457774, -0.040787, 0.051122736, -0.10445326, 0.07237141, -0.040774662, 0.058229577, -0.031709623, -0.14450867, 0.17145589, 0.19232008, 0.1948955, -0.12734337, -0.046611343, 0.01735354, -0.15015396, 0.02789902, -0.009223201, -0.13963337, 0.19433782, -0.09953933, 0.050766986, -0.11912911, -0.09472541, -0.035095632, -0.16222459, -0.0114677, 0.13501348, 0.14133969, -0.109349504, 0.10174275, 0.16818704, -0.002995449, 0.13094974, 0.18417242, 0.16752943, 0.075203754, 0.019799575, 0.09068841, -0.06922402, -0.05548237, -0.099415444, -0.011215403, -0.21337807, -0.0068394667, -0.092128076, -0.07227567, 0.04946547, -0.1297642, -0.171153, -0.1293515, 0.01323072, -0.14749494, 0.11316531, -0.09244535, 0.049909957, -0.008221005, 0.07618716, -0.1503503, 0.04975599, -0.10405993, -0.2324716, -0.011582171, 0.13548946, -0.1697122, -0.007122181, 0.13995597, -0.07159379, -0.07424614}, 
{0.043672968, -0.12292093, -0.03707265, -0.081612654, 0.07582023, -0.06749211, 0.16786101, -0.23079355, -0.058737226, -0.04015115, 0.050032105, 0.068100765, 0.15104333, -0.07332755, -0.03046516, -0.092220746, 0.09817793, -0.078583956, -0.14084318, 0.19039997, 0.004221678, -0.03759312, 0.058556654, -0.16450831, 0.18777315, -0.09607208, -0.13432634, -0.082567506, -0.04781048, 0.08311583, -0.061385404, -0.025750129, 0.14963551, 0.2042893, 0.037429802, 0.09989248, -0.12115048, -0.06339112, -0.08365332, -0.22420846, 0.06543667, -0.0034686544, -0.0061089597, 0.15994866, 0.17610204, -0.10734081, -0.13768066, 0.06896187, -0.113988504, -0.07257198, -0.122307286, 0.010693753, 0.11624706, 0.19415951, 0.12509796, 0.15014873, -0.003002984, 0.022714961, 0.021787569, 0.15219723, 0.04165834, -0.074032746, -0.15937087, -0.19258651, 0.13450493, 0.01721821, -0.1983923, 0.071175955, 0.1238186, 0.052696176, 0.037506934, -0.08133743, -0.15643056, -0.13066573, -0.098183475, -0.1482513, -0.031424727, -0.17321603, 0.071192816, -0.20937432, 0.033770442, -0.013227005, 0.20261465, 0.015274192, -0.07502401, 0.106814705, 0.06676737, -0.16224532, 0.13465089, 0.13638969, 0.009981872, -0.15623923, 0.14999244, -0.10489706, -0.07015421, -0.05030173, -0.18339963, -0.0143696815, 0.11647846, -0.08557423, 0.04476205, 0.14152934, -0.080849335, 0.081376515, -0.21337846, 0.020036848, -0.082903035, 0.20429406, -0.005926972, -0.13961007, 0.07316602, 0.11927343, -0.1261568, 0.22060023, -0.092689194, -0.030387877, -0.20714584, 0.21808578, -0.13302769, 0.040145904, 0.11169653, 0.16646466, 0.11431639, 0.10352694, -0.11295291, 0.036247384, 0.07485471, -0.13949342}, 
{-0.19144869, 0.11517693, -0.13804367, -0.18719962, -0.07250807, -0.06746841, 0.19744661, 0.13725099, -0.13805474, -0.090129144, 0.024934404, 0.026352009, -0.16253726, -0.023881722, 0.14621966, 0.038488016, -0.18237439, 0.09725229, 0.0026667598, -0.12422149, 0.18266796, -0.02661491, 0.19257781, -0.09897581, -0.037576176, 0.14573346, 0.09026957, -0.20250322, 0.17216201, 0.14703079, -0.1051962, 0.14094955, -0.045154415, 0.09679448, 0.120808266, -0.05432415, 0.07518999, 0.11921481, -0.014724638, 0.0071907565, 0.06999116, 0.01551397, 0.21326973, 0.09252067, 0.021107811, -0.13541448, 0.09473538, -0.08877682, -0.039943926, -0.08005737, -0.0011627269, 0.090113774, 0.102137074, -0.068518244, 0.15316011, 0.15259841, 0.07850852, 0.051494732, 0.13441527, -0.21126765, 0.12615867, 0.05976479, -0.07624765, 0.16341963, 0.16851695, -0.13993225, 0.16884184, 0.022539087, -0.025941227, -0.009762377, 0.04093214, -0.020835446, -0.080266975, 0.061605617, 0.11177568, 0.1935004, 0.15074086, 0.16298625, -0.16388625, 0.14082924, -0.042638473, 0.0184579, -0.037819784, -0.09420656, 0.050440453, 0.08695741, 0.00064036495, 0.14642228, 0.044985764, 0.056207854, 0.07455148, -0.16657713, 0.06471048, 0.11194697, -0.18500037, -0.19600658, -0.03346684, -0.08593336, -0.062549435, -0.17592256, -0.059687067, -0.08050425, 0.21841086, 0.182543, -0.091266595, 0.1816105, 0.051283102, -0.13771248, 0.039675977, 0.07089843, 0.08353812, 0.20528695, -0.05773004, -0.101437666, 0.18883479, -0.09253254, 0.067410655, -0.08045439, 0.24307172, -0.027511494, -0.10072133, 0.025345704, 0.11384238, 0.04428055, 0.003963545, 0.005491578, -0.0070100287, -0.015730614}, 
{0.07031505, 0.07978089, 0.12485073, 0.066030875, -0.009903521, 0.03791069, 0.1742581, -0.13068782, 0.019568603, -0.19942832, 0.029237535, -0.06965513, 0.04536236, -0.0785945, -0.16250691, 0.19830588, 0.107597366, -0.10011019, 0.048423942, -0.0908597, 0.040726487, -0.049831834, 0.14481635, 0.09477275, 0.10221703, 0.04352403, -0.015264078, -0.10906229, 0.08665937, 0.14751929, -0.090090804, 0.09493711, 0.14574791, 0.0029458685, 0.058844253, 0.021817368, 0.18770272, 0.05982129, 0.19816296, 0.059491284, -0.15983899, -0.07452432, 0.114227325, 0.11186238, 0.12764533, 0.104885556, -0.044877768, 0.0883405, -0.11537988, 0.008677706, 0.004788022, -0.089500345, -0.13534588, 0.12159884, -0.07602232, 0.06340621, 0.20959169, 0.17579883, 0.15342817, -0.12821363, 0.14591978, 0.06603151, -0.01833989, 0.11933606, 0.09254177, 0.13467826, 0.075178705, -0.0663388, -0.14508714, 0.054511283, -0.091113046, -0.12034589, 0.04066001, 0.040799543, 0.16963007, 0.11432118, -0.11270439, 0.1534744, -0.1697399, -0.01316618, 0.09652855, -0.1320205, 0.1314703, -0.17235741, -0.026044514, 0.11439401, -0.08771478, 0.14642875, 0.046392832, -0.016181884, 0.17144941, -0.0013966569, -0.0077689034, 0.13653788, -0.07185311, -0.09391477, -0.12825775, 0.12553906, 0.12567718, -0.04534296, -0.00724015, 0.039379124, -0.040868003, -0.1924371, -0.068468995, -0.08819631, 0.17447244, 0.061489493, -0.08915963, -0.164551, -0.14768037, -0.10676813, -0.2357452, 0.12681723, -0.05190015, 0.13515997, -0.0019679295, 0.034121733, 0.078478, 0.034543153, 0.07678911, 0.040184718, 0.108963236, -0.24653311, -0.14179584, -0.15999255, -0.15088512, 0.10084103}, 
{0.112378746, 0.15325484, 0.047507003, 0.096255556, 0.11598174, 0.11124364, 0.18409996, 0.083671466, 0.09045815, 0.02877732, -0.09142382, -0.1030083, -0.08625529, -0.112935185, -0.16740392, -0.080860965, 0.12510794, -0.068208784, -0.000481863, 0.13404456, 0.19761027, 0.06754532, -0.1890829, -0.08211816, 0.19744444, 0.06670876, 0.04680671, 0.10475224, -0.12088571, 0.14508022, 0.16621196, 0.16303448, -0.096492276, 0.1885691, -0.0071786433, 0.013910174, -0.09401144, 0.01179774, 0.13087392, 0.10578125, 0.113119006, 0.027496504, 0.108492605, 0.118981995, 0.17189607, -0.17402528, 0.1821494, -0.15326902, -0.06006613, -0.029123498, -0.059082087, 0.0575306, 0.08922752, -0.09746225, -0.007514999, 0.03167618, 0.18093346, -0.13950565, -0.09460217, 0.13505839, 0.01983838, -0.10979382, -0.094672106, 0.17952462, 0.053726718, 0.19354095, -0.15841587, -0.006447476, -0.069550954, 0.066884786, 0.1417175, 0.024668915, -0.012121877, -0.03727522, -0.048196167, 0.07601225, 0.1211387, 0.008649086, 0.10401571, 0.12077421, 0.1670872, 0.20968617, -0.14005536, 0.07421507, -0.12996519, 0.122041404, 0.07754019, -0.06299709, -0.1651371, -0.13837065, -0.091894984, -0.05809247, -0.063908584, 0.14137793, -0.032128133, 0.10931992, -0.06465907, -0.123033464, -0.042173404, -0.0651939, -0.045409773, 0.06638023, 0.051748607, -0.06218147, -0.07867951, -0.06646448, 0.12813675, 0.13558197, 0.17860013, -0.13878925, 0.013388383, -0.087124005, 0.18239608, 0.19077605, 0.20201862, 0.058766317, 0.0721564, 0.049522534, -0.079827644, 0.17103164, 0.1299411, 0.17595215, -0.021382999, 0.1995461, -0.092696525, -0.06308768, 0.13915414, 0.09542813}, 
{-0.06776625, 0.05702117, -0.035849992, 0.094441816, 0.011102419, -0.06471126, 0.09082509, -0.17367373, -0.12559123, -0.080305226, 0.16829304, 0.08395631, -0.019599384, 0.08420341, 0.02008955, -0.011737146, 0.10275317, 0.013696294, 0.17825837, -0.008673709, 0.01703204, -0.06833838, 0.22148545, 0.07952677, 0.117457114, 0.05280416, 0.0548006, -0.03031828, 0.09887783, 0.21131654, 0.09442483, -0.11675281, 0.15591638, 0.0012414049, -0.0423162, 0.18699954, 0.16497052, 0.025965532, 0.16224717, -0.08329038, -0.08210032, 0.035910685, 0.07330489, 0.019548815, 0.13268714, -0.103577405, -0.039300274, 0.16687335, -0.057822797, 0.1604116, 0.046060964, 0.103418574, -0.119095385, 0.13729386, 0.03128504, 0.15011163, 0.17390259, -0.0074197105, 0.09263759, -0.093890026, 0.099124536, 0.10052778, -0.08425741, -0.1486704, 0.039902072, 0.15323384, 0.1660987, -0.15832403, 0.12080863, 0.057653435, -0.11699316, -0.009444793, -0.0013931454, 0.022891685, -0.16985166, 0.15228902, -0.082385555, 0.14713031, 0.10245639, 0.04805471, -0.14164741, -0.15799314, 0.02159944, 0.10942595, 0.13763338, -0.10629283, 0.014959288, 0.13052745, -0.10623929, -0.112136245, -0.084487826, -0.063513994, -0.09639443, 0.13314527, -0.06566743, -0.16211691, 0.0020308266, 0.1527295, -0.19000939, -0.09467157, 0.13240214, 0.06836541, -0.034998246, 0.0030098406, 0.109378204, -0.056962527, 0.0053006923, 0.13386583, -0.07868496, -0.0131610725, -0.09336197, 0.20427078, 0.017763088, 0.14568204, 0.098495826, -0.09636648, 0.13355365, 0.14751251, 0.024498884, 0.020212498, -0.10951404, 0.17034985, 0.18871276, 0.1316682, 0.09666595, -0.047004875, -0.0060519315, -0.03510765}, 
{-0.05070709, -0.19164889, 0.0005305391, -0.07111851, 0.027935464, 0.014793822, -0.15320802, 0.015235508, -0.119270556, -0.042925533, -0.1559113, 0.14136843, -0.13035949, -0.07286348, -0.14144138, -0.2337307, 0.019428698, -0.16962434, 0.014550523, -0.08484013, 0.1287736, 0.08398979, -0.15424474, -0.0037503098, -0.09276447, 0.0036653513, 0.1159455, 0.2142021, -0.12864812, 0.12987775, -0.07289729, 0.12519638, 0.11484249, -0.05514969, 0.15107186, -0.19204773, -0.040214185, -0.052433565, -0.09184265, -0.1406451, 0.040447045, 0.11467227, -0.09861733, -0.04500223, 0.06896028, -0.09443817, -0.09230664, -0.11801456, -0.16086051, -0.01593891, 0.0054335073, -0.073276624, 0.09291436, 0.12614614, -0.029212842, -0.012746465, 0.079840265, 0.16758572, 0.094232045, 0.19000581, -0.050023124, 0.026680246, -0.057634596, 0.12346889, 0.03682026, -0.062652364, -0.114242226, 0.00839158, -0.1357649, 0.108934954, -0.02517259, -0.10516055, 0.1445819, -0.05902708, 0.046865497, -0.07598555, -0.16371946, -0.07716542, -0.009368567, 0.13159372, 0.05815407, -0.118910626, 0.14724773, -0.006940237, 0.017404318, 0.03858314, 0.08430731, 0.06437291, -0.051095508, -0.15837932, 0.04306085, -0.115675166, -0.1657628, -0.05545307, 0.07763732, -0.001753389, 0.031000743, -0.033864617, -0.081228666, 0.0439796, -0.171447, -0.017661197, -0.21073677, -0.01730664, -0.0038407354, -0.067098334, -0.0006596454, -0.056324583, 0.0063163135, -0.0763172, -0.14176185, -0.20742513, 0.11648615, -0.026704064, 0.06281964, -0.20715617, 0.0018303047, 0.0576522, -0.06949021, -0.05682693, -0.11546412, 0.025840461, -0.05710962, 0.0321157, 0.013940251, 0.02089259, 0.0345067, -0.049421296}, 
{0.17020853, -0.04534184, 0.12824862, 0.0011123047, -0.08627446, 0.12231536, 0.009552821, -0.17324458, 0.08081284, 0.048983343, -0.03883569, 0.03678963, -0.14665978, -0.004318348, 0.1366289, -0.06723892, -0.10197732, 0.12281903, 0.20279743, -0.09212265, 0.15379377, 0.01016858, 0.08089729, 0.016267726, -0.06511235, 0.08182529, -0.0060739866, -0.16557834, 0.21411254, -0.15895987, -0.1639875, -0.0753545, -0.083518416, 0.031548183, 0.04920324, -0.0008854184, 0.065350756, -0.023630619, -0.00490221, -0.01668846, -0.087273836, -0.17051125, 0.1317908, 0.06909706, -0.0040085637, 0.212136, 0.081476785, -0.13632365, 0.13245027, -0.029899048, -0.10526947, 0.04412854, -0.019369481, -0.14609027, 0.017371565, 0.103011, -0.10406905, 0.10033858, 0.07267107, -0.0707963, 0.06089815, 0.11052679, -0.11055787, -0.0991074, 0.0877969, -0.1433936, -0.02467978, 0.1510955, 0.11960443, -0.011978195, -0.15797292, -0.15008795, 0.15466239, 0.012877328, -0.1647419, -0.085653946, -0.11075645, 0.087692894, -0.062461462, 0.040272873, 0.09773519, -0.04834494, -0.11980607, -0.17557633, -0.02183922, -0.12601174, 0.06928265, 0.0015599233, 0.12174414, 0.063660905, -0.09687741, -0.078036055, -0.15858014, -0.16113113, -0.14233308, -0.14509323, -0.093212284, -0.10727233, 0.13080533, -0.0020308194, 0.04312188, -0.045062758, -0.12112401, -0.18617776, -0.036785908, 0.017002588, -0.10284767, 0.084616505, -0.06578787, 0.07612889, 0.01869246, 0.017166855, -0.20184337, -0.020691438, 0.13599105, 0.15290464, -0.16036384, -0.046386603, 0.150223, 0.15590282, 0.0008671504, -0.0725145, -0.09792888, -0.055340413, 0.1476981, -0.11421226, -0.17995173, -0.1332011}, 
{0.07421225, -0.06648604, 0.18423483, 0.24623953, -0.09490681, -0.0020915635, -0.19882663, -0.060029678, -0.026882725, 0.06938757, 0.089728475, 0.060825896, 0.020016812, 0.18590696, -0.04682535, -0.03799256, -0.15241404, 0.05019644, 0.05943983, -0.060627807, -0.11502358, 0.0050005037, -0.05318571, 0.14338443, 0.062465858, 0.023359794, 0.16073595, 0.079211906, 0.01717035, 0.11340974, -0.08196889, -0.16647811, -0.1299074, -0.105432905, -0.058871854, 0.05070802, -0.04135574, -0.16507788, 0.17462452, -0.05853101, -0.11302629, 0.09013176, -0.073936045, 0.0031197923, -0.08060404, -0.0338646, 0.03184404, 0.12993787, -0.10248656, 0.022635922, -0.114720754, 0.030157678, 0.12029012, -0.12404344, 0.16173917, -0.09146422, -0.0836547, -0.04065674, 0.1527308, -0.10545942, 0.10716655, 0.11312578, -0.23350076, -0.05901343, 0.11616355, 0.10584799, 0.08195325, 0.071514785, -0.047671616, -0.01306532, 0.022561828, -0.13852176, -0.11644546, 0.18202995, 0.12664314, -0.14203574, 0.10123922, -0.11153934, 0.16885187, -0.07505402, 0.054659862, -0.03746636, -0.13813664, 0.16766106, 0.13869163, -0.031017149, -0.09114298, -0.05120295, 0.13390417, -0.072884105, -0.02627264, 0.099525735, 0.044003874, 0.0013935495, -0.1317976, -0.07543712, 0.010835196, -0.20199072, 0.16759646, 0.11067338, -0.03655468, -0.125117, 0.08951949, 0.004087891, 0.17747912, 0.11405215, 0.11664783, 0.11798988, 0.0049932688, 0.06940211, 0.14580983, -0.035864774, 0.08684672, -0.09661173, 0.036119767, -0.06851208, 0.09473716, -0.060285494, -0.07125024, 0.18309724, -0.14658095, 0.05274142, -0.13521655, 0.17107286, -0.10720801, -0.10727421, 0.06841581, -0.1213256}, 
{-0.008698245, -0.08668383, -0.18196192, 0.048871715, -0.015834073, -0.024006104, -0.06506308, -0.040079378, 0.052520815, -0.11565483, -0.050475013, 0.12956607, 0.11305363, 0.01660494, 0.026674945, 0.18290856, 0.016713366, -0.16688539, -0.17880207, -0.15175557, -0.004777345, 0.07932267, -0.14033712, -0.1460948, -0.019982697, -0.013365977, 0.00040744778, -0.08926293, -0.026721422, -0.14577468, 0.02627965, 0.17404173, -0.12290499, 0.0967015, 0.06483269, 0.04523515, -0.063562244, 0.12306624, 0.05834806, -0.2564008, 0.0205321, 0.16749112, -0.14532779, -0.0043005515, -0.03412901, 0.05245762, 0.0005129786, 0.008475554, -0.07125747, -0.16833542, 0.0033969765, 0.06987574, 0.029006096, 0.0306598, -0.05957708, 0.05419136, -0.18546127, 0.16178635, 0.0899311, -0.178968, -0.011720316, -0.13926, -0.1399097, 0.097762965, 0.06682552, 0.09772311, -0.14959829, -0.012989622, -0.044320665, 0.19893809, -0.054111145, -0.030883472, -0.13136467, -0.089747936, -0.16441773, 0.14289527, -0.12556663, -0.07406088, -0.08603354, 0.10936568, -0.07508584, -0.054215644, -0.1304831, 0.10324866, 0.1174708, -0.112338, -0.17594503, -0.15504506, 0.15260887, 0.19418605, 0.15755405, -0.036723208, -0.0989965, -0.118490115, -0.13900773, 0.12876433, -0.1996536, -0.1630814, -0.06331123, -0.104678586, -0.1411316, -0.1355703, -0.023183156, -0.08377713, -0.06313796, -0.14739597, -0.16525728, -0.027857346, -0.10077439, -0.032911927, 0.106041856, 0.18414526, 0.051229075, 0.014563076, 0.054626577, -0.18258686, 0.09937289, -0.057720173, 0.16172753, -0.08052806, -0.18114978, -0.16457748, -0.11372455, -0.20055129, -0.16016036, 0.07239907, 0.08143045, -0.104698144}, 
{-0.13876414, 0.102601595, 0.13626131, 0.20642807, -0.027880585, -0.038167037, -0.15281986, -0.13456142, 0.061767958, -0.044685677, 0.032070648, -0.08911322, -0.16584878, -0.14782941, -0.11541589, -0.005461911, -0.07615862, -0.07285814, 0.06229187, 0.14096984, 0.16908039, -0.06724834, -0.1364449, 0.18380857, 0.08779339, 0.15167074, -0.043491196, 0.079900645, 0.04605186, -0.015579884, 0.049274884, -0.008012938, 0.03509167, -0.016032044, 0.055471797, 0.22939436, -0.086326085, 0.09672998, -0.06553972, 0.041447334, 0.08783703, -0.03065227, 0.080745645, -0.08886406, -0.020363666, -0.10732584, 0.097809546, -0.071571164, -0.107888155, 0.21799794, 0.1687499, -0.026931025, 0.11277082, 0.19021887, 0.053536244, 0.08942809, 0.05722733, -0.13855416, 0.0034670965, -0.10914495, 0.12705487, 0.23996751, 0.06068074, 0.048438944, -0.057710912, -0.16068509, 0.041142326, 0.093857214, 0.14585908, 0.13653749, -0.035124645, 0.13139531, -0.09371116, 0.09545613, -0.12536132, -0.04189036, -0.12411159, 0.13258286, -0.08072575, -0.1674018, -0.015893552, -0.16542603, 0.15372308, 0.13124332, 0.04239832, -0.21333335, 0.084515005, -0.03672032, -0.07305456, 0.010416395, 0.2010554, 0.02480114, -0.082418695, 0.055745184, -0.13490418, -0.036115963, -0.17911206, 0.10731549, 0.007928658, 0.1649161, 0.07991809, -0.043539956, -0.12232188, 0.118591525, -0.16137676, -0.02013215, 0.14188649, 0.071895264, -0.12443665, 0.074823804, -0.044209026, -0.0613229, 0.07374633, -0.09311201, -0.077475175, -0.093950145, -0.12562516, -0.19642358, -0.12557337, -0.031030677, 0.1649772, -0.06114909, -0.010261491, 0.1922713, 0.012202594, -0.088332, 0.006795532, 0.052515052}, 
{0.14256537, -0.17337173, -0.017707659, -0.020275995, 0.07152334, 0.13190822, 0.05711205, 0.108514994, 0.13818848, 0.037917294, -0.10995842, -0.13981186, -0.14958622, 0.13615963, 0.08304019, -0.13024229, 0.124776974, -0.11456005, 0.0516972, -0.20027266, -0.013762695, -0.20043185, -0.10169617, 0.09185541, -0.054065406, -0.1458954, 0.0195111, 0.15570727, -0.10273569, -0.1066348, -0.096615076, -0.009703206, 0.14462525, -0.033909, 0.032941964, 0.08445745, -0.09973895, 0.0009348522, -0.12664881, 0.1774575, -0.038600318, -0.12876648, 0.019007763, -0.1566457, -0.014355609, 0.20328669, -0.108094424, -0.18234229, -0.03224293, -0.18069333, -0.07321098, 0.08024584, -0.05815771, -0.13538063, 0.20864798, -0.12019471, -0.07518651, 0.053223643, -0.0992593, 0.19895983, -0.05779222, 0.11863981, 0.19697163, 0.011886836, 0.088409424, -0.12783575, -0.04493507, 0.08280518, 0.10743433, -0.095826276, 0.12688601, -0.09782342, 0.18484415, 0.13166763, 0.062029008, -0.020190207, 0.1037802, 0.039582305, 0.033708725, 0.12657753, 0.14488629, 0.074151576, 0.14112988, 0.14943732, 0.16577062, -0.013854738, 0.16211669, -0.010604121, -0.06539803, -0.058020577, -0.07478093, 0.11531398, -0.1588377, -0.10093844, -0.17096771, 0.12414012, 0.13809639, -0.18175739, 0.15826415, -0.012598168, -0.09519442, -0.028942024, -0.09903845, -0.03455429, -0.057184923, 0.063084714, 0.0894877, -0.02367676, -0.09991689, -0.11558365, 0.05525043, 0.042981803, 0.076553434, -0.096428365, -0.027616888, 0.06653043, 0.16915041, -0.034823902, -0.111504555, -0.12589659, 0.0989355, 0.14219142, -0.11365142, -0.1131662, 0.005075624, -0.022631465, -0.075645566, -0.06334578}, 
{0.14637898, 0.07595382, 0.065330505, -0.015782112, -0.14666115, 0.08298607, -0.15852332, 0.12766737, -0.14519857, -0.039690845, -0.13528833, 0.051601395, 0.044905506, -0.030145707, -0.16420427, -0.09438037, -0.12359957, -0.1692731, -0.06818593, 0.016493697, 0.15948771, 0.123502955, -0.003873445, 0.10219594, 0.09112321, -0.08415716, 0.16395529, 0.14147612, -0.00996936, 0.13128342, 0.0960953, -0.15868269, -0.12684767, -0.06555247, -0.031933796, 0.07973601, -0.003798357, -0.13163508, -0.22135442, -0.14767912, -0.10118751, -0.07948164, 0.021553896, 0.084751435, 0.13079914, 0.18167692, -0.024058387, -0.008458061, 0.01736289, -0.031013213, -0.10185183, 0.061698865, -0.0519062, 0.013598219, 0.073442206, 0.10284552, -0.093678266, -0.062877044, -0.009638839, -0.059195396, -0.10930958, 0.1571864, -0.17770812, -0.06772351, -0.038897686, 0.12296959, -0.10756822, 0.055764087, 0.16689873, 0.16152169, -0.16432199, 0.10484391, -0.079813786, 0.03514734, -0.1615235, 0.12220825, 0.0010080643, -0.16439198, -0.16860616, -0.02689496, -0.15487428, -0.0234321, -0.18534873, -0.11384779, 0.060807213, -0.1381899, -0.09602748, -0.042984962, -0.03381918, -0.074922405, 0.031748377, 0.08232694, -0.065763414, 0.05621702, -0.16728665, 0.08983053, 0.17815843, -0.083522424, -0.10657372, 0.0055254987, 0.15180072, 0.11092486, 0.011955768, -0.12059697, 0.032024853, 0.0783739, -0.15390754, -0.0984218, 0.040781364, 0.11695571, 0.104782395, -0.009713691, 0.08519692, -0.17211427, -0.19590192, 0.07478984, -0.121102355, -0.17669044, 0.00015191695, -0.1250929, -0.0035319077, 0.010386261, -0.12135867, -0.10219305, -0.09007741, 0.09244217, 0.14637451, 0.013940031}, 
{0.069694325, 0.005926942, -0.0280674, 0.10034929, 0.10041862, -0.1639558, -0.19622579, -0.05077968, -0.17733274, 0.14372362, 0.048051253, 0.2032706, 0.09714949, 0.07823557, -0.07705935, 0.047566935, 0.09634026, 0.07300229, -0.17648824, 0.059288822, 0.07596985, 0.09525854, -0.17469086, 0.14240246, 0.1299077, 0.09346218, -0.13923205, -0.07557428, 0.061944574, 0.124276556, -0.025100552, -0.023317497, -0.12279218, -0.21573661, 0.15319848, -0.12969598, -0.10453747, 0.13789102, -0.1328395, -0.064676724, -0.13955702, -0.013955074, 0.11526392, 0.113401756, -0.07215206, -0.09803371, 0.19488803, -0.047701575, -0.033077963, 0.08012429, -0.13419504, -0.03619397, -0.028850384, -0.15178496, -0.06178575, -0.063174926, -0.120019495, -0.030020913, 0.15782033, -0.08861042, -0.16981423, -0.14930128, -0.21552159, -0.21748352, 0.1308283, -0.090486854, -0.07962576, -0.07416885, -0.07310172, -0.023688134, -0.06698151, 0.031071763, 0.12178413, 0.0905586, 0.11404775, -0.008031774, 0.05730052, 0.108280174, -0.1353787, -0.030761477, -0.13138828, -0.029395342, -0.2118624, 0.10290047, -0.11934659, -0.17438872, -0.029573383, 0.066922225, 0.053383354, 0.020447653, 0.015998067, -0.113458715, 0.09808792, -0.03899098, 0.11439242, -0.065154426, 0.10762643, -0.14511941, -0.15260486, -0.06890922, -0.11830043, 0.07144909, -0.17148824, 0.0023944345, -0.023257522, 0.02552957, -0.16414982, 0.109685995, -0.048319496, 0.004616143, -0.17858061, -0.021290556, 0.113697484, -0.090018325, -0.0042001004, 0.12625948, -0.16475946, -0.14166395, 0.048347086, 0.16682026, 0.038081672, 0.046248164, -0.10551551, 0.14190394, -0.10771709, 0.008935215, 0.12069227, 0.0036550027}, 
{0.10742423, -0.19067779, -0.011846694, -0.062187478, -0.059743714, -0.19308649, -0.17106643, 0.1956758, 0.12020239, 0.1437625, 0.021548156, 0.13663115, -0.001051985, -0.034469187, 0.12657204, 0.08032489, -0.18780965, 0.017425764, -0.20121473, -0.017139783, -0.06537851, -0.031418603, 0.042566087, -0.03999352, 0.016756572, -0.16503988, -0.14184372, 0.15068687, 0.015741793, 0.06219771, 0.07338172, -0.14518167, -0.085584864, -0.21347864, -0.10751587, -0.060954526, -0.057553984, 0.106862366, -0.09244441, 0.01537007, 0.1207983, -0.09142654, -0.12109729, -0.039797477, -0.07306111, 0.14100146, -0.059848614, -0.029029032, -0.0834861, -0.21477658, -0.23295525, 0.12406087, 0.0067526298, -0.15598284, 0.15701193, 0.13560396, 0.05638344, -0.16003737, 0.1598459, 0.024319405, -0.1643974, -0.058006737, -0.24706724, 0.0016101311, 0.1016912, 0.02452746, -0.08721919, -0.030397007, -0.09692101, 0.008890289, -0.06046755, -0.12395256, 0.16062492, -0.1470415, 0.1104144, -0.15882505, 0.1184329, 0.04384207, -0.11658077, 0.09305851, 0.04206288, 0.1501398, -0.074231625, 0.015196645, -0.08257676, 0.071630016, 0.035040487, 0.0059343097, 0.09538285, 0.170039, -0.119445175, 0.07954697, 0.04974148, 0.016008737, -0.15714078, -0.14520295, -0.05621514, -0.22752927, 0.042402875, 0.028076112, -0.008964204, -0.12591204, -0.2154637, -0.100616165, -0.10201482, -0.18479562, -0.06205137, 0.060085263, 0.018577414, 0.0964796, -0.07143428, -0.15664998, 0.00094115926, -0.24608806, -0.13888414, 0.014092359, -0.06140505, 0.14182734, 0.082051545, -0.06868027, -0.11331325, -0.077461295, 0.0955302, 0.013927405, -0.05094612, -0.036981944, 0.07898268, -0.1668141}, 
{-0.15436822, 0.11072997, 0.06048086, 0.17110062, -0.16814265, 0.06696959, 0.10129629, 0.058660742, -0.14907916, -0.09934694, 0.009202491, 0.11498542, -0.111664414, 0.14801626, 0.15298915, -0.12873212, -0.043097958, -0.011720101, -0.008864791, 0.050493382, -0.022100775, -0.17192513, -0.19986875, -0.08515767, 0.0824618, -0.05108245, -0.048611213, -0.10939946, -0.017081022, -0.063542984, -0.014376551, 0.00015438545, -0.004359435, -0.09973462, -0.055527646, 0.10325406, -0.16740271, -0.081367925, -0.0932779, -0.0669605, 0.02721218, -0.1927434, -0.037803788, 0.017642215, -0.08358394, 0.026823627, 0.14508994, -0.0058532353, -0.093190156, -0.014547241, 0.06841794, 0.057286713, 0.048919365, -0.049706556, -0.011391352, 0.130146, -0.16550714, -0.093331166, 0.016644817, 0.0680562, -0.08340106, -0.070571445, -0.01006728, -0.13950098, 0.049390003, -0.13368759, 0.058890738, -0.0740678, -0.16942327, -0.02971368, 0.10662073, 0.033513926, -0.095716104, -0.069804594, -0.09030057, -0.124790326, 0.054558568, -0.13457097, -0.00042830408, -0.080303185, 0.2235668, -0.16190244, 0.006607852, -0.15622127, 0.019474002, -0.026376935, -0.07039939, -0.03622574, 0.12509222, 0.07728429, -0.074833825, -0.0017727913, 0.067287005, 0.061790146, 0.009219906, -0.025096953, -0.14521271, -0.014202715, -0.07700294, 0.19034472, 0.043782625, -0.21272917, -0.031531025, 0.15461715, -0.009656564, 0.03222164, -0.19203663, 0.09200344, -0.18862455, 0.18870471, -0.1319766, 0.005041232, -0.07166906, -0.21080033, 0.072893605, -0.027459938, 0.052292876, -0.024115346, 0.020152971, 0.04948717, 0.03047047, 0.16874261, 0.040921733, 0.16613513, 0.0389331, -0.16087739, 0.16436785, -0.05797764}, 
{-0.06248925, 0.09117743, 0.030648647, 0.12368172, 0.052376483, -0.13544162, -0.005566883, 0.0726759, -0.18073177, -0.178119, -0.1118846, 0.040360056, -0.06336762, -0.12039749, -0.15686905, -0.12430028, 0.13009316, 0.016781906, -0.0023163124, -0.113909885, 0.09425311, 0.11460172, -0.03995641, -0.18921559, -0.13454661, -0.12615477, -0.13832505, 0.14622568, 0.020392228, 0.06913911, 0.0917468, -0.05292474, 0.007550506, -0.0022607862, 0.10321387, 0.058792565, -0.21356335, 0.059340987, -0.14666122, -0.09689084, -0.08101571, -0.135992, -0.028323585, 0.07667478, -0.14519686, -0.104016386, -0.055092786, 0.021078339, -0.2178061, 0.11019157, -0.23830278, -0.108891636, -0.0495334, -0.09955359, -0.0002095087, -0.092729956, -0.04076526, 0.12882529, 0.10289572, -0.026844405, -0.16949439, 0.023187893, -0.0903064, -0.022253193, 0.035611134, 0.027514074, 0.111086756, 0.019910697, -0.06793152, 0.12788552, -0.003937273, -0.0741712, 0.1722306, 0.06519324, 0.021369772, -0.057061236, -0.039134257, 0.12076044, 0.026567668, 0.05091245, 0.16663474, -0.10478068, 0.16770718, -0.0132558085, 0.14117607, -0.060134884, -0.11138211, 0.13874483, 0.14777768, -0.14787406, 0.18914029, 0.110134415, -0.12568328, -0.023045659, 0.11725004, -0.03664237, -0.12754585, -0.015984852, -0.16021185, -0.13482761, -0.194335, -0.25124928, 0.09591986, -0.014369419, -0.07230791, -0.019889504, 0.020907294, -0.16091067, -0.15202206, -0.10924357, 0.09748782, -0.04452629, -0.23918986, -0.013325334, 0.0080302255, -0.12935683, -0.05526285, 0.06096714, -0.06391428, 0.062167186, -0.056599032, -0.13418715, -0.037129182, -0.039021753, -0.18199648, -0.1601003, 0.08925532, -0.0725304}, 
{0.10813259, -0.074923694, 0.19434611, -0.14051355, 0.0007519312, -0.1887457, -0.04520443, 0.051273607, -0.042736653, -0.14918344, 0.06862694, 0.122372486, -0.06296711, -0.091589406, -0.08163769, -0.16323802, -0.016178206, 0.13060832, -0.179874, -0.09530474, 0.029619759, -0.15670964, -0.107788935, 0.0069590225, -0.17182928, 0.07029978, -0.19266333, 0.14518821, -0.006849935, 0.009734808, -0.035781324, -0.13474713, 0.08001513, 0.13127437, 0.0455622, 0.08002073, 0.0753793, 0.026130144, 0.13838573, -0.09129905, -0.08532866, -0.04894224, 0.01563607, 0.11885336, 0.14670286, -0.18069313, -0.114240885, -0.00493594, 0.11650736, 0.06428675, 0.031365994, -0.13390262, -0.18020572, -0.0723047, -0.014126876, -0.14326271, -0.1264606, -0.027305108, -0.06655264, -0.019666102, 0.031248774, -0.030324094, 0.03344077, -0.14417525, 0.13075402, 0.04562845, 0.13554566, -0.09078112, 0.15670665, 0.008591298, 0.015989251, 0.1311963, 0.16184059, -0.0724495, 0.028747298, -0.19464308, -0.00796216, 0.058015198, 0.1414626, -0.15120216, 0.15060256, -0.068626806, 0.09786526, -0.11416112, 0.021190887, -0.029730545, -0.02567066, -0.16495642, 0.031784527, -0.056362048, 0.10526183, 0.08154298, 0.06377041, -0.05786247, 0.19884983, -0.15739408, -0.17893569, 0.09989892, -0.021964055, -0.012760562, 0.064243376, -0.120078646, -0.097652934, 0.014835982, -0.13132526, -0.027079433, -0.038663115, -0.12341485, 0.1059232, 0.060109038, 0.13019654, -0.23361048, -0.14934143, 0.075762704, -0.26018727, 0.02854344, 0.09788322, 0.012062556, -0.12231165, -0.082248084, 0.050257295, -0.030660955, -0.1271089, -0.10997071, -0.033540826, 0.042455297, -0.056833565, 0.05765335}, 
{-0.13711564, 0.1908762, -0.04146664, 0.046109553, 0.2087497, 0.010752735, 0.05370275, 0.130392, -0.12924553, -0.036979917, 0.12710696, -0.17704132, 0.16062386, 0.09407589, -0.16794327, -0.055695787, 0.025944537, 0.011528662, -0.030693768, -0.026173646, 0.12146854, 0.08691861, -0.08018268, 0.13102947, 0.08449968, 0.16306007, -0.052521195, 0.07786169, 0.018497052, 0.11262357, 0.1281859, -0.027922187, -0.0018781006, 0.028822344, -0.082411036, 0.13949966, 0.04328768, 0.021510767, -0.015383174, -0.055271436, -0.04185229, -0.13400398, 0.054797493, -0.17292246, 0.109681785, 0.105477534, -0.18882881, 0.050683875, -0.13474883, -0.11551476, 0.020202652, 0.094408356, -0.14691609, 0.15684953, 0.039815016, -0.14331116, -0.034911014, -0.0900292, 0.016045136, -0.09114975, 0.067440376, 0.06006379, -0.11198691, 0.054494787, 0.073128425, 0.12353325, 0.081724204, -0.09162186, 0.06444771, -0.030337892, -0.15569186, -0.08962795, -0.061711527, -0.052149944, -0.120803565, -0.026233792, 0.08333351, -0.0068739397, -0.065602794, 0.13573912, -0.0069628437, -0.15921664, -0.05578127, -0.1907972, -0.14389132, 0.14618859, -0.14839652, -0.08011983, 0.105319835, -0.03314176, -0.1704871, -0.11691722, -0.13266885, -0.0978409, 0.019728024, 0.07291637, -0.0044190227, 0.09449013, -0.0115985675, 0.1172661, -0.055130593, -0.06655735, 0.13740832, 0.059515256, -0.14656931, -0.11383571, 0.035304435, -0.16594397, 0.07622281, 0.09805333, 0.06963302, 0.15229005, -0.02940364, 0.10308732, 0.00016851138, -0.014413111, -0.10963891, -0.012917767, 0.07063218, 0.11358383, 0.14350004, -0.15824512, -0.07079552, 0.0824023, 0.040584553, 0.09973601, -0.05056861, 0.22910945}, 
{-0.20369661, 0.14234714, -0.14523074, -0.14690635, -0.06612359, -0.095048025, 0.12186728, -0.15378673, -0.15188612, -0.11346793, -0.072743766, 0.07067261, -0.00918323, -0.1225959, 0.055063363, -0.073670715, 0.028213654, -0.06793717, -0.18503053, 0.06446238, -0.009977836, 0.19683713, -0.16730157, 0.104847796, -0.03344925, -0.1511777, -0.16735397, 0.15427732, 0.04299271, -0.03307014, -0.0032673122, 0.187466, -0.019304674, -0.052329455, -0.22281016, 0.053746577, -0.008577644, -0.12287188, -0.13399497, -0.029652543, -0.17827028, -0.08321358, -0.009066575, -0.19486661, -0.091640584, -0.007478867, 0.11789257, 0.08927289, -0.17897727, -0.018701807, 0.03845769, 0.07571685, -0.17084879, -0.117958434, -0.084554344, 0.16634311, 0.04867809, -0.0052539036, 0.07959958, -0.15354703, -0.16997911, 0.049391974, 0.1291551, 0.14215493, 0.06864721, -0.19865333, -0.18018545, -0.21854639, 0.015769001, 0.23018698, -0.012689469, 0.14550923, -0.034961373, -0.109685965, 0.065465525, 0.023638284, 0.002141946, -0.014707861, -0.13441806, -0.15313998, -0.13455343, -0.20075358, -0.07339084, -0.07825519, -0.037472952, -0.1569234, 0.20549986, -0.070860796, 0.18995829, -0.13046357, -0.018412491, -0.026517887, 0.18175119, 0.16308416, 0.01567981, 0.11308941, -0.024445536, 0.13983686, 0.013763202, -0.074324705, -0.1744479, -0.035947792, -0.08022168, -0.045054596, -0.0029551801, -0.06628917, -0.11781875, -0.0019939244, -0.22216812, -0.12415628, -0.09055572, -0.10418543, 0.02754131, 0.010359977, -0.21481903, -0.1733608, 0.08331945, -0.042687308, -0.055939086, 0.022822537, -0.18085031, 0.0926611, -0.1727929, -0.19376162, -0.028469814, 0.009707306, -0.0072146603, -0.10577684}, 
{0.092582166, -0.13633087, -0.0841693, -0.16672933, 0.034509122, 0.16829376, -0.13476971, 0.11510242, -0.1355524, 0.0589472, 0.1273237, -0.033610962, 0.072627395, -0.11770699, 0.018421633, 0.07638613, 0.15724616, -0.021403328, -0.044298254, 0.069137394, -0.0063363523, -0.16817485, -0.13605203, -0.05287616, -0.01936486, 0.15338217, -0.1281092, 0.16903171, 0.19237801, 0.11961918, 0.035298374, -0.0053516636, 0.054281928, 0.08791094, 0.12855218, 0.031954195, 0.047679335, -0.044337805, -0.031864963, 0.06797239, 0.16268857, 0.0026569169, -0.019621368, -0.120887175, -0.06151031, -0.18012522, -0.07186539, -0.007949714, 0.21808319, 0.06628093, 0.1432761, -0.15854697, 0.18760008, 0.12583657, 0.06989547, -0.010901186, 0.088536985, 0.14522402, -0.016840095, 0.20407836, 0.068426564, 0.0023337787, 0.15987659, -0.028734993, -0.16844831, 0.037646372, -0.1352829, -0.06941657, -0.12889177, 0.09597994, -0.06849085, 0.03795557, 0.07119582, -0.08591481, 0.15531664, 0.1202794, 0.074495986, 0.1105731, 0.17982711, 0.07650495, -0.086651936, 0.0048289895, -0.07182995, -0.029060781, -0.020166285, 0.033314306, -0.20726432, 0.11823247, -0.18097651, -0.048289713, 0.1900803, -0.04370169, -0.15976876, -0.14025, 0.11284921, 0.06148874, 0.18589035, -0.028125318, 0.051521096, 0.06935198, 0.04511036, 0.1850337, 0.032616183, 0.20378761, -0.04316047, 0.07746489, -0.00977611, -0.070807755, 0.19634254, 0.037744813, 0.09234591, 0.16549654, 0.23362325, -0.06523339, -0.04701603, -0.06074307, 0.0027142437, 0.12162664, 0.04394349, -0.11207051, 0.18610907, 0.14701812, 0.074214496, 0.21711121, 0.080205105, -0.1591136, 0.19969568, 0.06208087}, 
{-0.0047715046, -0.025648693, -0.10570755, 0.19751135, 0.016056689, -0.03815275, 0.13284054, -0.13320838, 0.10290239, 0.07850688, 0.03842631, 0.19294252, 0.007216904, 0.16834195, -0.012504181, 0.10862517, 0.069971636, -0.0760645, 0.15669787, 0.08058325, 0.08909037, 0.10872463, -0.07167934, -0.07420849, 0.027128415, 0.16015223, -0.09728203, -0.110066995, 0.06796006, 0.080182076, -0.09266522, -0.18060587, -0.05688469, 0.011755409, 0.07504231, -0.06003174, 0.15841137, -0.09138513, 0.15986124, 0.19688924, -0.16304582, -0.05191204, -0.040087685, -0.091416694, -0.113797516, -0.040267546, 0.120955735, 0.14908156, 0.1794994, 0.00083252945, 0.13047603, 0.1873254, -0.0134296715, 0.08592552, -0.09890546, 0.10897709, 0.104764625, -0.12803559, -0.06848059, 0.079668425, 0.017292075, 0.024340034, -0.07666002, -0.0075818556, 0.120421976, 0.047790263, 0.06270606, 0.04878298, -0.14803925, 0.097476736, -0.012869452, -0.10624509, 0.0023414874, 0.05540026, 0.11997745, 0.07176866, 0.14587991, -0.14370732, 0.15146467, 0.101806894, -0.14815903, 0.1892828, -0.14002192, -0.06479307, -0.031625856, -0.07207609, -0.16822436, -0.07281161, 0.02328216, -0.08460355, -0.14639717, 0.1296466, 0.0010338167, 0.119345404, -0.09225836, 0.06211013, 0.026965614, -0.079390965, -0.065297075, 0.19965735, 0.08585427, 0.019579725, -0.104040585, 0.05593194, 0.05351878, 0.14264143, -0.08764999, 0.0008127822, 0.11718355, 0.085796274, 0.1193912, 0.1955867, 0.11155655, 0.13285142, 0.22153212, -0.045573797, 0.029313652, -0.052176032, 0.21874107, 0.08120397, 0.05165208, -0.105336815, -0.09312639, -0.06713725, 0.07057696, -0.06882297, 0.11251876, 0.08350959}, 
{-0.085703894, -0.053562783, 0.0272489, -0.04564328, -0.20454432, 0.05471773, 0.10540343, -0.15217909, -0.16434231, -0.035990283, -0.08401461, -0.071308956, -0.13875371, 0.05842952, 0.0819981, 0.042874735, 0.07108158, 0.080318734, 0.024012415, 0.04266629, 0.10538388, 0.028950905, 0.00884456, -0.07598249, 0.103434, 0.093314916, -0.0033754036, 0.17492974, 0.04855629, 0.017291967, 0.11716834, -0.19465736, -0.11523612, -0.19662091, -0.0393173, -0.15460902, 0.02560904, -0.20318615, -0.04474931, 0.09538098, -0.07915883, 0.07535103, -0.021411879, 0.14060561, -0.19430973, -0.115912676, -0.04796193, -0.17919867, -0.14405923, -0.19775604, -0.059172522, -0.15041754, 0.07994543, -0.14218716, 0.071543, -0.06817139, -0.15871236, 0.157128, -0.041579667, 0.11038105, -0.029054537, -0.052265693, -0.23848313, -0.015359542, 0.15959974, -0.16802523, -0.06509697, -0.16582184, 0.05074672, 0.05615045, 0.10474607, -0.068163775, 0.09032463, 0.010529428, 0.08679913, -0.053218123, -0.0059043546, 0.15302293, 0.030857502, -0.18971837, -0.050871544, 0.011901349, 0.09397262, -0.010543179, 0.06375903, 0.08398292, -0.10809297, -0.1498957, 0.15189685, 0.052747935, 0.163032, -0.048182305, -0.077175386, -0.116368644, 0.03135875, -0.058089193, -0.062531814, -0.07004113, 0.028062431, -0.096706636, 0.013653262, -0.20290262, -0.023210334, -0.025083842, 0.07800835, -0.10703205, -0.062482215, -0.1593723, 0.0025924845, -0.21006948, 0.008399186, 0.032270644, -0.0395139, -0.16778482, -0.2103515, -0.014803887, -0.04212578, 0.07555199, -0.1712455, -0.19387342, -0.17678976, 0.043346666, -0.08920173, -0.09435105, 0.011674525, 0.052949972, -0.12539299, -0.17157246}, 
{-0.112307586, -0.11168112, 0.052593444, -0.0012721645, -0.13386136, 0.052951463, 0.004387791, 0.16053732, -0.010036792, -0.14311528, 0.0047432547, 0.044989932, 0.08934478, -0.14289322, -0.12531677, 0.1497784, -0.13786124, 0.094791256, -0.0068972157, -0.07815763, -0.05694048, -0.032376345, -0.0605137, -0.121948645, -0.14291234, -0.07518312, 0.04512447, -0.21631317, -0.009864575, -0.12818052, -0.24470809, 0.10379554, -0.09105664, 0.062194314, 0.14888707, 0.056195486, 0.123536915, 0.104624055, -0.13466577, 0.025903841, 0.16752313, 0.2000712, -0.19895263, -0.16896367, -0.16034716, -0.06550718, -0.082206756, -0.005550253, -0.16619551, -0.22292885, -0.19135493, -0.09831659, -0.103991896, -0.0029374924, -0.02945114, 0.116825916, -0.05039845, -0.11320606, -0.116021894, -0.099226706, 0.18033272, -0.16310209, 0.10598696, 0.04053602, -0.08169958, 0.008812012, -0.10155023, -0.0053429147, -0.034450315, -0.029369833, -0.14880404, -0.1317846, 0.014245282, 0.12179663, -0.02795008, 0.045855463, -0.15469106, -0.13918771, 0.005580447, 0.14902408, -0.08935371, -0.019704454, 0.07600676, 0.16079368, 0.16927297, -0.040737238, -0.004051992, -0.061628334, -0.14005902, 0.054458812, -0.18347298, 0.04888536, 0.060828984, -0.18084453, -0.10167414, 0.00715831, -0.059782065, 0.033105366, -0.08542796, -0.11768489, -0.09673307, -0.13795605, -0.040529553, 0.10602127, 0.08474283, 0.001940019, -0.1183045, -0.19126521, 0.15164521, 0.20204896, -0.04891996, -0.011773553, -0.039652545, 0.047246307, 0.10683262, -0.18819535, -0.028290143, -0.09250791, 0.15131888, 0.037895553, 0.019711059, -0.08548817, 0.095734075, -0.17146195, 0.06793516, -0.020411337, 0.051165234, -0.05047088}, 
{0.0024655678, -0.071868576, -0.13759804, -0.014139474, -0.21580176, -0.105291806, -0.0066107768, 0.088764556, 0.06282993, -0.1526878, -0.21046978, 0.025614716, 0.05752194, -0.1521862, 0.10408263, -0.0667433, -0.05559776, 0.008715723, -0.11233589, -0.072556406, -0.16390675, -0.17300358, -0.15531053, -0.16857223, 0.08458321, -0.18119213, -0.039527785, -0.03162565, -0.031759653, -0.12229824, -0.19345741, -0.13399765, 0.08601972, 0.083523974, -0.08967523, 0.09975722, -0.053448454, -0.030693727, -0.07526679, 0.19640768, -0.014034476, -0.047700234, 0.004573394, -0.040250946, -0.09398526, -0.13684157, 0.060387786, -0.055374153, -0.047358867, -0.116797864, -0.039177302, -0.1105954, -0.03983357, 0.13639036, 0.027427178, 0.07031576, -0.00682014, -0.041055474, -0.026353953, -0.15173331, 0.043747187, 0.12558018, -0.15668271, -0.009005076, 0.09138014, 0.023254864, -0.026909027, -0.1503111, 0.15131888, 0.123972945, -0.026394522, 0.14539234, 0.06549985, 0.02195455, 0.11387079, -0.0043326654, -0.119065344, 0.041296955, -0.17733143, -0.13279198, 0.07161481, 0.132157, 0.14062898, 0.12346441, 0.16001724, 0.06709488, 0.014943993, 0.13072161, -0.075563334, -0.06194211, -0.01316302, -0.15039931, -0.041160196, -0.057729926, 0.036490753, -0.00026568613, -0.04840693, -0.062746905, 0.06441134, -0.097650215, 0.041712813, -0.22086313, -0.09288055, 0.15373516, 0.17401901, -0.081165284, -0.04782537, -0.21087033, -0.04813197, 0.05438303, -0.0051066293, 0.08170657, 0.1530689, -0.1086841, 0.073129416, 0.05884593, -0.0007653793, -0.11183567, -0.17241578, -0.056339983, -0.1282815, 0.040888403, 0.068507634, 0.02977622, -0.09599409, -0.035637863, -0.014766274, -0.07447104}, 
{-0.085350215, 0.17591801, 0.044404726, -0.15522923, 0.032116596, 0.25089687, 0.1849867, -0.076160945, 0.08971419, -0.08329224, 0.18037337, -0.007932885, 0.15756947, -0.18159355, -0.120814994, 0.004339181, 0.085438125, 0.087139085, -0.03489533, 0.12180458, 0.008064749, 0.07223792, -0.025363162, -0.022871539, 0.059400167, -0.14387645, 0.16918084, -0.07505582, 0.079396255, 0.18255882, 0.030820874, -0.039942544, -0.099569395, -0.0054460885, -0.025186699, -0.12624437, 0.09332969, 0.13136892, -0.096757755, 0.09860863, 0.057885647, 0.16437782, -0.053675216, -0.09525714, -0.056719884, 0.053847227, -0.06312369, -0.039058335, 0.0041912333, 0.0043611415, 0.022445107, 0.23842952, -0.12676154, 0.12101162, 0.047810838, 0.19659506, 0.19953567, 0.11839128, 0.0028967513, -0.053267207, -0.0552364, 0.02156841, 0.029613536, -0.07096616, 0.011334156, -0.19540852, -0.07482433, -0.16009563, 0.1767044, -0.04679677, -0.0041160933, 0.08320263, -0.046971958, -0.09934055, -0.17351319, 0.13084224, 0.14702916, 0.09136335, 0.0075235176, 0.01328128, -0.21647643, 0.011302218, 0.19822583, 0.06644164, -0.0034517746, -0.1334152, -0.13939328, 0.06455598, 0.18730943, 0.053934466, 0.085871086, 0.13534187, 0.15510035, -0.09595801, -0.10471744, -0.09565833, 0.16460054, -0.05241512, -0.12538007, 0.0024843777, 0.032201666, 0.25893465, -0.112363584, -0.03196736, 0.16177486, 0.2111767, 0.17792901, -0.051587027, 0.14657003, 0.09612296, 0.17475401, 0.23540108, 0.13775918, 0.0045201373, 0.19733031, 0.19226353, 0.11709815, 0.14762, 0.10243325, 0.11012407, -0.092900515, -0.12710214, 0.14825046, -0.18398164, 0.07135021, 0.023964653, 0.18846603, -0.073131345}, 
{-0.03240631, 0.054519422, -0.13673526, -0.03588152, 0.25077754, 0.09778759, 0.077583835, -0.08722492, -0.0491156, -0.016446298, 0.00074749306, -0.075956106, 0.014936807, -0.018872425, 0.026776398, -0.14797914, -0.12502411, -0.003701632, 0.17243867, 0.053499702, -0.128627, 0.21153295, -0.050458923, -0.16949698, 0.020708025, 0.0120694395, 0.12524787, -0.14151709, 0.12448268, 0.14840275, -0.037564952, 0.13517246, -0.004126718, -0.09394404, 0.022370987, -0.09424036, -0.077367716, 0.14655973, 0.0065672686, -0.19614933, 0.122661225, -0.1781492, 0.20697059, -0.032851625, -0.10881492, -0.05427223, 0.111655004, 0.013449486, -0.17253423, -0.05855918, -0.055990957, 0.16585216, -0.15542798, 0.19799444, -0.017614268, -0.06037833, 0.15741292, 0.062089104, 0.16697639, 0.0939278, -0.07214436, -0.05594687, -0.028264511, 0.060650714, 0.016631756, -0.18666635, -0.035674002, 0.066784576, 0.15342666, -0.073322654, -0.032974612, 0.1342792, 0.063243985, -0.14167303, -0.18454048, 0.10327803, 0.17615686, -0.09694562, 0.09245293, -0.20483746, -0.018217124, 0.1377769, -0.043706737, 0.04586908, -0.17688455, -0.038701124, 0.15633225, 0.1548952, 0.1344418, -0.025292233, -0.1402781, -0.14076282, -0.040341552, 0.17358068, -0.03335386, -0.05280577, -0.13540037, -0.065208554, -0.16296263, -0.113275446, 0.044039775, 0.16569553, -0.005911296, -0.043920033, 0.012596651, 0.017037828, 0.04745758, 0.029188706, -0.044565275, -0.19556622, -0.10583923, 0.23088041, -0.0014135956, -0.040518917, 0.22421384, 0.15162085, 0.06253031, -0.04492633, 0.058807597, 0.004136492, 0.085899144, -0.029037874, -0.09397641, 0.14040428, -0.016413, 0.14513542, 0.24191584, -0.08647659}, 
{0.13222893, -0.050242987, -0.0020076127, 0.1297635, 0.19441117, 0.07957962, 0.12848148, 0.030732295, 0.01860516, 0.04378051, 0.03356699, 0.14718309, 0.16985533, -0.15087546, -0.15087037, -0.14690565, -0.06654074, -0.04945512, 0.17807437, 0.025967073, 0.056994926, 0.07831794, -0.16169964, -0.11161072, -0.11088429, -0.016458364, -0.094221674, -0.14244434, -0.16581556, -0.110648565, 0.13193487, -0.0143560795, -0.046736326, 0.021677345, 0.09931257, -0.144424, -0.124380596, -0.1255515, 0.15430474, -0.16661483, 0.15021005, 0.12613292, 0.11414755, -0.034898844, 0.03304768, -0.20501675, 0.0042274254, 0.03705651, -0.17005903, 0.17745374, -0.068150125, -0.032809988, 0.15004045, -0.0056395745, -0.086624235, -0.10288448, 0.17794049, -0.08250217, -0.050178785, 0.10339532, -0.06449934, -0.04697544, 0.06932168, -0.017563816, -0.13424683, 0.07666332, -0.07755725, 0.04354968, -0.1627712, -0.043540254, -0.002407872, -0.08331726, 0.05284896, -0.0016774333, 0.1556868, 0.011521948, -0.07492207, 0.17453887, 0.06090308, 0.17162149, 0.043393984, 0.053280436, -0.167586, -0.16077521, 0.07491447, 0.027318748, 0.12011965, 0.15081248, 0.059885114, -0.02869331, 0.063605644, 0.06900324, -0.054089364, -0.09467902, -0.08999679, 0.068765774, -0.15520573, 0.22223675, 0.04748274, 0.013066358, -0.0878987, -0.12037144, -0.007704598, -0.093007706, -0.10615803, -0.084549986, -0.012997083, -0.16620524, -0.06469106, -0.064237975, -0.08085923, -0.0009184363, -0.011553734, -0.0153994635, -0.07211378, 0.16797975, 0.055718567, 0.19537345, -0.09048563, 0.079005055, 0.025508225, -0.08377356, 0.14954862, 0.053870074, -0.11214815, 0.01949224, 0.15348421, -0.10031536}, 
{0.12955406, 0.20628537, -0.12574425, 0.035172075, 0.08114337, 0.0013639358, 0.11699937, 0.04735301, 0.047132414, 0.16836368, 0.02393481, 0.012964798, -0.048401274, 0.018321943, -0.15348506, -0.14029771, -0.078464724, -0.075725146, -0.15167303, -0.025693053, 0.06670476, 0.14069021, -0.086342596, -0.04297788, 0.078741185, -0.029766494, 0.094574146, 0.07670544, 0.06638571, -0.1258907, 0.04825782, 0.15656471, 0.21572971, 0.090625964, -0.06273883, 0.060564473, 0.13171135, -0.120898426, 0.10787549, -0.02895743, -0.011142321, 0.12029751, -0.0054799556, 0.054334424, -0.11975758, -0.17142276, -0.023995291, -0.1308401, 0.07057232, 0.08287015, -0.003508031, -0.108239986, -0.09047681, 0.088265754, 0.08778428, -0.14036591, 0.13233703, -0.11314047, -0.15557344, -0.12667225, 0.11734417, 0.092009775, -0.15518972, -0.041134138, -0.031043585, 0.07144911, -0.20145547, -0.046033114, 0.05979343, 0.00025190678, 0.004925514, -0.13267606, -0.0053229015, 0.08767134, -0.036966685, 0.097240485, -0.1405355, -0.19882533, -0.22356452, -0.15660328, -0.1695211, 0.169931, 0.09077756, -0.0632608, -0.039972257, 0.051449697, -0.016297441, 0.02487141, -0.067281894, 0.12532754, -0.089944646, 0.11252872, -0.16959673, -0.11031503, 0.18852626, 0.079802714, 0.18811972, 0.2438309, 0.15272942, -0.17749089, 0.15078807, 0.20024554, 0.002480798, -0.16319242, 0.13098414, -0.06983964, 0.02822049, 0.006032798, 0.17703566, -0.0067574396, 0.00028146012, 0.23019819, 0.19531746, 0.19958715, 0.019551639, -0.014225084, 0.16715863, 0.21655518, 0.040492583, 0.17818835, -0.095104605, 0.110505894, -0.08569687, -0.075516745, 0.057116773, 0.14736405, -0.043526344, -0.029377714}, 
{-0.016825821, -0.033383187, -0.11462539, 0.0818116, 0.059218854, -0.028045353, -0.005912656, 0.20716742, 0.010273666, -0.16137935, -0.19575037, -0.1506587, -0.15515892, -0.11558009, 0.0717824, 0.04739087, 0.17945597, -0.10615954, -0.02973281, -0.22251293, -0.031125177, -0.08033323, -0.021415627, -0.056266688, -0.07819142, -0.106326886, 0.10942899, 0.04281583, 0.19448243, -0.13324127, 0.18342316, 0.13403817, 0.09812091, 0.131179, -0.17582674, -0.019816373, 0.008541347, -0.12564746, 0.014020626, 0.01680238, -0.117155336, -0.06935655, 0.11385079, -0.011450614, -0.09734823, -0.012559394, 0.15152971, 0.012938782, 0.123943076, 0.0008864509, 0.10355498, 0.086012624, 0.025992211, -0.032798026, -0.1460909, 0.062539056, 0.11075705, 0.07265393, -0.16848119, 0.12306075, -0.15079248, 0.027832314, 0.21950962, -0.061889723, 0.1604012, -0.16348568, -0.03093013, -0.16897826, 0.032988314, 0.13737579, 0.04244757, -0.039312262, 0.015584621, -0.057394672, 0.11005153, 0.15906185, 0.15744726, 0.07234508, -0.11991935, -0.04161093, 0.16534762, -0.13745876, -0.043939333, 0.0069079334, 0.12825902, -0.06644404, -0.12564012, -0.14000009, -0.020197976, -0.038723547, 0.106772736, -0.18254733, 0.12027008, -0.15028702, 0.02862381, 0.005834297, 0.016238803, -0.117671, -0.107086495, -0.17762884, 0.029094687, 0.0796057, -0.13525423, -0.040564377, 0.06755175, -0.040275052, -0.2102456, -0.2172102, -0.16398786, -0.073735826, -0.010973307, 0.11543013, 0.011738497, -0.15091802, 0.13736995, 0.10548749, 0.08684346, -0.088962406, -0.030517226, 0.08579039, -0.0706524, 0.15898447, 0.11659241, 0.10508701, 0.10731251, 0.15659396, 0.072977446, -0.081308454}, 
{-0.16841556, 0.10008955, 0.15836151, 0.1910328, -0.06618598, -0.16360687, -0.062101483, -0.0032591298, -0.13239293, 0.07567785, 0.101312086, -0.042254407, -0.12781326, 0.0764534, 0.07322161, 0.029915236, -0.120703906, 0.02946716, -0.18909699, -0.06250484, -0.0038925344, -0.16456419, 0.020699956, -0.09941082, 0.12869889, -0.10412111, -0.022583332, -0.057715874, -0.019562691, 0.044974387, 0.0327088, -0.23094732, 0.15997589, -0.023457948, 0.041417312, 0.07334399, 0.07102335, -0.06432496, -0.036476895, -0.042280685, 0.026194056, -0.13010593, 0.044375, -0.0217167, -0.01979667, 0.16062188, -0.13898437, -0.021034462, 0.08086455, 0.038492944, -0.103516385, 0.035054605, -0.05671822, 0.086856194, -0.011573574, -0.04935192, -0.17999557, 0.05300374, 0.0568604, 0.12136847, -0.19660349, -0.031683404, -0.036356978, -0.06567832, 0.020984424, 0.12303229, -0.013120069, -0.006057242, 0.15440482, 0.061737265, 0.045441795, 0.09969419, -0.093887255, 0.02386869, 0.012068132, -0.085621074, 0.08126103, 0.06747687, -0.100528345, -0.15969278, -0.056709204, -0.1682524, 0.086737856, 0.10369104, 0.014273487, -0.09349596, 0.14054015, 0.1550897, 0.11695329, -0.06958536, 0.06174395, 0.025436187, 0.14788277, 0.029618409, 0.12787278, 0.13275924, 0.06018379, 0.10153716, -0.13188003, -0.07279751, -0.04442182, -0.08669501, -0.15299642, -0.17910948, 0.036619276, -0.031315643, 0.12763256, 0.08811919, -0.029136792, -0.12588856, 0.07182923, -0.1357768, 0.08706053, -0.15099704, -0.16471133, 0.061730508, 0.07074397, 0.121684216, -0.13931367, -0.06041274, 0.09273779, -0.123453364, 0.10463121, -0.14656682, 0.10079378, -0.20541592, -0.11150734, -0.24594772}, 
