#define layer_1_input_size 32 
#define layer_1_kernel_size 64 
const data_t layer_1_kernel_weights[layer_1_input_size][layer_1_kernel_size] = {{-0.22058533, 0.06624885, 0.075582184, -0.15392786, 0.16020305, 0.26092082, 0.12434079, 0.26630777, 0.08089865, 0.0036434573, -0.2533267, 0.12276019, 0.098670356, 0.13455446, 0.029493041, 0.035052393, 0.16508734, 0.016050672, -0.4420668, -0.100894295, 0.19629075, -0.27285314, -0.11165028, -0.16723028, -0.032783605, 0.0687603, 0.14229384, -0.08330813, -0.09638319, -0.15916504, -0.012512625, 0.025071394, 0.09861557, 0.20805943, -0.02995935, -0.026390336, 0.19808221, -0.25947267, -0.15154576, 0.20891696, 0.06530128, 0.1750374, -0.027734557, -0.08572722, 0.23565729, 0.28102228, 0.12800005, 0.09936125, 0.06977117, 0.097588934, -0.42790538, 0.16002184, -0.0067246016, -0.2525382, 0.015991446, -0.03932954, 0.04262698, 0.252678, -0.14145255, -0.14230546, -0.279203, -0.15533783, 0.06296259, -0.06637131}, 
{-0.07633041, -0.46084598, -0.054770455, 0.090813346, 0.021688987, -0.11560569, 0.14084335, -0.15815927, -0.012956709, -0.0951006, 0.21341048, -0.17625542, 0.12902117, 0.11628319, -0.16104999, 0.09123886, 0.09924977, -0.24098116, 0.14189851, 0.014323956, -0.14100915, 0.16106652, -0.082840726, 0.14417425, 0.023365235, 0.16580941, 0.062470045, -0.15477796, -0.12500641, -0.14549808, 0.026995463, 0.09067256, -0.01430837, 0.0113068735, -0.2076713, -0.08709314, -0.21786769, -0.0010126181, 0.18653172, -0.06533287, 0.1532248, 0.035397455, 0.1384668, -0.122548655, 0.11430583, -0.22847676, -0.22837342, -0.193468, 0.15747099, -0.005711316, 0.18070051, 0.26353702, 0.014875912, 0.3459885, -0.17123576, 0.011894498, -0.18324265, 0.17884612, 0.17619029, 0.15007901, 0.17287616, -0.14859891, -0.08707048, -0.43727297}, 
{-0.008150623, -0.14017534, -0.024819382, 0.007109141, -0.2525233, 0.12750788, 0.09720812, 0.100714214, -0.08441739, -0.10939811, -0.14781015, -0.13281916, 0.06923583, -0.08678233, -0.08593789, 0.15902701, 0.16415393, 0.31108236, 0.30140993, -0.0567524, -0.16291423, 0.15568574, 0.26463202, -0.31509927, -0.03795101, -0.20002763, -0.25105602, 0.16197743, -0.16516373, -0.3173851, 0.091842495, 0.23217797, 0.123129904, 0.15549353, 0.05247139, 0.12790628, 0.048619546, 0.08296502, -0.13381274, 0.15569885, -0.038430665, -0.14016879, -0.15196304, -0.053700626, 0.055651523, 0.22165374, -0.22426467, 0.12421191, 0.1766714, -0.06131172, 0.086566836, -0.22537155, -0.27135283, 0.01673073, -0.23927438, -0.37120584, -0.24607025, -0.3468788, 0.04332733, 0.033343863, -0.24467118, -0.02206725, -0.011866875, 0.19171132}, 
{0.10341905, 0.016043028, -0.043592606, 0.1623451, -0.27557445, 0.041686278, 0.2678457, 0.4037806, -0.13091367, 0.09802951, 0.12904838, 0.06841575, -0.23152038, -0.07916721, 0.06853015, 0.048696224, -0.05589037, 0.22228904, 0.21481007, -0.20360038, -0.13497901, 0.23258597, 0.13120723, 0.22775057, -0.21091749, -0.22966607, -0.17149922, -0.18255515, -0.009676094, 0.24713852, 0.0720825, 0.13598289, 0.19730794, 0.108087555, -0.22375472, 9.976779e-05, 0.0032811451, -0.12345529, -0.18604259, 0.11371599, -0.0012764527, -0.077434905, 0.053667545, 0.017720897, -0.0818806, -0.25579146, 0.19476083, -0.0604085, -0.2097672, 0.27225903, 0.12088363, 0.16851564, 0.05622211, 0.23611103, -0.06262726, 0.29880413, -0.105757765, -0.04158638, -0.17211483, -0.13208227, 0.14680755, 0.2823017, 0.15105692, -0.000989471}, 
{-0.32708395, 0.29640087, -0.07024196, 0.31123397, -0.031381276, 0.18337588, 0.23294301, 0.51451796, -0.22363688, 0.2856379, 0.21856679, -0.037498787, 0.09086503, 0.30341372, 0.25106302, -0.067819215, -0.18212491, 0.3759046, 0.05277892, 0.28090656, 0.17214519, -0.2326972, 0.021142667, 0.23235627, 0.015068863, -0.021545528, 0.27513516, -0.16699831, 0.07932266, 0.076332785, 0.114002444, 0.07967321, 0.16140124, 0.20394892, -0.03190396, 0.027326718, 0.2802495, 0.052535217, -0.14716978, -0.0889984, 0.20664594, -0.09186932, -0.12383743, 0.20098852, -0.07843426, -0.20193593, -0.25233716, 0.24596056, -0.018430801, 0.46614042, 0.2226176, 0.27839118, 0.1990092, 0.03558766, 0.13873103, 0.058061738, -0.17299978, 0.1956075, -0.06712708, 0.09379455, 0.25624552, 0.15097079, 0.359984, 0.05703198}, 
{0.16016291, -0.20027779, 0.052887727, -0.22602692, -0.07657525, 0.019476596, 0.14107136, 0.192703, -0.061864685, 0.0060850927, 0.060271647, 0.017066877, -0.16864067, 0.04005904, -0.0740065, 0.0398841, 0.1248517, -0.16249035, -0.10328059, 0.105576664, 0.0013718419, -0.16470885, -0.18174279, -0.13815619, 0.07281934, 0.16061181, 0.066979215, 0.20441678, -0.18597548, -0.017553067, 0.12805152, -0.04917988, -0.16039997, 0.10656649, -0.2878949, -0.19981351, -0.30566654, 0.10620607, 0.17306496, -0.22215837, -0.026689233, 0.018253982, -0.044317894, -0.047299206, -0.11808067, -0.10365596, 0.1524389, -0.25054395, -0.16027503, 0.054380734, 0.1473129, 0.144559, 0.19487834, -0.11229704, 0.2517323, 0.38364962, 0.29092097, 0.4158136, -0.18623352, 0.23068486, -0.069071926, 0.17856508, -0.09347691, 0.06536553}, 
{0.008071056, -0.22456376, -0.103161454, 0.17431588, 0.03866015, 0.21682844, 0.06073985, -0.12180287, -0.029038347, -0.016522525, 0.10226278, 0.07866555, -0.17426257, 0.20786293, -0.13810636, 0.26269284, -0.022127543, -0.14734478, 0.053800937, -0.15676628, 0.356094, 0.16055834, 0.27159154, 0.13580982, 0.15094239, 0.32038307, -0.08579585, 0.3117929, 0.073779404, 0.11763752, -0.01612925, 0.16022716, 0.11695145, 0.026605858, 0.05042383, 0.035642516, -0.09146176, -0.27519932, 0.28014576, -0.14729296, 0.02363041, -0.16177978, 0.12920381, -0.23375131, -0.03815684, -0.0028426687, -0.14143558, 0.13679798, -0.07608274, 0.04323544, -0.13928412, 0.2456042, 0.032768663, 0.40418857, 0.007359416, 0.120589055, 0.2236423, 0.089718804, 0.25690246, 0.16488642, 0.059333142, 0.2729351, -0.33075848, -0.11793284}, 
{-0.09541308, -0.0526679, -0.06496173, -0.053988412, 0.12592916, -0.10630338, -0.11558011, 0.5454822, 0.115376264, 0.2954871, -0.011392061, -0.014524436, 0.34822544, 0.21447676, -0.15731028, -0.050184857, -0.016585074, -0.23264004, -0.06901366, 0.09523748, 0.032012083, -0.27324206, -0.23586243, -0.09185319, 0.06422112, -0.24368198, 0.004791699, 0.0734885, -0.2796704, 0.043528344, -0.21190244, -0.075802796, 0.1413558, -0.006665974, 0.21595229, -0.07211913, 0.14787161, -0.22673847, 0.071813166, -0.13433893, 0.2785037, -0.114904314, 0.14372204, -0.058050644, 0.36426368, -0.26491126, -0.19118737, -0.020117965, -0.20731997, -0.093838, -0.41024333, 0.24960946, 0.0137786325, -0.15125307, -0.3127097, 0.21357685, -0.16248047, 0.1708852, -0.083205715, -0.20305826, 0.08305421, 0.26126185, -0.1143699, 0.030862944}, 
{-0.26650557, 0.11124382, -0.22216311, -0.21432441, -0.05410381, 0.092193194, 0.1175136, -0.08520815, 0.13547388, -0.18890767, -0.16225031, -0.06244731, -0.04528752, 0.045425143, 0.01596659, 0.020129366, -0.10429818, 0.308651, -0.1617833, -0.33553997, 0.033592552, -0.23926973, -0.073832974, -0.044822898, 0.15227604, -0.0763634, -0.15185842, -0.1830109, -0.22528794, -0.14794774, 0.06541968, 0.09011682, 0.049574826, 0.07721468, 0.29049554, -0.030806398, -0.18464565, 0.18883476, -0.2641001, -0.29593828, 0.13673198, -0.11631575, -0.09334692, 0.24353708, -0.28556144, 0.17897178, 0.07250186, 0.15003498, 0.1322546, 0.04174546, -0.068319336, 0.027570568, -0.1784028, -0.10090467, -0.04337215, 0.055817585, -0.13734911, -0.007905527, -0.30556247, -0.23193754, -0.31283066, -0.13666481, 0.30995074, 0.11971304}, 
{0.12522994, -0.0038761494, 0.094384454, -0.13528058, 0.1298383, 0.07094199, 0.19401234, -0.039968487, 0.25073007, -0.030405013, -0.08458687, -0.1901571, 0.06430426, -0.17482029, 0.11137115, 0.123975076, 0.011278207, -0.027711311, -0.098828495, -0.2576194, -0.2935547, -0.18418913, -0.064454645, -0.11301783, -0.03839671, -0.091050774, 0.018156609, 0.118340336, -0.08771992, -0.12848718, 0.120637976, 0.045578986, 0.21222866, -0.11162075, -0.05727717, -0.14313437, -0.16314138, -0.1581336, 0.17685124, 0.21571223, -0.06315724, 0.16374657, 0.22417827, 0.14227678, -0.2824879, 0.14992762, 0.048854228, 0.13474269, 0.2430361, 0.06610995, -0.062417906, -0.012060868, -0.29301056, 0.029227696, -0.10000905, 0.04639474, 0.00080250704, -0.2914981, 0.088570565, -0.014773386, -0.009535849, -0.34855026, 0.10784296, -0.23517165}, 
{0.15015481, 0.122071326, 0.26140705, 0.13091856, 0.17151469, -0.15116635, 0.054107435, -0.3421276, -0.08454652, -0.018302893, 0.3112113, 0.1955728, -0.023943737, -0.14565678, -0.23571287, -0.063711114, -0.034090266, 0.026063131, 0.21944235, 0.17575108, 0.2899376, 0.2099101, -0.054910637, 0.27061826, 0.15916513, 0.070770614, 0.342652, 0.22088246, 0.18480115, 0.060848072, -0.00062560744, 0.09263244, -0.07414269, 0.13836615, -0.06504287, 0.17061059, 0.02880126, 0.06796604, 0.24789248, 0.18364838, 0.081963524, -0.113569245, -0.031883862, 0.03413394, -0.17517084, 0.12642096, 0.0603747, 0.0630386, 0.1006387, -0.23864765, 0.11663327, -0.16366693, 0.37898874, -0.0128539065, -0.22790445, 0.03725038, 0.19010605, 0.15383628, 0.26344803, -0.12018119, 0.120198004, 0.16203617, -0.06165952, -0.11310888}, 
{-0.019295335, -0.01542747, -0.11418793, -0.16667031, 0.17493823, 0.18096393, -0.1154409, -0.3902639, 0.009325987, 0.05186722, 0.2670939, 0.132212, -0.31887653, -0.077121295, -0.045031663, -0.1507561, 0.21082331, 0.19763836, -0.011403664, 0.08980884, -0.007262778, 0.21037495, -0.16514188, 0.17985407, -0.12489045, 0.29600593, -0.1660774, 0.16487953, 0.051148184, -0.18546495, -0.16252188, 0.22834735, 0.10584465, 0.11339947, -0.18923436, 0.17089051, -0.23052625, 0.15765998, 0.17254686, -0.08064036, -0.07497186, -0.2557225, 0.27056634, -0.21548623, 0.020645529, 0.09410714, 0.18774477, 0.08396956, 0.1153173, 0.016821742, -0.13419202, -0.23365802, -0.064828224, 0.32203218, -0.20922679, -0.20525071, 0.2537815, -0.20946757, -0.026223864, 0.15318066, -0.015096129, -0.3995545, 0.007967204, 0.10686127}, 
{-0.0070569757, -0.23366126, 0.15621792, -0.014650351, -0.30912104, 0.21350709, -0.09292257, -0.015452935, 0.046767067, -0.045269962, 0.07474128, 0.15577178, 0.008678419, 0.030296223, -0.31507277, 0.08059058, 0.071506016, 0.048088703, -0.048884485, -0.20672686, 0.015028097, -0.23868611, -0.25606808, -0.16568024, -0.28349984, -0.18204644, 0.04994402, -0.1413227, -0.008891599, -0.29909647, 0.1652672, -0.12062449, 0.09070388, -0.045665625, -0.076212205, -0.19494602, 0.2563139, -0.09345564, -0.12623297, -0.11713546, 0.076395035, -0.029286617, -0.1956714, -0.025846645, -0.02987895, -0.20168352, -0.04025092, 0.35733482, 0.047656752, 0.16125052, 0.00096712017, -0.28493202, -0.10993725, 0.0020394474, -0.2218842, -0.3707019, -0.004627288, -0.015726147, 0.13463436, -0.116753496, -0.14531203, 0.06057708, 0.013105414, -0.20104961}, 
{0.021821149, -0.07131907, -0.18241017, -0.19834517, 0.15580352, 0.046015035, -0.08250486, -0.043893714, -0.054442998, 0.26313275, 0.065096594, -0.329686, -0.14215516, -0.21611089, -0.056768425, -0.09216281, -0.26599562, -0.20211256, -0.017336732, -0.17954172, 0.064712025, -0.29883096, -0.030199965, -0.057511307, -0.19026063, 0.021441225, -0.023100767, 0.109194145, -0.056504533, -0.2704739, 0.08523724, -0.29868698, 0.088011056, 0.084517255, 0.07081007, -0.17502885, 0.252899, 0.055094264, -0.124096334, 0.058313664, 0.01087556, -0.2289831, -0.3420214, 0.14473806, 0.044605084, -0.10900782, -0.032986786, 0.08100192, -0.05609599, 0.026251685, 0.010320863, 0.122060195, -0.10601722, -0.17755486, -0.04769016, -0.18282434, -0.017389435, 0.02503088, -0.25751776, 0.011395982, -0.4360783, 0.19411443, 0.17870384, 0.15668671}, 
{0.20686904, 0.047484122, -0.14391352, -0.110534936, -0.014274795, -0.026269004, -0.03484446, 0.3681377, -0.17788379, 0.032890048, -0.030495478, -0.2845215, -0.18641299, -0.2623267, -0.199294, -0.31277272, -0.06746713, -0.31185323, -0.31261316, -0.23300949, -0.41630012, -0.23834154, -0.13112368, -0.32380998, -0.08902302, 0.026613794, -0.23025401, -0.28090435, -0.0072146403, -0.3367323, 0.0068338974, -0.05328205, -0.20189103, 0.33433315, 0.3748974, 0.036591843, 0.033715248, 0.1526472, -0.17028835, -0.07271332, 0.1447983, -0.025547585, 0.054235686, -0.066347584, 0.17342561, -0.02929121, -0.17499308, 0.4211043, 0.26812652, -0.37685782, -0.1639885, 0.169733, -0.061414115, -0.13215853, -0.35750577, -0.34913388, -0.2154416, -0.2595139, -0.17883384, -0.23667255, -0.048399914, -0.28969684, -0.09293033, -0.43294784}, 
{-0.13623045, -0.09587106, -0.01063632, -0.21393673, 0.13985485, 0.004069235, 0.18723589, 0.043449465, 0.07938638, -0.088828094, -0.15403539, -0.025252182, 0.002103081, -0.10733436, -0.0020758037, 0.12032173, 0.2006115, 0.047024306, 0.23758283, -0.18906634, 0.07406322, -0.077965, -0.0830492, 0.13187511, -0.051805433, -0.12645078, -0.1457402, -0.024953332, 0.02733672, -0.043841433, -0.111555, 0.048802122, 0.2357548, 0.32458854, 0.33324477, 0.20091693, 0.19108132, 0.1767762, -0.09137075, 0.067477174, 0.18399693, -0.19137686, -0.17808366, 0.32790902, -0.009249227, 0.032693475, -0.30689287, 0.2704438, 0.3075091, 0.16979508, 0.06309164, -0.21822065, -0.19720775, -0.051100694, -0.23086432, -0.18572323, -0.29655933, -0.38303512, 0.13874096, 0.060252395, -0.30286998, -0.12529978, 0.18084703, -0.27033237}, 
{-0.26696998, 0.022295417, -0.21920387, 0.12705535, 0.15715468, -0.140482, 0.2500753, -0.015571441, 0.014773776, 0.009946292, -0.19773667, 0.13708034, 0.14891611, -0.04423817, 0.17336309, 0.11642542, -0.26753289, 0.08223474, 0.005963722, -0.08738737, 0.04768063, -0.10667235, -0.080559276, 0.17696261, 0.16307361, 0.019222599, -0.30217442, 0.08498064, -0.1445874, 0.23707676, 0.038459837, 0.27211288, 0.23953022, 0.18505378, 0.16750364, -0.014227034, -0.22293416, -0.015463916, 0.029470053, -0.011941176, 0.18851572, 0.17308156, -0.074131094, -0.0776733, 0.13708633, 0.004543225, -0.196392, 0.29617736, -0.342655, 0.22772163, 0.21208622, 0.08881077, -0.16792402, -0.19211018, 0.2054483, 0.034783028, 0.005266317, -0.072085395, -0.19248806, 0.12512031, 0.14051454, 0.2672081, -0.09545258, 0.27858144}, 
{-0.03981358, -0.08039341, 0.07260673, -0.06875721, -0.1435513, 0.021307845, -0.18505098, -0.16322654, 0.15587695, 0.02981882, 0.2705778, 0.11441407, 0.10374498, -0.059257157, -0.07714538, -0.07867298, 0.03742408, -0.26303843, 0.03658995, 0.30848554, -0.09580037, 0.3230291, -0.012715498, -0.02740842, 0.20761284, 0.19280583, 0.31620276, 0.1634782, 0.101351835, -0.1631695, -0.0029812353, 0.09253109, 0.14215547, -0.21265005, -0.16437171, -0.21920726, -0.20346636, -0.041400645, 0.23913611, 0.17213896, 0.0892705, 0.05324417, 0.3238752, -0.09168315, 0.19896375, 0.103061244, 0.2189049, -0.18820587, 0.3362229, -0.064406134, 0.17642891, -0.017331349, -0.13116038, 0.3462667, -0.16616727, 0.09802121, 0.22150327, 0.254822, 0.3000092, 0.25640404, 0.41173995, -0.031961396, -0.0951614, -0.08451131}, 
{0.07626282, 0.27106908, 0.15686119, 0.04871305, 0.14070258, -0.014500351, -0.07221391, -0.056679986, 0.11527709, 0.17364818, -0.25406423, -0.07025165, -0.2801167, 0.1387218, 0.3474965, 0.033394482, 0.046413016, 0.035772268, -0.10342774, 0.028759627, -0.20398015, 0.10764775, -0.14891927, -0.22134535, -0.19727316, 0.014144867, -0.29747158, -0.0027654187, -0.18252824, 0.15935536, -0.12034339, -0.30261296, -0.092491046, 0.29501194, 0.34403914, 0.07750984, -0.09159253, 0.25744617, -0.046600293, 0.090416975, 0.08738091, 0.172512, -0.2703245, 0.29063857, -0.22684118, 0.21441117, -0.11986739, 0.17515734, -0.29052693, -0.11156425, -0.0802295, -0.22774133, -0.14167047, -0.20859718, -0.016620342, -0.042103626, -0.3465838, 0.21881795, -0.08408061, -0.3268458, -0.21747705, 0.1333804, 0.25517938, 0.09977222}, 
{-0.011789614, -0.007631076, -0.27360505, 0.20520541, 0.18399908, 0.12528905, -0.08795922, -0.06299574, -0.03250667, 0.3800353, 0.32825252, 0.078054786, 0.22972722, -0.17606696, -0.3455844, 0.04398446, -0.25602865, -0.049529746, -0.027973311, 0.12667368, -0.1800905, -0.08851432, -0.15816371, 0.3784755, 0.01100232, 0.17623171, 0.25688234, 0.08790416, 0.0793376, -0.015078524, -0.22035478, 0.11028036, 0.23665544, -0.25450724, -0.2173516, -0.03417389, -0.040822648, -0.07932586, 0.26609856, -0.106320456, 0.027709397, 0.10301339, 0.23550653, -0.12592123, 0.14774033, 0.15949713, -0.03515947, -0.061923884, -0.22935447, -0.38051733, -0.21539116, 0.14823093, -0.16290763, 0.23236805, -0.36006805, 0.15279597, 0.1840035, 0.36578223, 0.021043863, -0.058508057, 0.14530532, 0.040454675, -0.14912233, -0.33702517}, 
{0.0063520526, -0.33642706, -0.45991012, -0.1498964, 0.0152431615, -0.11214273, -0.1923824, -0.35658664, -0.20479508, -0.12314053, -0.12903792, 0.20258509, -0.430212, -0.14505215, -0.07645181, 0.17265138, 0.029143143, -0.40573528, -0.36971468, 0.00598219, 0.26354647, 0.1384202, -0.08979853, -0.24418274, -0.0058878264, 0.0074991453, 0.061360728, 0.18978831, -0.2953547, -0.31695274, -0.10843174, 0.03311317, 0.2373069, 0.2469133, -0.024445226, -0.3507866, 0.23657835, 0.011909964, -0.07967266, -0.04735096, 0.10508787, -0.3116452, -0.25078055, -0.10757616, 0.33827785, -0.1389543, 0.16148499, -0.053630196, 0.033077784, -0.09329574, -0.5452464, -0.05918737, -0.030415323, 0.41316125, -0.47009563, 0.1136645, 0.117839016, -0.086315826, -0.024308853, -0.04094155, -0.3435076, -0.63937485, -0.23918661, -0.48550075}, 
{0.018342428, -0.36319536, 0.03621385, -0.12192813, 0.40366867, -0.07741906, -0.14462489, 0.031838704, 0.1587787, 0.0142342895, 0.19954608, 0.001386447, -0.086639695, -0.027711233, -0.14469522, 0.059231173, 0.06554449, -0.37525907, -0.19424626, 0.31881994, -0.04380091, -0.16211756, -0.20036934, 0.23500642, 0.13804531, 0.30548924, -0.10310379, -0.26218748, -0.11774217, 0.19314513, -0.18004729, -0.22682148, -0.014972033, 0.23368406, -0.087519415, 0.17657848, -0.15646736, 0.048777226, 0.09326042, -0.13905756, 0.1899468, 0.14005433, -0.09933212, -0.09187763, 0.03595927, 0.15853691, -0.11252414, -0.14800394, -0.3932057, -0.33990327, -0.03351747, 0.29400635, 0.22233227, -0.075945094, -0.32657456, -0.06570081, 0.13039425, -0.085596845, 0.039068867, -0.19522473, 0.12246434, 0.14764202, -0.4077065, -0.33099493}, 
{0.12922765, -0.16539815, -0.2931933, 0.0126553085, 0.3523586, -0.058659587, 0.1310495, -0.34054175, -0.14432366, -0.016579213, -0.17559323, 0.31571683, -0.007840346, -0.06296709, -0.25379568, -0.025248753, 0.22200316, 0.065117285, -0.03023846, -0.079517156, 0.15942398, 0.24114402, 0.1747746, 0.13701901, 0.16476636, 0.0048187375, 0.094614595, 0.059601743, -0.20681895, 0.20798187, -0.29673004, 0.08899804, -0.10555845, -0.22404188, -0.2839432, -0.30352342, 0.117230885, -0.22390564, -0.13146932, 0.029180055, 0.16308403, -0.2381563, 0.03292124, -0.15204358, 0.25686246, -0.31428882, -0.20242955, 0.1029843, -0.16735053, 0.05532512, 0.023730414, 0.12836577, 0.36434245, 0.17453235, -0.08870821, -0.04325719, -0.015787939, -0.1030438, 0.25994158, -0.001502578, -0.1697376, 0.11939296, -0.07984785, 0.023901628}, 
{0.13722064, -0.11227095, 0.041501623, -0.08479117, 0.260744, 0.12072314, 0.19294715, -0.23080887, 0.17020664, -0.07993717, 0.11136675, -0.054472193, 0.49975398, 0.077872485, -0.02681949, -0.009595345, -0.12823436, -0.24007714, -0.048889074, 0.03356678, -0.053542513, -0.049238313, 0.04363405, 0.40674588, -0.0008080863, 0.19632246, -0.08071211, 0.07011376, 0.43401897, 0.2446215, -0.42684367, 0.2809617, 0.23155518, -0.024311773, 0.114550896, 0.14343433, -0.11650341, -0.181367, -0.07856162, -0.28316104, 0.14827628, 0.21805802, -0.08987073, -0.108546816, -0.12531899, -0.24410172, -0.09681717, 0.16613811, -0.052094646, -0.25185248, -0.22605811, 0.10849219, 0.38871443, 0.30737963, 0.025038205, -0.05411302, 0.20480666, 0.26886088, -0.085171096, 0.089137785, 0.58785367, 0.12289722, -0.35592648, -0.034093257}, 
{-0.09880533, 0.037721083, 0.45974943, 0.092019156, 0.15467162, -0.2305551, 0.14664906, -0.31479725, -0.10567256, 0.07204027, -0.22468767, 0.023281844, -0.22424953, -0.16529909, 0.2062892, -0.17406596, 0.07311735, -0.21831135, 0.35129425, 0.031458374, 0.14866963, 0.019898148, -0.043347802, -0.31875494, 0.08059843, -0.25176984, 0.06264881, -0.2514226, -0.31858757, -0.3400881, 0.10900587, -0.112901144, -0.34742343, -0.1604603, -0.20909157, 0.19506499, 0.22737153, -0.16011213, 0.06912098, 0.048408657, -0.37782347, 0.10709067, -0.061124273, 0.15516756, -0.19646744, 0.27092832, -0.052766822, -0.113494806, -0.12869579, -0.32392275, 0.22872001, 0.058614492, 0.15287769, -0.03010929, 0.09288953, -0.5156127, 0.05695573, -0.13979906, -0.042157955, 0.040590785, -0.21741524, -0.51142794, -0.12690125, 0.36201826}, 
{-0.16454646, -0.042381138, 0.084750324, -0.16351883, 0.009201465, 0.10924054, 0.29946187, 0.12745081, 0.1391738, -0.09602455, -0.23811571, 0.13565248, 0.03435997, 0.33542892, 0.24055962, 0.1060008, 0.16480856, 0.22999737, 0.14570864, -0.050687175, 0.086212605, -0.20942321, -0.1558012, 0.06548128, 0.0352753, 0.13012755, 0.15535408, 0.15603454, -0.21257149, 0.23106757, 0.22130589, -0.04315415, 0.2093402, 0.24947673, 0.13572456, 0.033914194, -0.020360023, 0.07595087, -0.23417102, -0.22079933, 0.10367673, -0.12733725, 0.10597267, 0.21879783, -0.14225349, 0.16526607, -0.04507743, -0.11317603, -0.17642754, -0.013588298, -0.06034369, -0.09577805, -0.09566349, -0.03712884, 0.39547795, -0.16886547, 0.012815067, -0.19238105, -0.2266919, -0.02278646, -0.0020123327, 0.07620306, -0.014154349, -0.08989784}, 
{-0.15968502, 0.016112687, 0.11972894, 0.27073827, -0.31008658, -0.13726003, 0.33774173, 0.3681931, 0.055654854, 0.025649074, 0.11710449, -0.0056317374, 0.039185826, 0.40343827, -0.39023927, 0.23693617, -0.02920645, -0.12761799, -0.048434034, 0.09407193, -0.12413422, 0.06773759, 0.2074677, 0.085053936, -0.13838434, 0.0004216486, 0.3127478, 0.01629423, 0.3338656, -0.024333283, -0.27086386, 0.21654582, 0.0240829, 0.219362, -0.033993833, 0.0502188, -0.10009432, -0.17612872, -0.123191826, -0.16356939, 0.12968902, 0.09308859, 0.23313472, 0.21280141, -0.25179026, -0.08541222, -0.0074085225, 0.25016165, 0.004529807, -0.07634276, 0.17342913, 0.16957386, -0.2861035, -0.19811527, -0.026384162, 0.056333393, 0.0770156, 0.13455077, 0.18325122, 0.15626107, 0.3516984, 0.25012523, -0.23839791, -0.2546469}, 
{0.19646148, 0.10755021, 0.14414509, 0.03316401, 0.16961907, -0.12579435, 0.35648206, -0.44536182, -0.05924047, -0.25634834, 0.1016886, -0.14197744, 0.16625133, -0.18209088, 0.27646947, -0.17628038, 0.14000125, -0.201059, 0.15450835, 0.2286174, -0.0981846, 0.15390705, -0.044988334, 0.19696912, 0.1615428, -0.084712215, 0.0886602, 0.07749766, -0.022259338, 0.18926264, -0.019843888, 0.16876364, -0.3238347, -0.2843521, -0.06594919, -0.06487957, -0.36648482, -0.13384563, 0.36900485, 0.18767145, 0.06198631, -0.16056561, 0.18255547, -0.11642637, 0.20802547, -0.028859895, 0.2755977, -0.27535793, -0.008938311, -0.1948706, 0.15601891, -0.22126152, 0.37157893, -0.14455277, 0.4511292, 0.07932757, 0.2278485, -0.015083078, -0.20343275, 0.089501694, -0.253296, -0.075029336, 0.25078595, 0.24546924}, 
{0.06157323, 0.1673423, 0.38851652, 0.1645881, -0.12276573, 0.075232334, 0.078083, 0.043874778, -0.2939881, -0.17656006, -0.17498411, 0.11028709, -0.027827566, 0.15581302, 0.15679376, -0.2305836, 0.09038548, 0.007018007, 0.15602727, 0.17181936, -0.12966782, -0.2184887, 0.26476035, 0.08348176, -0.017652929, 0.10299856, -0.1047597, -0.019380352, 0.29553923, 0.29414096, -0.15926442, -0.07202618, 0.03470568, -0.21272685, -0.1709649, 0.006523408, -0.14037834, -0.0511515, 0.022288542, -0.2716342, -0.055031378, -0.024911312, -0.17047934, -0.1581884, -0.17998114, -0.20585755, -0.16322139, 0.09103752, 0.049453296, 0.018471928, 0.19603105, 0.036157403, 0.12498143, 0.13513345, 0.088765725, -0.04611142, -0.33978823, 0.15666628, 0.08939034, -0.26407978, 0.2090249, 0.20944344, 0.3122361, 0.15172572}, 
{-0.013754346, 0.14879642, 0.016472481, 0.049125332, 0.14014317, -0.07049042, -0.16781323, 0.25813553, -0.24858572, 0.19064161, -0.3077874, -0.11638251, -0.023128154, -0.21335098, -0.14129108, -0.17643185, -0.19165252, -0.24172665, -0.33177656, -0.055739615, 0.08076017, -0.2912893, -0.065757744, -0.20234492, -0.13913369, -0.2221962, -0.124181286, -0.13272229, -0.18153054, -0.25826597, 0.045804575, -0.13091728, 0.09294249, 0.22333232, 0.16651005, 0.1340456, -0.17117816, 0.1638405, -0.030716715, 0.14955232, -0.09494852, 0.28244507, -0.07065789, -0.16831714, 0.21255538, 0.2179258, -0.12302808, 0.06229306, -0.25881287, 0.1966911, 0.12523422, 0.25869477, -0.096099935, -0.073755726, -0.034910385, -0.2625874, -0.2766827, 0.15402965, -0.08643378, 0.033424307, -0.04043131, 0.110409215, 0.051916502, 0.079847425}, 
{0.27574494, -0.15384011, -0.17839564, -0.003065899, -0.37345275, -0.24529746, -0.24634504, 0.08463086, 0.18486163, -0.20129459, 0.03735727, -0.30123368, -0.20513222, 0.079211496, 0.19609895, -0.059341125, 0.2729024, 0.034677517, -0.07294864, -0.21633287, -0.09662087, -0.066876285, -0.10668733, 0.13359687, 0.047328863, -0.15359977, -0.04498585, 0.05458713, 0.027465615, -0.06770235, 0.11600783, 0.27860916, 0.23971246, 0.20803042, 0.1899449, -0.12057957, -0.097341046, 0.08353159, -0.38405463, 0.12500027, 0.014981805, -0.073282644, 0.036862414, 0.33940533, -0.28297567, 0.22679967, -0.293146, 0.4509628, 0.1963179, 0.3388027, -0.06256377, -0.099850565, -0.21257192, 0.18322687, -0.28821868, -0.42484573, -0.1269327, -0.2690968, 0.083145194, -0.14808424, -0.23715836, 0.14925675, 0.095022134, -0.14370896}, 
{0.22235736, -0.27185813, -0.25301674, -0.0476534, -0.06985969, 0.26430845, 0.0038860172, 0.03544628, -0.10770147, -0.15931927, -0.059923347, 0.124103, 0.13237111, -0.24374431, 0.18569586, -0.118896835, -0.09991784, -0.098075464, 0.021698715, 0.09124596, -0.16474542, 0.25525314, -0.19500169, 0.089303516, 0.2072853, 0.2897876, -0.1553166, 0.019182028, -0.23711228, 0.1674177, 0.08865212, 0.13036543, -0.1053474, 0.1797543, 0.17880014, -0.15957917, -0.26612335, -0.07719652, 0.16290466, 0.21730548, 0.022789873, -0.38681114, 0.23527831, -0.007717235, 0.0056308657, 0.15279216, 0.25428566, -0.16189753, 0.11689521, -0.010694507, -0.28738233, -0.10787788, -0.06750963, 0.05167766, -0.054102503, 0.17037725, 0.41696945, 0.026197145, -0.08353679, 0.031352244, -0.0729764, 0.04704389, -0.2044705, 0.08090266}
};
#define layer_1_recurrent_kernel_size_0 16 
#define layer_1_recurrent_kernel_size_1 64 
const data_t layer_1_recurrent_kernel_weights[layer_1_recurrent_kernel_size_0][layer_1_recurrent_kernel_size_1] = {{0.18191545, -0.12423882, -0.005819868, -0.040058233, 0.115856566, 0.0054646856, 0.35885844, 0.17985496, 0.21760294, 0.17367302, 0.10585227, 0.3670326, 0.23090452, 0.3396586, 0.07152808, 0.40311506, -0.021049883, 0.1421095, -0.11219434, -0.3421498, 0.105475396, 0.31961238, -0.03115743, 0.096188866, 0.08132167, -0.08417086, -0.10603148, 0.13984267, 0.10962666, -0.004175521, 0.11788972, 0.22574086, -0.018678574, 0.047469515, -0.053975426, 0.10245864, -0.04675349, -0.21574193, 0.07990107, -0.040713973, 0.2432484, 0.030651515, 0.096898735, -0.016965266, -0.026236583, -0.18756802, 0.021979215, -0.081894405, -0.09488021, 0.14134526, -0.21646246, 0.20056668, 0.1839008, 0.06645332, -0.2814227, 0.23188663, -0.01999296, 0.109144196, 0.058426656, 0.09363028, 0.29641297, 0.31168783, 0.2527409, 0.008408333}, 
{-0.08623592, 0.08269472, 0.14771707, -0.056811795, -0.117402926, -0.13501233, 0.051244296, 0.09798776, -0.036649764, 0.012619958, -0.11477046, -0.23765725, 0.120391496, -0.12389206, 0.10921324, -0.06604031, 0.21658061, -0.124950364, 0.124811865, -0.12155051, -0.24253868, -0.16884315, -0.016906047, -0.0650714, -0.06472337, -0.29370293, -0.16064629, -0.07783511, -0.022279277, -0.2617162, 0.16689093, 0.032216728, 0.0013341364, 0.054042403, 0.28204167, -0.107770205, 0.031479146, -0.2776116, -0.06809322, -0.15431872, -0.2651981, 0.017058609, -0.08554943, 0.046424337, -0.027115282, -0.16978434, -0.17202918, 0.21638973, -0.20422088, 0.33749712, 0.008105677, 0.06028382, -0.01811566, 0.09946052, 0.12107948, 0.15156543, 0.0600599, -0.14380905, -0.012476855, -0.1909898, -0.14787978, 0.15721257, 0.45585176, 0.14408027}, 
{0.06715162, 0.25598338, 0.17529881, 0.16195789, -0.030949648, -0.030778248, 0.11015746, 0.50443864, 0.13428457, 0.26243356, -0.16424592, 0.1370323, 0.1559152, 0.13731661, -0.042824328, 0.086550504, -0.14092915, -0.024302993, -0.018491743, 0.05077287, -0.06732109, -0.17608523, -0.24542403, -0.24024107, -0.12636526, -0.36473536, -0.0498201, -0.2317408, -0.08879962, -0.13484132, 0.043404326, 0.25125536, 0.16412072, 0.15984374, -0.0061080493, -0.072844036, 0.24494842, -0.0019953586, -0.15777813, -0.112509586, -0.045534577, 0.024625635, -0.07946787, 0.13177796, -0.09766636, -0.09867256, -0.21656992, 0.12636214, -0.037421152, 0.0038852033, -0.1501079, -0.33507687, 0.2987952, 0.057028178, 0.1353961, 0.12677611, 0.072009034, -0.13693893, -0.2905315, 0.0014545043, -0.07949644, 0.05754978, 0.11848009, 0.22479522}, 
{-0.13834009, -0.09788949, -0.10868361, -0.14892848, 0.25780156, 0.10732728, 0.05061077, -0.26824793, 0.1280278, 0.12612213, -0.09064537, 0.20790824, 0.18324552, 0.2894352, -0.010978333, 0.21562086, 0.19254757, -0.13530013, -0.031665146, 0.15438364, 0.026845917, -0.18728839, 0.2680357, -0.2601974, -0.04901625, 0.12466511, -0.04211454, -0.0100198025, -0.06821835, 0.24677858, 0.040878046, 0.2984495, -0.35441488, -0.21307695, -0.10692961, 0.029518843, -0.11287862, 0.24873602, 0.013985053, 0.045037773, -0.043026812, 0.016552208, 0.25573465, -0.19097401, -0.18585892, 0.090382345, 0.03628916, -0.03962643, 0.017800879, 0.039234385, 0.10786643, 0.015614828, -0.1048762, 0.12980583, 0.095633805, -0.06513933, -0.04856542, -0.113435164, 0.09874016, 0.11110892, -0.0404945, 0.14751026, 0.17228565, 0.011010705}, 
{-0.13425174, -0.048624106, -0.036237665, -0.26069534, 0.08543747, -0.02924437, -0.16230403, 0.37964872, -0.11343616, -0.09166559, 0.023283996, -0.09973401, 0.15652095, -0.07288163, -0.11268528, 0.014364986, -0.11481551, 0.05613059, 0.054942194, 0.0042860736, -0.076751694, -0.020550534, -0.10348254, -0.33857605, -0.1567445, -0.26518106, -0.079202674, 0.22170565, -0.04465613, -0.29258224, 0.07433803, -0.022965506, 0.0059207953, 0.3611938, 0.0003103685, -0.050071787, 0.027405618, -0.055981405, -0.18410918, 0.09161133, -0.027906831, 0.12599939, -0.0043728985, 0.06994461, 0.16165633, 0.14389986, -0.5419968, 0.24396263, -0.1003075, -0.049954098, 0.08314527, -0.13298717, -0.0955073, -0.027837351, -0.03606131, -0.2923707, -0.09678653, -0.2337053, 0.0633, -0.16657946, -0.29451513, -0.18510944, 0.035020523, 0.01600615}, 
{-0.025371607, 0.11031311, -0.068247005, 0.047368236, -0.3947141, -0.11856513, -0.30986947, -0.06390002, -0.24348912, 0.13446566, -0.04461301, -0.13133349, -0.10307922, -0.20847654, -0.07886055, -0.06031835, 0.018917311, -0.0014243635, -0.13012299, -0.1485428, -0.25833178, 0.05916798, -0.2220216, -0.37785864, -0.23114534, -0.23847252, 0.00765269, -0.36863014, -0.17253934, -0.34099355, -0.037303388, -0.12661837, -0.29679906, 0.0746282, 0.035145275, -0.038830727, 0.24686149, 0.20669302, -0.12002492, -0.26072413, -0.14353755, -0.18307284, 0.04035846, 0.24846196, 0.17158547, 0.051187087, -0.2311799, 0.25608078, -0.26402938, 0.06195254, -0.06787484, 0.03697383, -0.27752283, 0.008559569, -0.01805224, -0.66707486, -0.39263073, -0.18623519, -0.26749012, -0.14635776, -0.2594472, -0.43804678, -0.34776616, 0.17021634}, 
{-0.009438712, 0.13061406, -0.13935909, 0.18511719, 0.12769985, 0.13971338, 0.08335568, -0.27620974, -0.021749921, -0.042709764, 0.19430922, 0.08520045, -0.35867238, 0.06282067, -0.12229282, 0.25221944, 0.035760324, -0.23796396, -0.08075757, -0.026640143, -0.08014446, 0.33669743, 0.22047515, 0.20933637, 0.036813423, 0.029816233, 0.09114931, 0.043822408, 0.26397568, 0.17949714, 0.06377896, 0.13779283, 0.08380529, -0.26093754, 0.029278265, 0.19808179, -0.16530523, -0.13947974, 0.102833405, 0.19627576, 0.17032236, 0.12683529, 0.07929672, -0.2850844, -0.02056058, 0.19168994, 0.002248791, -0.055035725, 0.011166067, 0.11489182, 0.16201274, -0.022190945, 0.10831504, 0.005443976, 0.234413, 0.3815792, 0.15967411, 0.1266322, 0.103315935, 0.20622103, 0.13680828, -0.06362892, -0.057140615, 0.01374474}, 
{0.13226564, -0.085747406, -0.4332964, -0.031326417, 0.09315708, -0.26411054, 0.09137725, 0.036573052, 0.130959, -0.049909428, -0.039068718, 0.119924985, -0.29862297, 0.13282381, -0.003933858, -0.17015801, -0.21166535, 0.04992187, -0.34188846, 0.088486, -0.06440462, 0.006385141, 0.14213048, 0.1006258, 0.10072394, 0.29199773, 0.09730319, 0.017392222, -0.06589589, 0.08521733, -0.09725288, -0.12843023, 0.049669333, -0.05769708, -0.040104717, 0.11599271, -0.26564163, -0.030159663, 0.17178737, 0.34126553, 0.10126247, -0.11668994, -0.02030956, 0.0800834, 0.19132699, 0.170941, 0.06755224, 0.14082228, -0.1097791, -0.11364962, -0.61943704, -0.045434408, -0.04109572, 0.27800795, -0.28078562, 0.22532696, 0.15249996, 0.23857215, -0.086592175, -0.20114236, -0.07615367, -0.046048485, 0.09401884, -0.4098978}, 
{0.13819113, -0.07720692, -0.07509893, 0.10705781, 0.09484192, -0.08334073, 0.23290375, -0.021415478, 0.036782052, -0.009492501, 0.16777472, 0.13577545, -0.042186823, -0.050668642, 0.08167461, 0.037286628, 0.08229069, -0.12217799, -0.04480889, 0.16157411, 0.19874406, 0.15940036, 0.06588197, 0.2250236, 0.029953089, 0.0047646314, 0.13271224, 0.050416626, 0.26405075, 0.40578562, -0.2930764, 0.18232037, 0.10882354, -0.011247521, -0.03944079, -0.02508395, -0.19599794, -0.13019264, 0.21868674, 0.17346266, 0.5507078, -0.31114975, 0.2766337, -0.13164112, 0.104893476, -0.12850775, 0.20090768, -0.15553603, 0.041660953, -0.09045638, -0.10248514, 0.21617325, 0.09037893, 0.26967406, 0.012703171, 0.33283052, 0.20360953, 0.30620813, 0.32850128, -0.106816515, 0.13788986, -0.04797861, -0.07347685, -0.1811739}, 
{-0.28753242, -0.28871074, -0.032488313, 0.2668728, 0.08414646, -0.09858759, -0.21394703, 0.1984963, -0.03231941, -0.09905734, -0.012939784, -0.12186925, 0.05752408, -0.15035416, -0.23798497, -0.354222, -0.12429987, -0.044698063, 0.057982806, 0.19391428, 0.03748327, -0.09259661, -0.021938095, -0.17215082, -0.113205835, -0.07536199, 0.1331953, -0.0011213444, 0.16093451, 0.09110633, -0.1415982, 0.18879496, -0.14196883, -0.07568808, -0.063926496, 0.03857323, 0.005217282, -0.017424537, 0.26306853, -0.04280114, 0.10212432, 0.27587163, -0.016068185, 0.18749237, 0.18158714, 0.021675065, 0.11411857, -0.11525775, -0.21031249, 0.010450048, 0.109747484, 0.09165631, 0.11897954, -0.2779921, 0.18350007, -0.013632709, -0.13358186, -0.0461548, 0.00089658407, -0.046658132, 0.38904834, 0.14711574, -0.0996914, 0.3515697}, 
{0.084096216, -0.13550143, 0.17172188, 0.07906352, 0.014170515, -0.083500534, -0.11878113, -0.12346228, 0.16696705, -0.008557828, 0.19866289, 0.021214215, 0.10895103, -0.08701987, 0.011558497, 0.3499263, 0.056119885, -0.15782811, -0.005489244, 0.021521308, -0.15294655, 0.21029595, 0.0048011197, 0.35792255, -0.0064685117, 0.33321413, 0.38101375, 0.08776248, 0.13857344, 0.54335314, -0.034837473, 0.3323455, -0.07120885, -0.21013357, -0.2512929, 0.107988894, -0.21967308, 0.038101945, 0.024267828, 0.08556653, -0.009222342, -0.08179059, 0.008950307, -0.26296073, 0.03483638, 0.019923158, 0.23308139, 0.13158718, 0.09727661, -0.06137017, 0.11444139, 0.015550469, 0.21441409, 0.09686275, 0.10104334, -0.09491611, 0.09713235, 0.24687402, 0.301281, 0.20738748, 0.23900583, 0.06460063, 0.3063366, -0.03507629}, 
{0.21772616, 0.026291287, 0.107878216, -0.07782272, -0.18772072, 0.049472556, -0.13892536, 0.15600269, -0.31314397, 0.22015753, -0.12098874, -0.1695995, -0.09383972, -0.019317929, -0.07005736, -0.102566324, -0.27346906, 0.09517068, -0.03326967, 0.044807345, -0.005683867, -0.061077427, -0.28897947, -0.13405046, -0.32094297, -0.2532268, -0.33524582, 0.0064208624, -0.09183941, 0.023014536, -0.14417064, -0.15780154, -0.1447435, 0.18979079, 0.24342099, 0.0889477, -0.04849063, 0.11286828, -0.2896644, -0.32760367, -0.055836495, 0.22742002, -0.13157877, 0.030460535, 0.080801085, -0.09151808, -0.184536, 0.04665504, 0.0152776, 0.09566333, -0.009459722, -0.015453818, -0.20132175, -0.0971229, 0.012731887, -0.18459015, -0.026515566, -0.28735325, -0.13808623, -0.2017505, -0.05486158, 0.008074867, 0.1792532, 0.12812114}, 
{-0.08957114, 0.09690919, -0.09230215, -0.017863022, 0.26141524, 0.08739599, -0.080408454, 0.17730942, -0.02730875, 0.1532661, 0.18949391, -0.21153517, -0.16453044, -0.18920787, -0.11256884, -0.22586776, -0.06489635, -0.0144056585, -0.23925115, -0.06626986, -0.056047883, -0.21589966, -0.035132535, 0.017067624, 0.06807504, 0.021223687, -0.10131146, -0.11337382, 0.28911677, -0.097189754, -0.08594208, -0.1818192, -0.046725743, 0.07589874, 0.23868635, -0.38154134, -0.104031205, 0.09732774, -0.11299324, -0.3318137, 0.09130872, 0.026425399, -0.10060647, 0.14525564, 0.43666005, -0.02260538, 0.014654792, 0.048261084, -0.23374362, -0.2419147, -0.23477772, -0.05214979, 0.1384774, -0.026697258, -0.21654588, 0.11606724, -0.14041217, 0.26508403, -0.32840666, 0.1780648, -0.14197932, -0.1638751, -0.082661726, -0.33918068}, 
{0.07256524, -0.0830824, 0.053832322, 0.005916688, 0.3970875, 0.053394902, -0.22738224, -0.4576084, 0.09513345, 0.16257071, 0.3069513, -0.24780084, -0.05879225, -0.05469855, 0.23545438, 0.046214096, -0.102481306, -0.08187499, -0.14546593, 0.241985, 0.008120669, 0.08888714, -0.19265386, 0.17853002, 0.048387125, 0.20404433, 0.048546944, -0.19908355, -0.14252935, -0.10121516, 0.07665133, 0.0064203837, -0.05816842, 0.1283581, 0.12886271, 0.18743032, 0.11433909, 0.05743241, -0.10649468, 0.41743731, -0.120077275, -0.16077049, 0.013277498, 0.069492206, -0.063031666, 0.1028898, 0.082332, -0.15801324, -0.14351362, -0.06349536, -0.24878527, 0.045978658, -0.15971053, 0.20281759, -0.036622673, 0.08923747, -0.11940586, 0.3126827, -0.020051379, -0.22448875, -0.27563152, -0.13795123, -0.10537636, 0.078061625}, 
{0.22404316, 0.07304019, -0.2648207, 0.0003348078, -0.026983952, -0.074698105, -0.1781291, -0.32590115, 0.14181477, 0.122881085, 0.23635004, 0.0588388, -0.21077107, -0.053601198, -0.24838232, -0.040016346, 0.12032096, -0.18729275, -0.083887674, 0.28352845, 0.16353464, 0.14281754, 0.28387782, 0.22603416, 0.10644241, 0.3142786, 0.1802581, 0.17509305, 0.088627145, -0.012091662, 0.11234258, -0.08100177, -0.038493264, -0.062294845, -0.17518418, -0.066112466, -0.022478174, -0.091430426, -0.053308357, -0.06344893, 0.17530014, -0.10812498, 0.0637352, -0.085377425, -0.066030584, 0.219692, 0.15158257, -0.4714046, 0.07175126, -0.20651695, -0.26490164, 0.13786523, 0.15047815, 0.10097254, 0.13628373, -0.07744884, 0.09390102, 0.1632754, 0.10454639, -0.09902445, -0.15120932, -0.021189056, 0.055077586, -0.12187284}, 
{0.12945558, -0.09786632, -0.21506196, -0.24711156, -0.21692984, 0.096046716, 0.24101871, 0.30033666, 0.05983463, -0.3432907, -0.1371968, -0.15151976, 0.24853419, 0.07630259, -0.02175034, 0.116733715, -0.1613303, -0.123994224, -0.046117563, 0.015534402, -0.074642815, -0.20572661, -0.060662854, -0.1366856, -0.27910897, -0.16054234, -0.1777124, -0.09683399, -0.2065416, 0.1003158, 0.13411662, -0.063775554, 0.26573133, -0.006113541, 0.12556595, 0.10984667, 0.28262383, -0.051953815, -0.038597498, -0.1614514, -0.09792088, 0.08286052, -0.17156991, 0.1125961, 0.09092988, -0.09192575, -0.20069502, 0.06214917, 0.051313646, 0.20302887, -0.2919542, 0.0053144004, -0.099308915, -0.082465544, 0.11449127, -0.09185525, -0.087255724, 0.06386881, -0.17172146, 0.044668436, -0.1450798, 0.016405605, 0.08814757, 0.028927611}
};
#define layer_1_bias_size 64 
const data_t layer_1_bias_weights[layer_1_bias_size] = {0.13204078, 0.06380191, 0.108057626, 0.022486927, 0.06342698, 0.062330257, 0.117869936, -0.052141067, 0.12088132, -0.1479283, 0.06591283, 0.13667192, 0.09512534, 0.13290544, 0.09349089, 0.22923636, 1.1719525, 1.0793245, 1.1608331, 1.0903583, 1.0848831, 1.1323192, 1.1269817, 1.2961541, 1.1504564, 1.1275783, 1.0929902, 1.1159952, 1.2017882, 1.2862259, 1.1292007, 1.2194964, 0.028848164, -0.041832462, 0.005235218, 0.06671226, -0.020701349, -0.023183566, 0.032695983, -0.02080225, 0.018228205, -0.08563662, 0.10785577, -0.032784417, -0.08975939, 0.027151939, 0.0086875325, -0.047275335, 0.1646233, 0.114851646, 0.21182215, 0.07770952, 0.1263371, 0.12937467, 0.07646028, 0.32515672, 0.15292901, 0.10964848, 0.12714845, 0.14816228, 0.22973607, 0.15838271, 0.101320416, 0.16248457};
