#define layer_0_input_size 6 
#define layer_0_kernel_size 128 
const data_t layer_0_kernel_weights[layer_0_input_size][layer_0_kernel_size] = {{-0.043081846, 0.3251473, 0.010590755, 0.237863, -0.1396038, -0.19275622, 0.056492776, 0.22846977, 0.012632696, 0.06400486, -0.012952405, 0.29951805, -0.023517245, 0.05808998, -0.2113615, -0.07901778, -0.07077939, -0.04620776, 0.13521896, 0.25119436, 0.11069287, -0.33539686, 0.023368826, -0.24948019, 0.44724447, -0.10237561, 0.1879812, -0.09908859, 0.09888151, 0.02919547, -0.040674057, 0.17853217, -0.18074314, 0.021535814, 0.042989496, -0.20986822, 0.06478786, -0.22874439, 0.24476534, 0.26932076, 0.01713778, -0.15703984, 0.2859182, 0.07049766, -0.059226707, 0.17407608, 0.16307794, -0.0752642, -0.040096737, -0.14954983, 0.03672859, 0.14425156, 0.028292732, 0.037590396, 0.06910443, -0.02321948, 0.4078528, 0.014271271, 0.15850767, 0.31776166, -0.13328208, 0.037037697, 0.116795965, 0.3342727, 0.028948732, -0.0039441194, 0.069631025, 0.041591797, 0.18406248, -0.246133, 0.12587464, -0.005978618, 0.16688854, -0.24317677, -0.02183757, 0.06507461, 0.2318691, -0.1589295, -0.040346894, -0.2031543, 0.058545426, 0.00941311, -0.34077087, 0.035352904, 0.15583195, 0.15841502, 0.11556831, 0.1750454, -0.30457175, 0.18895179, 0.18069838, -0.043648165, 0.027413476, -0.12870608, -0.22973065, 0.08727598, -0.095617, 0.026417868, -0.09524305, 0.12798494, -0.0942018, -0.066113956, 0.07120649, 0.12046288, 0.048379373, 0.13386066, 0.2310214, 0.1749937, -0.116810896, 0.07509799, -0.24509154, 0.052419946, 0.010664, -0.014438007, 0.18191715, 0.3256202, 0.21843272, -0.43428892, -0.17310973, -0.3286688, 0.077335335, 0.11698711, 0.4547189, 0.07095562, 0.17742485, -0.12792952, 0.045901753, 0.17491184}, 
{0.19218586, -0.09321479, -0.1450817, 0.35280165, 0.039862502, -0.020521097, -0.15601212, -0.006197691, 0.059132352, -0.08818843, 0.06773353, -0.23531213, -0.20528372, 0.08020272, 0.20752339, 0.093573645, -0.32632732, -0.06506222, 0.002911975, 0.012562598, -0.03587894, -0.1415964, -0.19560497, -0.25399643, -0.11396429, -0.0042109583, 0.4667984, -0.017310442, 0.06904275, 0.023336813, 0.010098303, 0.09509721, 0.10003108, 0.18081917, -0.24174495, 0.1721967, -0.0032754682, -0.027263062, -0.29196972, 0.103402376, -0.05065632, -0.11217743, 0.06416315, -0.0946079, 0.26033792, -0.09345083, 0.21158342, 0.13256757, -0.24083132, 0.086607136, 0.05312366, 0.22304648, 0.09315429, 0.15971187, -0.22379291, -0.09207721, 0.085579894, 0.31407237, 0.14768146, -0.35756558, -0.06121765, 0.12596804, -0.1594273, 0.06902317, -0.21805711, -0.07833822, -0.0068040118, 0.033442758, -0.22423127, 0.033513065, 0.11534196, -0.094594255, -0.08186994, -0.2129399, 0.36544663, -0.013372954, -0.19258796, -0.032623217, -0.32889998, -0.32947809, 0.16659552, -0.08274418, 0.33935446, -0.08636397, -0.20980635, 0.008654366, -0.12722988, -0.077619895, 0.18474954, -0.023726054, -0.2719285, 0.007482071, 0.11619563, 0.28846028, -0.120487176, -0.004358338, -0.26430497, -0.062169302, -0.23668754, 0.21813466, -0.091298126, 0.15092716, 0.026130337, -0.10346968, 0.10183865, 0.04155452, -0.19528377, -0.06525137, 0.2500512, 0.19674394, 0.17141418, -0.19766814, -0.022918385, -0.107472226, 0.1707129, -0.047331046, -0.22994533, -0.073544085, -0.28266144, 0.17128967, -0.097371474, 0.12850927, 0.22690357, -0.13381454, 0.15118134, 0.092382476, -0.044178452, -0.06933301}, 
{-0.1721612, 0.24399076, 0.113938786, -0.020829732, 0.0954927, -0.02338885, 0.2844942, -0.1600832, 0.22005822, 0.07735393, 0.25372213, 0.13592643, 0.16447507, 0.08439143, 0.15067701, -0.117376946, -0.08844993, 0.17863676, 0.14964853, 0.23632365, -0.06612246, -0.16439876, 0.02682712, -0.14903031, -0.19529949, 0.14106385, -0.090060055, 0.23766841, 0.21432933, -0.05898982, -0.049338255, 0.20216809, 0.22044834, 0.06311845, 0.043579645, -0.09193612, 0.19378585, 0.0006039647, 0.12208728, 0.28710887, 0.010464198, -0.087969095, 0.2257696, -0.0785332, -0.070064105, 0.036817227, -0.057739682, -0.12045913, 0.0005116979, 0.07505383, -0.0394651, 0.25459465, 0.03732232, 0.099807985, -0.16044858, 0.092539966, 0.28894407, 0.22391348, 0.026084155, 0.014804471, -0.023066994, 0.0900254, -0.06945234, -0.033667054, -0.109332144, -0.05700449, -0.13102424, 0.046319272, 0.17388588, 0.12469542, 0.13575713, -0.103615336, 0.02642675, 0.09440919, 0.07735732, 0.027826697, -0.07414873, -0.14920351, -0.031502478, 0.19994836, 0.12721623, -0.062586084, -0.16836326, 0.013299741, -0.18284951, 0.13315071, -0.069187924, -0.04480309, -0.20844775, 0.06413581, 0.105019525, 0.033665642, 0.082885645, -0.18941818, 0.089384094, -0.14731964, 0.17244814, 0.16119541, 0.19777665, -0.083652124, 0.038891133, 0.17786232, -0.06729736, -0.024654495, -0.05471276, 0.107536316, 0.02441136, 0.13515063, 0.18119508, 0.09053435, 0.10871113, 0.21376733, 0.044164013, -0.13668738, -0.038415916, 0.21759467, -0.15117821, -0.1037219, -0.05525149, 0.18052278, 0.18517746, -0.17429096, -0.1628891, 0.13274717, 0.21668328, -0.103637405, 0.09492433, -0.10243911}, 
{-0.12496521, -0.124144234, 0.09678575, -0.13598664, -0.11136451, -0.07769908, -0.18940577, 0.2619582, -0.0018156819, 0.025691893, 0.20731089, 0.04471801, 0.055713814, 0.01994798, 0.024918927, -0.027856724, -0.056526795, 0.26371282, 0.23069367, -0.028799666, -0.17483343, 0.37966675, -0.35850066, 0.2443011, 0.1239899, 0.040822, -0.04325322, -0.29396755, -0.04678509, 0.33269152, -0.15953553, -0.09979569, 0.023090452, 0.038360048, 0.19770955, 0.06967808, -0.06109461, 0.28670228, -0.10567118, 0.30076912, 0.001828195, 0.34131244, 0.19807471, 0.20690358, 0.124139115, -0.014701381, 0.15404005, 0.38443157, -0.0043069934, 0.30051357, 0.28811815, 0.111954644, -0.24738115, 0.21214145, -0.085576795, -0.004863756, 0.20099166, 0.047483947, -0.14791517, -0.26278934, 0.114357255, 0.28918326, 0.22504589, -0.1756354, 0.18024907, 0.14833868, 0.01238601, 0.061491933, 0.0769031, -0.13202567, -0.17051053, 0.11462485, -0.24345326, 0.04854091, -0.21988389, -0.1291344, 0.11299968, -0.153614, 0.120436706, 0.058246065, -0.22597738, 0.19935912, -0.2139115, 0.10465594, -0.29680902, -0.110453285, -0.11598979, 0.011933834, -0.23843509, -0.16347964, 0.115774184, -0.25599653, 0.029311959, 0.05028269, 0.12921813, 0.11789375, 0.13157634, -0.08012562, 0.22980556, -0.046943128, 0.10612569, -0.0034783399, -0.21719675, 0.16993679, 0.24081457, 0.27454737, -0.06894024, 0.39697087, 0.026024666, -0.053814724, -0.16999535, 0.012921811, 0.05838437, -0.10545127, 0.36211202, -0.10918415, -0.1986208, 0.5327294, -0.29065055, 0.15655006, -0.04432015, 0.26058415, -0.10985544, -0.40138516, -0.051975593, 0.11319697, -0.038608372, -0.017127514}, 
{0.35657617, -0.00510996, -0.08890805, -0.020547641, -0.026120665, -0.15869483, 0.20236951, -0.1707225, 0.25338066, 0.02741555, -0.2520923, -0.14959551, -0.1241376, 0.24449791, 0.13222098, 0.07607747, 0.122657806, 0.24860786, 0.17605142, -0.26044098, -0.093589574, 0.08143064, 0.16794202, 0.09569542, -0.043458004, 0.17121392, 0.09754424, 0.02038615, -0.09234047, 0.3075306, 0.14002317, -0.04255508, 0.29576117, 0.38465798, 0.09221301, 0.19266509, -0.038571525, -0.30048606, -0.18705009, 0.014257129, 0.36071062, -0.21179715, -0.17783158, -0.06830197, -0.21795218, 0.24008033, -0.3916123, -0.13765326, 0.073690705, -0.043070626, 0.07378875, -0.12437256, 0.10619714, 0.022331452, 0.06884152, 0.08770158, 0.40908465, 0.065430395, -0.03800009, -0.123909816, -0.1778326, 0.14642663, 0.06554758, -0.15238364, -0.33248016, 0.27304357, 0.061234757, 0.27315706, -0.06537965, -0.28836498, -0.05200544, -0.25347728, -0.28275275, 0.13798521, 0.053644266, 0.12794629, 0.16403304, -0.2735167, 0.1678537, 0.04225424, -0.24807417, 0.090624705, -0.2508804, -0.21375725, -0.055861533, -0.23376866, -0.0046524913, -0.06435176, 0.013443057, -0.06547208, 0.19164585, -0.11901551, 0.18826841, -0.1844734, -0.010410985, -0.27057102, -0.008665268, 0.26692733, -0.2859678, 0.34526476, -0.21297412, -0.18281703, -0.026575254, -0.23769926, 0.12743762, -0.28908244, -0.14725609, -0.10976298, -0.038488574, 0.16541746, -0.12412862, -0.18776248, 0.27724752, 0.03279447, 0.17538951, -0.010437179, -0.09444278, 0.07899572, -0.239782, -0.19638015, 0.37248892, -0.00287731, -0.06105479, 0.07126548, -0.24051328, 0.31769165, -0.07224918, -0.29219553}, 
{-0.0045413715, 0.11459503, -0.010542821, -0.2289914, 0.093120255, 0.36306036, -0.0430551, 0.16964717, 0.18322875, -0.283757, 0.05511259, 0.24969207, -0.301913, 0.07399143, -0.18153134, -0.30671838, 0.015228198, 0.14757185, 0.083995774, -0.1277304, 0.22737063, 0.12359012, -0.20598866, -0.11329393, 0.12739307, 0.1407432, -0.09423557, -0.40894312, 0.12238015, 0.1100583, -0.100482255, 0.04881712, 0.34763262, -0.09784339, -0.11568712, 0.036770582, 0.088595375, 0.01206687, 0.11689451, 0.20212425, 0.029755624, 0.014933689, -0.044614583, 0.32040638, 0.07079774, -0.1653739, -0.24819623, -0.026433662, 0.22749807, -0.07434162, 0.21429498, 0.07163285, 0.016375761, -0.11148075, -0.05179481, -0.36147985, 0.038865108, 0.25103647, 0.02478105, 0.15092541, 0.22076638, 0.0332168, -0.24807134, 0.1438128, 0.17655191, 0.20711856, 0.29551739, -0.13797791, -0.22655024, 0.16536134, -0.27781785, -0.1476151, -0.17385554, 0.30046672, 0.21007536, 0.30260104, 0.1851305, 0.18345116, 0.33135036, 0.32684562, -0.03425781, 0.045577023, -0.21919669, -0.12991954, 0.12418031, -0.122729756, -0.28449872, -0.26839134, 0.23174074, -0.21082155, -0.23480581, -0.0727662, -0.242904, -0.16939, 0.1942462, 0.2312281, 0.061663933, -0.10309814, -0.12729098, 0.04235772, 0.3189048, -0.024959916, -0.19296542, -0.05189638, -0.12628098, -0.3120364, 0.25304395, 0.1761615, -0.12056819, -0.18812926, -0.036412273, -0.15005243, 0.01766054, 0.21389076, 0.066295885, -0.27703205, -0.10415023, 0.18883336, 0.023026507, -0.21617553, 0.023423262, 0.3522738, -0.09637754, -0.14284499, 0.17299162, 0.2778267, -0.43837762, 0.014449118}
};
#define layer_0_recurrent_kernel_size_0 32 
#define layer_0_recurrent_kernel_size_1 128 
const data_t layer_0_recurrent_kernel_weights[layer_0_recurrent_kernel_size_0][layer_0_recurrent_kernel_size_1] = {{-0.059088055, 0.032902863, 0.123094216, 0.0048332396, -0.08161655, 0.15855931, -0.15517811, 0.04867949, -0.12278701, 0.03717992, 0.036052298, -0.037821807, 0.11495465, -0.14061597, -0.08727881, 0.26858106, -0.15201405, -0.13116977, -0.15904729, 0.10657753, 0.003889042, -0.013057878, -0.09227419, 0.18366697, 0.18368383, 0.13218284, -0.10659156, 0.14809625, 0.055711925, -0.096311115, 0.15645324, -0.017767869, -0.16311751, -0.31262693, 0.036464155, -0.07200223, -0.12113509, 0.24194416, -0.03220554, 0.06767671, -0.030350354, 0.2580271, -0.0467453, -0.20133992, 0.34723115, -0.053839732, -0.047756482, 0.20015197, -0.12400513, -0.108655505, 0.024920015, 0.104560345, 0.14616318, 0.1267667, -0.16493309, -0.11804658, -0.30968273, 0.079720825, -0.0334046, 0.054328356, 0.059420712, -0.09467279, -0.030475603, 0.09398475, 0.11831119, -0.047469866, -0.16740467, 0.17011257, -0.0414204, 0.009373153, -0.015807204, 0.09997049, -0.10742615, 0.07372773, -0.1598146, -0.0052685775, 0.037609026, 0.021156479, 0.08724719, -0.063424855, 0.16079253, 0.052879956, 0.01874668, -0.06714886, 0.119353846, 0.03936784, 0.020339148, -0.11492092, -0.120544374, 0.022560494, 0.038841177, 0.14243853, 0.11331156, 0.13687831, 0.043338537, -0.08203153, -0.25783056, -0.06969461, -0.008607794, 0.15991692, 0.0013296846, 0.30053136, -0.05522274, -0.11701393, -0.18071625, 0.022593467, -0.08340558, 0.09102259, 0.22616014, -0.008214067, -0.058621407, 0.11617179, 0.031352367, -0.06770095, 0.07415049, 0.12825002, 0.094436005, -0.0063405223, -0.08088262, -0.02466768, -0.09640261, 0.016687952, -0.026106143, 0.10054262, 0.0553298, -0.055998523, 0.05437751, 0.13732666}, 
{0.24961597, -0.00036077175, 0.121552125, -0.07337845, -0.020287093, -0.18928985, 0.11520628, -0.16278996, 0.09587436, 0.17713632, -0.010208102, -0.18463336, -0.076851904, 0.172135, 0.08195829, -0.22900145, -0.10998272, 0.016119476, 0.038884353, 0.04113464, -0.13922875, -0.13953865, -0.06467177, 0.05714582, -0.16126084, 0.00467183, -0.10948408, -0.1361081, -0.0737044, 0.101116486, -0.107087284, -0.12163543, 0.10721348, 0.15063876, -0.037291467, -0.096701, -0.06555993, -0.033948254, 0.014200594, 0.07120215, 0.099309884, -0.07105527, -0.015704097, 0.1152254, -0.10960768, 0.23343416, -0.045957286, -0.12809373, -0.08284913, -0.0019257978, -0.13325812, 0.03615308, -0.12634543, -0.07319539, 0.038299646, 0.005706389, 0.30256185, 0.21292025, -0.04934329, -0.2661351, -0.06240179, 0.16915078, -0.109283775, 0.045588005, 0.007611614, 0.06584325, -0.08080408, 0.123773366, -0.1531506, -0.015299789, -0.030255822, -0.060574885, 0.052896637, 0.06286133, 0.0095629385, -0.020630317, 0.089494966, -0.09123384, -0.04176084, -0.021641843, 0.006113668, -0.0083708465, -0.11825069, 0.20563099, -0.044094533, 0.107527666, 0.06347148, 0.024756081, 0.0379871, -0.19944245, -0.053089913, -0.07495995, -0.0040166313, -0.21996243, -0.005592688, 0.0708008, 0.022165341, 0.07883993, -0.32118776, -0.04949835, 0.0074577318, -0.03122854, -0.0989519, 0.053509813, 0.048385147, 0.023231795, -0.060496025, 0.20697865, -0.016588839, 0.021912538, 0.11992882, -0.049418043, -0.032449905, -0.024609134, 0.1897369, 0.049601417, -0.05400824, 0.06480688, -0.007071593, 0.15565322, -0.003784461, -0.035260998, -0.08251917, -0.082590714, -0.07486923, 0.08815949, -0.25870433, -0.103434294}, 
{0.034731813, 0.03045721, -0.16341573, -0.03375367, 0.16132677, 0.039761342, -0.12429568, 0.046476055, 0.12845692, -0.11304973, -0.051018894, 0.10648595, -0.16282345, 0.023528041, -0.11882844, -0.17639154, 0.13644955, 0.07532062, -0.009648463, 0.06219509, 0.06773166, 0.18255457, -0.07898318, 0.12163955, -0.055539392, 0.15662773, 0.00044245058, -0.13972303, -0.053585812, -0.080384776, -0.23404469, -0.18964162, 0.07528005, -0.059290662, -0.009362807, -0.04055378, 0.05762686, -0.23884405, -0.19719443, -0.28850117, 0.1798714, -0.1958723, 0.09048421, 0.047971655, -0.15389317, 0.1480273, -0.21636705, -0.1502903, 0.0567884, 0.030133039, -0.06283872, -0.014939023, 0.023802258, -0.04511019, -0.09717333, -0.023771945, 0.05346618, 0.013535418, 0.023989424, -0.32959923, -0.08416677, 0.08809151, -0.09057175, -0.05310522, -0.027358482, 0.12807006, -0.008532049, 0.18933457, 0.035386853, -0.10374225, 0.078084216, -0.014655957, 0.16967744, 0.22402819, -0.07750461, 0.1672985, 0.15234885, -0.09242567, -0.0594073, 0.07192021, 0.067366794, 0.049634364, 0.04953694, -0.055416137, -0.020718124, -0.18419287, -0.12481542, 0.03895472, 0.0151784355, 0.021348782, 0.026229102, -0.16231027, -0.12466375, -0.16016555, 0.057727527, 0.10023367, 0.18465462, 0.13894822, -0.023790501, 0.14019535, -0.06428641, -0.08581563, 0.06032438, -0.039390758, 0.18341346, -0.008312561, -0.1651219, 0.11845107, -0.03909583, 0.17280142, -0.08042529, -0.19387189, 0.21641137, 0.072631344, 0.041821554, -0.21865152, -0.09692467, 0.15810584, -0.1642138, -0.15945329, 0.1239247, 0.092934586, -0.033788342, -0.1710257, -0.20554161, 0.021764623, -0.10832016, 0.08960653}, 
{-0.04150025, 0.0023477417, -0.17090993, 0.023665613, -0.0017611461, -0.13234788, 0.019780636, -0.08031965, 0.36096227, 0.0106715895, -0.016846552, 0.06103354, 0.057975363, 0.011287646, -0.08715791, -0.15542297, 0.19094318, 0.06183927, 0.07236609, 0.20613186, 0.07001921, 0.08497674, 0.13334537, 0.0035191623, -0.08687757, 0.115756996, -0.004599527, -0.067998946, 0.12479767, -0.06668771, -0.011948234, 0.06384008, 0.007466536, 0.029321756, 0.033923563, 0.094779015, -0.07380005, -0.1104925, -0.031687856, -0.060325164, 0.14691922, 0.02225508, 0.00040099368, 0.2533543, -0.019212184, 0.027324231, -0.049329203, -0.041492537, 0.13291991, 0.1909865, 0.105803154, -0.026640184, -0.022464689, 0.12670627, -0.12180988, -0.11411825, 0.071556024, 0.1459168, 0.11897247, -0.22973122, -0.046600364, 0.060786292, 0.005508698, -0.027815033, -0.1069273, 0.027269006, -0.14243366, 0.16107814, 0.09936116, 0.015489873, -0.09270685, 0.2711321, 0.094328135, -0.07456296, 0.005965104, 0.0033926321, 0.049216077, -0.03621174, -0.17020968, -0.08774476, -0.03466975, 0.072014146, -0.11415457, -0.004821661, -0.019344872, -0.07402404, -0.05714576, -0.102236316, -0.09266581, -0.051381953, 0.05847686, -0.12718874, 0.09113435, 0.05671676, -0.02930823, -0.26802206, -0.11313636, 0.030454848, 0.11316677, 0.07817693, 0.093414776, 0.1971845, -0.09737457, -0.04294205, 0.25754717, 0.07666345, -0.06854164, 0.09623221, -0.11399136, 0.07631453, 0.045334425, 0.05865008, 0.038304977, 0.034564223, 0.18775024, 0.25717005, -0.013307154, 0.013188032, -0.059456788, -0.11562376, 0.25474063, -0.10372142, 0.007632313, -0.19686987, 0.0239436, -0.059381474, -0.029449517, -0.025196265}, 
{0.026970288, -0.021744907, 0.15912628, -0.14555418, -0.04493967, 0.03215139, -0.023618074, -0.05551331, 0.15353298, 0.06450423, 0.006060457, 0.12362708, 0.06859252, -0.027704092, 0.02764476, 0.025153326, 0.1906588, -0.039636057, 0.2748192, -0.077811256, -0.06926695, -0.010458521, 0.08136027, 0.023666626, 0.08579543, 0.14087427, -0.09212453, 0.08296611, 0.06367545, 0.012663428, 0.14012313, 0.04380663, 0.030925767, 0.025024613, 0.04988412, 0.052601535, 0.016497271, -0.0373843, 0.0028179013, -0.005317048, 0.09511352, 0.1426601, 0.06875365, 0.060620423, -0.11007414, 0.24989848, 0.24616124, -0.039299976, 0.03801625, -0.01338265, -0.12141782, 0.18848157, 0.006531264, 0.08300044, -0.15963887, 0.15682153, -0.07867667, 0.17835659, -0.07136501, 0.14289649, 0.17976882, -0.06423815, 0.054631457, -0.18112871, -0.03404506, -0.07258785, -0.041286685, -0.031177076, -0.021520669, -0.015655557, 0.05419145, -0.06609557, 0.029083041, -0.08639309, -0.06400433, -0.055695053, 0.040027536, 0.11444496, 0.14018854, 0.044848293, 0.0032810173, -0.1644033, 0.018553555, 0.07650813, 0.038129173, -0.088136405, -0.05261875, 0.09264211, -0.13567974, -0.018568726, -0.11882594, -0.011839806, 0.025623577, -0.06829623, 0.07343, -0.18440494, -0.027388535, 0.18018946, 0.1665067, 0.06997681, 0.063408434, -0.050170314, 0.10384242, -0.09929665, 0.015729876, 0.079050735, 0.012583578, -0.024186755, -0.025018563, 0.06308264, 0.07098287, 0.07721951, 0.0024782747, -0.073488794, 0.036948275, 0.11009915, -0.2743217, -0.06524242, -0.08586507, -0.10013051, 0.059609443, 0.1010651, -0.087056555, 0.18176953, 0.06689342, 0.12644978, -0.09810554, 0.12616697}, 
{-0.20275302, -0.09275988, 0.04587196, -0.06285255, 0.080450475, -0.0016005613, 0.058713708, 0.117734075, -0.056770377, -0.096657895, 0.20614007, -0.20123741, -0.08620048, -0.054162633, 0.04053279, 0.06656214, -0.07532604, 0.015746811, -0.09997874, -0.016639514, 0.14396542, 0.045179613, -0.018056141, 0.009590746, 0.19689311, -0.07765194, 0.04653203, 0.1557559, 0.07497476, -0.030823236, 0.038142025, -0.15255903, -0.21452022, 0.0017469007, 0.08898404, 0.032050904, 0.10807301, 0.0017733148, 0.12867561, 0.1850893, -0.043120764, 0.051903345, 0.08220163, -0.045748804, 0.17795302, -0.13242254, 0.27421457, 0.14626785, 0.035593882, -0.08093698, -0.102014236, -0.034272842, 0.3385985, -0.23312071, -0.034886003, -0.03061174, -0.22533943, -0.039851196, 0.023287632, 0.14163382, 0.010678983, -0.103253774, 0.1343708, -0.018709317, -0.022496445, -0.06698802, 0.025504809, -0.1955555, -0.027066957, 0.013311116, -0.0054504913, 0.103229575, 0.0345856, 0.011567161, 0.18198499, -0.03621082, -0.25366345, 0.17117958, 0.053338647, -0.190449, -0.1476908, -0.022155862, -0.0341213, -0.028075937, -0.11262656, 0.0016757125, 0.18919674, 0.0008917288, -0.017655341, -0.031934325, -0.19983794, 0.10754718, -0.06331419, 0.10233294, -0.028271625, 0.107458174, -0.055970613, -0.020431967, 0.12188936, -0.09383379, -0.028747408, 0.10328427, -0.07875462, 0.09795468, -0.09988335, -0.038509626, -0.09209542, -0.14859818, -0.013238515, -0.0068263435, 0.15908626, -0.048350126, 0.041394655, -0.00011020026, 0.12439213, -0.18657947, 0.028512532, -0.12206668, 0.023983406, 0.12940052, -0.029517524, -0.08648808, 0.036831427, 0.21357466, 0.03494875, -0.14631097, -0.072367825, 0.12548453}, 
{0.017683256, 0.093905434, 0.1431568, 0.05598364, -0.15190916, 0.00018364284, 0.019779205, -0.12199663, -0.07854997, -0.063772455, 0.1116393, 0.12773919, 0.12537438, -0.09854704, 0.06180664, 0.24398273, -0.32465774, -0.055898048, 0.06705649, 0.18958758, 0.12137786, 0.14432952, -0.08036779, -0.099963255, 0.039432477, -0.39818263, 0.05799438, 0.256918, -0.051299665, -0.14511207, 0.110515326, -0.16673636, 0.092297114, -0.026487557, -0.008489887, 0.06157398, -0.07542155, -0.02413422, 0.15651557, -0.058327496, -0.031503115, -0.078664, 0.17760496, -0.17823131, 0.13432246, 0.067723185, 0.2815671, 0.2452911, -0.1961275, -0.17916384, -0.10177154, 0.00011212781, -0.09464462, -0.007143747, 0.08008236, 0.038550496, 0.27649435, -0.16346765, 0.11689614, 0.31878, 0.116708815, 0.04742073, 0.15925114, -0.12043712, -0.019083202, 0.13373421, -0.059194077, 0.0010938183, 0.016972076, -0.13508062, 0.06884863, 0.020772578, -0.029586002, 0.0044577927, 0.07715479, 0.15669692, 0.14252007, 0.019134253, -0.02629558, -0.118433066, -0.040969, 0.0033269622, 0.01606943, 0.066527314, 0.12792633, 0.10194753, 0.021498717, 0.08912717, -0.063854516, 0.015904868, 0.054927718, 0.082964145, 0.053787757, -0.054208644, -0.05604782, -0.055112615, -0.091316156, -0.028019855, 0.039636724, -0.2305117, -0.227918, -0.061044533, 0.18648238, 0.08025446, -0.02433663, -0.059592847, 0.09298699, -0.06125503, 0.14134948, -0.20927842, 0.14473313, 0.20525241, -0.24444798, 0.027249008, 0.08180545, 0.06176182, 0.062899224, -0.0076007466, 0.18706174, 0.07621837, -0.001886864, -0.21277079, -0.09690155, 0.13042459, -0.008179359, -0.12006895, 0.09056453, -0.12758535}, 
{-0.13824585, 0.19397905, -0.036876135, -0.14176813, 0.13513975, -0.06138661, -0.17805186, 0.05658715, 0.14634305, 0.050174143, -0.003831809, -0.11449902, -0.061623033, -0.19442485, -0.10731022, 0.08519424, 0.12898122, 0.1052502, -0.06981674, 0.19007748, -0.050272115, -0.033606023, 0.033543482, -0.20401125, 0.06424823, 0.060767293, -0.09472767, -0.13781103, 0.13256966, -0.0111080725, -0.06550658, 0.02809495, -0.015573485, 0.05396359, 0.034560885, -0.18823189, -0.06818871, 0.016167693, -0.32769212, -0.048495498, 0.12522936, 0.19295241, -0.101651914, -0.13421428, -0.24363239, 0.15330708, -0.007644714, -0.12289938, -0.01129071, 0.045053437, 0.19365051, -0.030210663, -0.11334307, 0.1060693, -0.011119754, 0.070849925, -0.09664007, 0.07640173, -0.054006785, -0.11895422, 0.040581807, -0.12305888, -0.004320636, 0.16375056, -0.07340182, 0.044611454, -0.1464049, 0.12100991, 0.1396676, 0.09799197, 0.04257229, 0.24540988, 0.020762382, 0.04519364, 0.045124322, 0.03965278, -0.15203321, 0.030633029, -0.04742697, 0.014992253, 0.13779956, -0.1359755, -0.18698971, 0.14259042, 0.07360234, 0.1976103, -0.110539325, -0.1059525, -0.19061941, -0.028951384, -0.003501145, 0.028750723, 0.008784027, 0.11714866, 0.050614055, 0.078060135, -0.03346723, 0.054914936, 0.14373186, -0.063238926, -0.23900121, -0.079022214, -0.009052966, -0.11788103, -0.012750233, 0.30176672, -0.07036936, 0.068900265, -0.2485395, -0.03052262, -0.023249226, 0.025407331, -0.03125788, -0.006395576, 0.2040662, 0.16346593, -0.13901505, -0.15209483, 0.022901913, 0.13355038, 0.13661462, -0.009372655, -0.05957937, -0.08347706, 0.0793674, -0.10001492, -0.023313003, -0.07157451}, 
{0.01789449, -0.10794117, 0.09689054, 0.011733445, 0.13851535, 0.038512964, -0.0025383178, 0.022699455, -0.056164633, -0.078963555, 0.032113366, -0.1163572, 0.21264371, -0.1428452, -0.18277508, 0.059878338, -0.025047999, -0.23439315, 0.060756896, -0.08867987, 0.07243192, 0.19036654, 0.1290245, -0.009064713, 0.24874114, -0.09039083, 0.038185272, 0.19367859, 0.069636896, -0.12883191, -0.021632906, 0.10312656, -0.22245058, -0.031131148, 0.14579552, -0.0015892796, 0.1638089, 0.20312116, -0.14670944, -0.17060287, -0.25467616, -0.106669515, -0.090266064, -0.10640143, -0.09348882, -0.25876328, -0.048787564, -0.090378866, 0.11852078, -0.086054206, -0.14125831, -0.14068104, 0.1368391, -0.16424641, -0.09498816, -0.21769233, -0.29417872, 0.00054776086, -0.17402008, 0.13420054, -0.04963553, -0.041614864, 0.010611332, 0.18502791, -0.010170461, -0.10467918, -0.11539522, 0.0022671637, -0.009811394, 0.018732984, 0.0623706, -0.03913749, 0.082426, -0.047505796, -0.100926265, 0.012630297, -0.050108165, 0.03261085, 0.027282525, -0.12381468, 0.09296218, -0.18654867, 0.04551569, -0.21093768, -0.13476409, -0.05918942, 0.11220254, 0.0327635, 0.06673317, 0.2237214, -0.03332876, 0.01832761, 0.090473406, 0.14791055, -0.0039542317, -0.0585965, -0.10328044, -0.057456117, -0.029878056, -0.16034947, 0.07741344, -0.023769354, -0.02831099, -0.1439839, -0.174238, -0.005014665, 0.05458992, -0.089118846, 0.2251267, -0.27118307, 0.008493025, 0.12468875, 0.12605299, 0.014168587, 0.03310686, -0.0708714, -0.004878137, -0.09859242, -0.066210836, -0.09715501, -0.18266885, -0.20023823, -0.12559451, 0.21124902, -0.053192236, -0.03921092, 0.11569915, 0.05843406}, 
{0.17474803, 0.16089669, -0.1960231, 0.13117479, 0.18058926, 0.08851878, -0.091976814, -0.0840776, 0.3376261, -0.16757959, 0.037965655, -0.14978789, -0.12770955, 0.09819521, -0.1429661, 0.010961877, 0.09945293, -0.0015779017, 0.13989417, -0.026235102, -0.015855309, -0.0005905462, -0.074547336, -0.23085748, -0.0079933, -0.04052818, -0.03680511, -0.102945745, 0.012478803, -0.011038499, 0.12543845, 0.056738835, -0.0265296, 0.060639884, -0.057562552, -0.091045834, -0.05753523, -0.15541288, -0.066766374, -0.17427972, 0.26046863, 0.033176843, -0.04907077, 0.088766694, -0.01172337, 0.1198983, -0.22968729, -0.06652039, 0.20577708, -0.00011882378, 0.12977315, -0.0004993649, -0.012014834, -0.041855004, 0.06645236, 0.083062865, 0.017860305, 0.14883916, -0.17176747, -0.1591613, -0.034105696, 0.048733544, -0.27443168, 0.11660173, -0.08520374, -0.019513832, 0.15622818, 0.0012450002, 0.005691788, -0.09366663, 0.021177698, -0.060917817, -0.085473694, 0.16656132, 0.04520587, 0.1672304, 0.14960325, -0.13995643, -0.020108817, 0.19360487, -0.008743018, 0.0010070372, 0.044557374, 0.15984596, 0.024144504, -0.12844701, -0.109771386, -0.051267866, -0.12922303, 0.022548115, -0.028480131, -0.1574888, -0.11510748, -0.047341276, 0.14742567, 0.015239424, -0.022654038, -0.07497319, -0.110947624, 0.0040485584, 0.017362688, 0.0028792839, -0.18666509, -0.1699717, 0.1748063, -0.28348088, 0.066119336, -0.0542212, -0.07553436, -0.03167112, -0.21994357, 0.015547441, 0.18952756, 0.06782235, 0.115845814, -0.10901224, -0.027364902, 0.07652946, -0.084083006, -0.21490099, -0.14230557, 0.17541999, -0.018727843, -0.1309472, -0.1247923, 0.18833189, -0.19223322, 0.018728036}, 
{0.16682796, -0.12250427, -0.136787, -0.041219786, -0.023560334, 0.09347954, 0.08375647, 0.096388005, -0.15577766, -0.07640796, 0.25083154, -0.06562526, 0.0015713747, -0.0083315475, 0.03523185, -0.10577235, -0.15870611, 0.05175844, -0.19058418, -0.092180066, 0.050778266, -0.014494678, 0.1938001, -0.108950555, -0.12502246, -0.36129123, 0.10474943, 0.029017411, -0.15926707, -0.13671082, -0.028891416, -0.087084, -0.09240419, -0.016167391, -0.044902187, 0.06613908, -0.041418646, 0.07195733, 0.15642264, 0.22164477, -0.03558947, -0.31102243, 0.017597133, 0.01573281, -0.072935835, -0.015270723, -0.033915736, -0.050973766, -0.03337402, -0.18902941, -0.26916233, 0.07275079, 0.06914976, 0.0053027305, 0.043007407, 0.020786237, 0.08896663, -0.09301962, -0.009137874, 0.48827153, 0.055621777, -0.030999836, -0.18410355, -0.0010934857, -0.21824495, 0.04589554, -0.11292813, -0.07793599, 0.017956665, 0.09067637, 0.0790433, -0.08573693, -0.06143124, -0.06831196, -0.021785928, 0.10471403, -0.041437835, -0.013522656, -0.017897304, 0.08670344, -0.06103396, 0.13932101, 0.0009948877, -0.06697512, 0.09684264, 0.08014621, 0.15675417, -0.001337613, 0.019827168, 0.022317693, -0.16633835, 0.04124237, -0.097209066, -0.004861648, -0.095186785, 0.12980029, 0.056869723, 0.0106456475, -0.09000089, 0.113371, -0.046252005, 0.048020303, 0.10480843, 0.1295971, -0.0026706918, -0.08069329, 0.11752672, -0.01664172, 0.043545723, 0.074615605, 0.11739066, -0.19106393, -0.17817432, -0.18925072, -0.21202193, 0.10016436, 0.19600753, -0.14127134, 0.2473157, 0.14893183, -0.12241403, -0.10999386, -0.09769638, 0.24690343, -0.10558374, -0.113163665, 0.17240268, 0.26657236}, 
{0.0764253, 0.09624992, -0.31180587, 0.06620484, 0.040021528, 0.078169525, 0.1779778, 0.02466449, 0.05143955, -0.13602683, 0.019113364, -0.035540514, -0.14485763, 0.07751979, -0.13226698, -0.33033198, -0.032260958, -0.058760967, -0.0051352223, -0.1034865, 0.06869222, -0.014510104, -0.15741168, 0.08032414, -0.00017704352, 0.022776144, -0.021763943, -0.20042299, -0.022385443, 0.11200908, -0.100318685, -0.04252661, 0.29247823, 0.042166498, -0.19868003, 0.015637334, 0.24892738, -0.0321696, 0.12473121, 0.12233407, 0.13922372, -0.01498928, 0.20693895, -0.11888868, -0.16862544, 0.110405475, -0.16272165, -0.10690601, 0.26301497, 0.04916533, 0.13341081, -0.15444496, 0.15391369, -0.09488141, 0.0629242, 0.003290939, 0.49258217, -0.07285411, 0.035497054, -0.11378905, 0.041023575, 0.0012868617, 0.003171875, -0.0062067057, -0.035774194, -0.047437593, -0.014946203, -0.039679922, -0.15633546, -0.05351437, 0.08746543, -0.10308824, -0.012786851, 0.10285223, 0.02904374, 0.10646401, -0.020363811, -0.18953478, -0.007396824, 0.044571783, -0.0827828, 0.23854747, -0.049250066, 0.09642934, -0.020953014, -0.019572776, -0.013121896, -0.054925554, 0.037063107, 0.019692475, -0.107598715, -0.11963734, 0.103218175, -0.24062867, 0.15909107, 0.09275385, 0.21828583, -0.020350037, -0.18611391, 0.03434367, 0.13834208, 0.11426795, 0.27558342, -0.023848528, 0.013561833, -0.14180425, 0.08733305, 0.1366757, -0.15530728, -0.03898441, 0.054395065, -0.21434821, -0.09645043, 0.01996923, 0.07884762, -0.021706136, 0.059534524, -0.10173594, 0.09187331, 0.10545898, 0.009588139, 0.041760255, 0.0500388, -0.050604317, 0.07272637, 0.11619269, -0.15235718, 0.025342891}, 
{0.07061366, 0.24747945, -0.09610043, -0.115016825, 0.095355466, -0.19716105, 0.033788472, -0.12203638, 0.20347601, -0.10813256, -0.17391762, 0.047231197, -0.29323837, 0.21313058, -0.01302257, 0.098328136, 0.025543889, 0.18032238, -0.01572817, 0.14994949, -0.011071976, 0.08447054, -0.08323316, -0.0020261614, 0.04384242, 0.16030085, -0.07155477, -0.2523368, 0.13515139, 0.054229733, -0.23339044, 0.038050488, 0.15426098, 0.12621728, -0.05448607, -0.018510351, 0.09690258, -0.07525391, -0.23737234, -0.18113619, 0.069601625, -0.13126601, 0.23725486, 0.013520663, -0.11377637, 0.07667847, -0.14453305, -0.10290914, 0.15423593, 0.27410346, 0.045480832, 0.052971844, -0.098103516, 0.01588013, -0.07580711, -0.0039379867, 0.07311079, 0.28137028, -0.072232954, -0.31945372, -0.16371383, 0.08592402, -0.12445896, -0.01103639, 0.005111025, 0.01123024, 0.11383054, -0.05923087, 0.06599278, -0.056199778, -0.0782476, 0.08008136, 0.036049705, -0.024681468, -0.07018663, 0.07980404, 0.12856358, 0.03399915, 0.14626771, 0.22894369, 0.07140604, 0.13015947, -0.03589524, 0.09681374, -0.06757865, -0.21193844, 0.07610204, -0.05924513, -0.031307176, -0.091549404, -0.06681863, -0.09990013, -0.08845445, -0.17011574, 0.12540808, -0.29405898, -0.11578594, 0.13041219, -0.10808565, 0.27661225, -0.011199487, -0.09255855, -0.13390942, -0.07093725, 0.039480772, -0.04156364, 0.013492002, 0.07449222, -0.14272359, 0.08449359, -0.10470616, -0.08279016, 0.1205708, 0.11345328, -0.031096248, 0.072152406, -0.1347817, 0.07906153, 0.029539382, 0.017928157, 0.07468879, 0.113086544, 0.00407685, -0.1344754, -0.115039974, 0.16779907, 0.02069085, -0.17146362}, 
{-0.19124159, 0.09462643, -0.11197565, -0.065242626, 0.023542376, -0.015664814, -0.28758913, 0.054558467, -0.025570035, -0.033463687, 0.08405602, -0.17326222, 0.005418908, -0.009622634, 0.118172295, 0.022745684, 0.036423285, 0.10340654, 0.034601666, -0.08934842, 0.012440131, -0.008528817, 0.07397764, 0.08776507, 0.034848295, -0.14408077, 0.0541618, 0.30859748, 0.003482943, -0.026519755, -0.1459919, 0.18230766, -0.088646345, -0.15647972, 0.16061777, -0.06655609, 0.03492635, 0.07395599, -0.16930845, -0.059667815, -0.10273385, -0.022667147, -0.07264591, -0.07883843, 0.055591248, 0.065550596, -0.07999101, 0.025770094, -0.005265687, 0.09920135, -0.3307634, -0.13359879, 0.071234785, 0.024839584, 0.04350626, -0.047084514, -0.38149306, -0.053101957, 0.021712178, -0.03009388, 0.057355244, -0.1853196, 0.09745994, 0.013400279, 0.13113646, -0.057501655, -0.0943816, 0.087647654, -0.10191147, 0.100744955, -0.15045154, -0.18910372, 0.16983126, 0.0832662, -0.004161137, 0.02528079, -0.09005384, -0.073128246, 0.053985756, -0.049639836, 0.024392983, -0.15165082, 0.08446565, -0.16268213, -0.036597047, 0.08633349, 0.039132863, -0.12327044, -0.10450376, 0.17076068, -0.05466089, -0.13589004, 0.060633764, 0.16724442, 0.0047585177, -0.061183337, -0.117173806, -0.080080114, 0.086847216, -0.13841598, 0.0069478652, 0.055079725, -0.17833431, -0.0650636, -0.04275631, -0.10719426, 0.020881953, -0.12253283, 0.021991773, -0.03112738, 0.019504262, -0.0710953, -0.07042569, 0.06407312, -0.11997448, -0.05224678, 0.21759112, 0.12415478, 0.16984497, -0.18075325, -0.21528158, 0.06520737, -0.055009127, 0.2502606, 0.15084703, -0.051411957, -0.11290399, 0.029522609}, 
{0.12121721, 0.06317251, 0.0019409972, -0.03480133, 0.09240929, 0.08792858, -0.15976124, -0.09777764, -0.036505286, -0.14500132, -0.09610338, -0.07289572, -0.05709882, -0.025162024, -0.20933896, -0.07002553, 0.14571854, 0.18245728, -0.052964922, 0.18288252, 0.008487895, -0.04658358, 0.07148266, -0.13605991, -0.05419494, 0.21511674, -0.24301165, -0.08987269, 0.2316426, 0.030872773, -0.33687556, 0.2989664, 0.04831324, 0.15114152, -0.040551614, 0.04813673, 0.08244846, -0.17930993, -0.12382124, -0.121959284, 0.22203143, -0.14296803, -0.052255042, -0.10587807, -0.15550601, -0.09906001, -0.13672215, -0.0010255547, 0.16250026, 0.1979156, 0.0074781547, 0.12256728, 0.014031112, 0.04606559, 0.08955183, -0.11606239, -0.11246579, 0.084453434, -0.087594286, -0.0006245681, -0.035620943, 0.1103356, -0.14779307, 0.15187371, 0.015101147, 0.15011978, 0.10807669, 0.08157279, -0.0959273, -0.030774005, -0.11376263, -0.007824804, -0.09342647, 0.18351722, -0.026554823, 0.06447812, 0.08980081, -0.0025585403, 0.11694336, -0.05457892, -0.06389711, -0.046399605, -0.08079733, -0.0031981773, 0.015087534, -0.14977483, -0.13250622, -0.011643054, 0.02464464, -0.0024483153, 0.03702334, -0.18914966, -0.04517359, -0.21158178, 0.10330431, -0.021919621, 0.049491007, 0.018328512, -0.17164505, 0.06933571, -0.031919412, 0.20242585, -0.0031516477, -0.08512028, 0.051059924, -0.095047645, 0.010195212, -0.009801272, -0.0879676, -0.06904058, -0.21143524, -0.24908072, 0.08728597, 0.03679247, 0.05740976, -0.0100153005, -0.25967947, 0.16389968, 0.04144863, -0.055810284, 0.13325399, 0.2847591, -0.0051673986, -0.18829264, 0.17159133, 0.105497636, -0.26646742, -0.016760657}, 
{0.004643729, -0.05502515, -0.07628047, 0.17690115, 0.061381932, 0.013481447, -0.11223499, -0.08623975, 0.0043640635, -0.04735801, 0.018639885, -0.05860966, 0.078644775, -0.08687599, -0.18470673, -0.18819728, 0.09084984, 0.117812306, -0.019815622, -0.053822033, -0.04841525, 0.18265946, 0.028458575, -0.023571676, -0.163067, 0.13215686, -0.04573868, -0.056768876, 0.014251658, 0.18722509, -0.14018318, 0.17710935, 0.003037733, 0.08837645, -0.20990415, -0.00369401, -0.015914377, 0.08005229, 0.05354926, -0.29072282, 0.115241714, -0.06816256, 0.17926042, 0.056137614, -0.13181311, 0.026153471, -0.20711897, -0.20108436, 0.18630278, 0.029683435, 0.15607914, 0.06600195, 0.008738578, 0.076787345, 0.115873225, -0.058204245, 0.0077207778, 0.049419794, -0.064556085, -0.1400726, 0.033200428, 0.14374192, -0.13477653, -0.05484973, 0.16113953, 0.061731283, 0.33504328, 0.14492008, 0.14144242, -0.1239034, -0.03482513, 0.07650662, 0.10556899, 0.17112415, -0.045589585, 0.034632877, -0.0148281865, -0.03001702, 0.16740917, 0.033865392, -0.09206336, -0.006257064, 0.08254457, -0.1592863, 0.15064806, 0.025493652, 0.021703359, -0.0416119, -0.05964442, -0.03257165, 0.013293722, -0.11168574, -0.16714123, -0.08767198, 0.13767143, -0.073863275, 0.013446425, -0.04711068, -0.32481286, 0.19786859, 0.10662875, 0.027948193, -0.14550439, -0.038184196, 0.04867723, -0.25192946, -0.057620645, 0.1175327, -0.07620656, -0.05109785, 0.026198534, -0.18321097, 0.18889537, 0.085973844, 0.08262543, -0.10751029, -0.054922674, 0.054870028, 0.26220837, -0.15856029, 0.079218864, 0.06179374, -0.002332302, -0.016687477, -0.14219123, 0.199855, -0.1854987, 0.051056273}, 
{-0.15515351, -0.005365793, 0.09632908, -0.064187184, 0.08431501, 0.30323118, -0.024301603, -0.14449495, -0.06806304, -0.036149338, 0.11153643, -0.058788765, 0.061843265, -0.07686162, 0.065887325, 0.08218986, 0.06984436, -0.047705535, -0.14582016, -0.012661581, 0.17320848, -0.0866303, -0.01117209, 0.0037278715, 0.08866188, -0.035073128, 0.044439115, 0.14390016, 0.09732141, -0.08898452, 0.1680724, 0.059451934, -0.16222486, 0.031581204, 3.7437603e-05, 0.030578211, 0.016956795, -0.089101255, 0.10088602, -0.15149367, -0.14024615, -0.035602592, -0.08086965, -0.1082578, 0.10188277, 0.024127167, 0.0017696783, 0.08379941, 0.20242484, -0.07144781, -0.009353696, -0.03632244, 0.068829425, -0.105295956, 0.17918305, -0.10916054, -0.25838983, 0.0024635994, 0.12673531, -0.0983807, 0.23141576, 0.07699555, 0.058046717, -0.07035246, 0.003816539, -0.08880322, -0.023128573, -0.036133908, -0.015184406, 0.17641494, 0.16853912, -0.06836168, 0.08909869, -0.18110512, 0.05625565, 0.06327121, 0.06624226, 0.10735934, -0.14941232, 0.0072695008, -0.056551855, -0.23206404, 0.066326916, -0.13502663, 0.21636207, -0.114102714, 0.06525349, 0.075193346, 0.04088984, 0.266794, -0.07110166, 0.01440648, 0.037457954, 0.14127488, 0.10333485, 0.1289815, -0.22355235, 0.048427463, -0.05581091, 0.02776641, 0.1845116, -0.077199124, -0.06679404, -0.1157349, -0.041081224, -0.010376366, -0.044267546, -0.013631508, 0.05565885, 0.081797086, 0.12500983, -0.0018545649, 0.00019906483, -0.08505729, 0.0030914664, 0.08888058, 0.07683062, -0.03208953, 0.062432244, 0.103841916, 0.12082212, -0.16648827, 0.023031535, 0.013385281, 0.09397864, -0.030114945, 0.11361317, -0.00583945}, 
{0.15603375, -0.047383297, -0.08221935, -0.1199517, 0.09815605, -0.16013145, 0.104155436, -0.14190765, 0.046872884, 0.007550272, -0.028452244, 0.0014038606, -0.34601152, 0.014927983, -0.032466255, -0.014369318, -0.14691834, 0.06259309, -0.06783811, -0.19560437, 0.07783191, 0.03511641, -0.03562316, 0.08279303, 0.010094051, -0.04673091, -0.087017134, 0.017210603, -0.0109209055, 0.1347317, -0.041842338, -0.06945614, 0.11339177, -0.066665, -0.0767426, -0.13261332, -0.009254416, -0.08320216, 0.11908275, 0.0005593722, -0.04187922, 0.15088579, -0.094184764, 0.14258343, 0.14589095, 0.1299559, 0.015713425, 0.03366652, -0.16224661, 0.2743833, 0.17288113, 0.14350316, -0.13391644, 0.048191737, -0.043417502, 0.065226756, 0.35483208, 0.09708396, -0.10054174, 0.17073636, -0.096080534, 0.1668822, -0.10915479, -0.03310842, 0.024113284, 0.07207951, -0.13690266, -0.040649146, 0.076956175, -0.04058489, -0.048118997, -0.15130994, 0.064985245, 0.08064408, 0.032218736, 0.038579036, 0.03804691, -0.107510746, 0.040303834, 0.014272068, 0.026156224, -0.015585622, -0.15811649, 0.05269873, 0.06584178, 0.11638115, 0.09132648, 0.12217915, -0.012484513, -0.047317527, 0.1820418, -0.1098638, -0.12394869, 0.011508757, 0.018593226, -0.007625554, 0.3303357, 0.1501197, -0.0006780178, -4.4831395e-06, -0.012968309, -0.13587259, 0.049441665, 0.12858036, 0.10148849, -0.082921065, 0.08555752, 0.24387538, -0.012121076, 0.047935516, -0.027455585, -0.11136597, 0.039054755, 0.08213116, 0.08542258, 0.19545993, -0.100477114, -0.038421873, -0.050498765, 0.19053686, 0.12627973, 0.002659174, 0.13586399, -0.15881017, 0.13332985, -0.04967103, -0.11028115, 0.038060706}, 
{-0.028996542, -0.18886457, -0.055622205, 0.07728592, -0.044345435, -0.0039800643, -0.09591511, 0.01310321, -0.14067574, -0.1588066, -0.14504439, -0.029216375, 0.25546846, -0.082749136, 0.019808779, 0.18695661, 0.064405315, -0.11096703, -0.25130334, -0.09853031, 0.04937788, 0.07548707, -0.069582574, 0.05914826, -0.21313097, -0.051189493, 0.033284158, 0.2871124, -0.03469308, -0.1324985, 0.25475323, -0.034571204, -0.23403427, -0.29005978, 0.19162637, 0.031836413, -0.11234274, 0.07673881, -0.13564676, 0.13664283, -0.07333204, -0.08462515, -0.08958083, -0.18164714, 0.1805092, -0.008021904, 0.0150244925, -0.009729932, 0.0058230776, -0.18257634, -0.07966229, -0.12691133, -0.16381335, -0.088568114, 0.029738871, 0.11682179, -0.2735906, -0.086565174, -0.018123522, 0.17550355, -0.16769142, -0.12815784, 0.03925698, -0.11239028, 0.06273999, -0.02144155, -0.13066766, -0.0487491, -0.013078887, 0.17439753, -0.18659157, 0.07901696, 0.19637601, -0.044335395, 0.14229767, -0.1897358, 0.006660673, 0.061759084, 0.092396, -0.048105422, 0.03228914, -0.020001376, 0.1680804, 0.0115270745, -0.09123071, -0.08935916, 0.13884297, 0.026581146, 0.12252017, 0.16801584, -0.10829889, 0.1226507, -0.07941966, 0.074541986, -0.14017549, -0.07072099, -0.04774387, 0.03908369, 0.0068846964, -0.03894894, 0.034257524, -0.036612414, -0.13209681, -0.12866132, -0.21915668, 0.041373767, -0.10493832, -0.12284608, -0.03346281, -0.17050387, 0.11311087, 0.056533687, -0.15792458, -0.15801752, -0.10608053, -0.23235506, 0.110424556, -0.021310778, 0.020659875, 0.13270727, -0.19950695, -0.13827099, 0.0075773597, 0.1187834, 0.097505644, 0.0084363455, 0.0024737357, -0.07666956}, 
{0.042721234, -0.19272222, 0.027534435, -0.03832738, -0.16280968, -0.04718396, 0.11691658, -0.036159016, 0.04807493, 0.06154736, -0.02003322, -0.18431704, -0.14809756, -0.033091195, 0.13682476, -0.10263416, -0.01518076, 0.11490738, 0.065937355, 0.11494818, -0.1334821, 0.30199772, -0.14793032, 0.15696955, -0.08588028, -0.023476379, 0.016571114, -0.059857916, 0.06420184, 0.091040775, 0.059250128, 0.08257873, 0.07652063, -0.05061832, 0.118901625, 0.023333415, -0.011408786, -0.012169244, 0.17532134, 0.15105638, -0.08754752, 0.14993829, -0.17537618, 0.014837474, 0.13678823, 0.03775297, -0.0014018426, -0.021915771, -0.09163242, 0.06827547, 0.06416882, 0.121287115, 0.011394465, 0.124121144, -0.11155718, 0.31398764, 0.3333518, 0.08096959, -0.06824325, -0.16719, 0.09461924, 0.18552892, -0.01837813, 0.06370591, 0.017810246, 0.18253918, -0.12976496, -0.008311792, -0.08118369, -0.0765394, 0.18116452, 0.13650396, -0.0628846, -0.090580925, 0.027491968, -0.025031434, 0.021267246, 0.08860836, -0.1040621, -0.028510846, -0.040219452, -0.093873106, 0.013881754, 0.18165833, 0.13082258, 0.048331477, 0.03864456, 0.013872097, -0.12253343, -0.1195544, 0.02005177, -0.0996871, -0.047505867, 0.00576235, -0.060760006, 0.08543271, -0.03988519, -0.052513212, 0.13068876, 0.0792056, -0.22678804, 0.055329073, 0.13321722, 0.08025878, 0.08779235, 0.13417532, 0.03699719, 0.10054157, -0.08575151, -0.17323904, -0.16991505, 0.24073172, -0.068036936, -0.055078916, -0.007816455, 0.042310137, -0.0056942324, 0.20255767, 0.084991306, 0.16771293, 0.10577256, 0.1304902, 0.0034331284, -0.16162062, 0.034780223, -0.10781012, 0.06885064, 0.024703111}, 
{0.14755334, -0.0057094637, -0.14409181, -0.101277485, 0.0179294, 0.047691233, 0.05015191, -0.09060348, 0.06564679, -0.1367822, 0.044567507, 0.08993092, -0.18938872, -0.09826564, -0.12710609, -0.115451396, 0.055006918, 0.019802831, -0.017546838, -0.11155654, -0.05630986, -0.062482018, 0.13034709, 0.056456126, 0.0032030987, -0.11105479, 0.05819184, 0.0093822265, -0.11543646, -0.02166154, -0.057454854, 0.08559601, 0.020112194, 0.021889046, -0.20450942, -0.16419728, -0.066530146, 0.0063879606, -0.024182748, -0.07095209, -0.09628097, -0.035680182, -0.06366354, -0.12288944, -0.0745621, -0.04312793, -0.15350893, -0.05465635, 0.042552486, -0.086822666, -0.1449405, -0.02027271, -0.08132947, -0.007084274, -0.012111173, -0.057291504, 0.020736594, -0.13044743, 0.13405085, -0.05440143, -0.1432793, -0.023979204, 0.08546111, 0.20699197, -0.021739263, 0.16714846, 0.022968598, 0.06597692, -0.1258168, -0.06767073, 0.073571056, -0.034022592, 0.12916908, 0.012097411, 0.12399425, -0.015218901, 0.08404867, 0.07112895, 0.1024962, -0.017906452, 0.05058943, 0.026530463, -0.013201361, 8.035306e-06, 0.16745894, 0.019784704, 0.12726966, -0.067761794, 0.024516802, -0.36740756, -0.015432366, 0.20477445, -0.084422715, 0.022298118, 0.16779603, 0.09753021, 0.16874337, -0.014128944, -0.11091887, -0.10494703, 0.07174681, 0.056156512, -0.021896468, 0.046752986, -0.027575009, -0.15200895, -0.08127293, -0.35749158, -0.23231968, -0.12882456, -0.15736428, -0.18308313, -0.0511535, -0.06366289, -0.058682032, 0.029482352, 0.05843707, -0.20866674, -0.10038037, 0.0072259014, -0.09707842, -0.02853692, 0.064993724, 0.06370396, -0.06671166, 0.037788633, -0.033190295, -0.021913107}, 
{-0.04373302, -0.07121589, 0.1052821, -0.061263006, -0.1549675, 0.0026228817, 0.13970363, -0.10446787, -0.2240941, 0.054557238, 0.06244578, 0.07560905, 0.08778231, -0.20480214, -0.042723097, 0.02139144, -0.14580894, 0.043525726, -0.050620172, 0.021864638, -0.023884945, 0.029836006, 0.16133788, 0.005719296, 0.11059147, -0.22978003, 0.21078353, 0.30884916, -0.092828564, -0.11803045, -0.12672459, -0.016724674, -0.10403871, -0.09074175, 0.099062055, -0.13906725, -0.13656552, 0.14977463, 0.13324147, 0.16214092, -0.08625222, 0.16284312, 0.08083421, 0.01717832, 0.25376597, -0.11085124, -0.0534358, 0.09030999, -0.14855376, -0.23142307, -0.11259412, -0.25027874, 0.026894959, -0.079891376, 0.043701354, 0.23422787, -0.17670584, -0.095829286, -0.05926073, 0.2070936, 0.04829196, -0.037531964, -0.021960571, 0.061111618, 0.13761106, 0.030949837, -0.103347786, -0.056793433, 0.10171825, 0.13226733, -0.079006195, -0.099461794, -0.055821855, 0.12962876, 0.043094315, -0.08158253, -0.07708151, 0.114186145, -0.0102503365, 0.11763994, 0.13641852, 0.009255631, -0.07466257, -0.079923145, 0.05024623, -0.040988825, 0.061557163, 0.12271727, -0.09092856, -0.0016544309, -0.18869193, -0.025864244, 0.08875817, 0.13252276, 0.03831224, 0.017392555, -0.166591, 0.15774696, -0.020894198, -0.11685747, 0.12985046, 0.27268007, 0.1724144, 0.026508732, -0.19374052, 0.0873775, 0.11145828, -0.01979981, 0.006558753, -0.06906103, 0.12591845, 0.11035416, -0.04005932, -0.11726885, -0.11571598, -0.09027694, -0.18417142, 0.000873778, -0.00296403, 0.16241258, -0.037154816, -0.0032050365, 0.08091569, 0.043826926, 0.10113439, -0.004258454, 0.1349332, -0.03508028}, 
{0.03529011, 0.05955536, 0.000533466, -0.0054524885, -0.06268958, 0.106264986, 0.078589186, -0.13268927, -0.04939039, 0.043309953, 0.099529825, -0.13955596, 0.20676167, -0.036657173, 0.022047859, 0.0136727085, 0.019707369, -0.022806976, -0.122845, -0.09491194, -0.042052142, -0.09731651, -0.014017642, 0.13657346, 0.09738934, -0.009951789, -0.18565638, 0.09541345, 0.12860857, -0.32356235, 0.07801865, -0.08335732, 0.04201989, -0.14277333, -0.062688164, -0.04113793, -0.040262036, 0.26299885, 0.07857178, 0.026563479, -0.091335304, 0.041854236, 0.009073534, 0.013262011, 0.04874047, -0.16110635, -0.033850048, -0.06233058, 0.05855097, -0.05234417, -0.12572621, 0.010617452, 0.027183915, -0.18307759, 0.14550696, 0.06057736, -0.12169803, -0.040743627, 0.09257767, 0.21542226, 0.083871394, -0.15140858, 0.15879962, 0.044173192, 0.015704347, 0.041861672, -0.1343135, -0.043231383, -0.04188057, 0.03937608, 0.117397, 0.029347926, 0.1579134, 0.03630243, 0.06970016, -0.026185567, -0.22507945, 0.020635672, 0.041623015, 0.067565225, 0.111823976, 0.17769927, 0.030650431, -0.08109613, -0.0797982, 0.02144662, -0.04830327, 0.25450465, -0.109760545, 0.090446964, 0.12778209, -0.017312806, -0.14984152, -0.066973075, -0.05897111, 0.17852701, -0.0036397316, -0.04908873, 0.050131094, -0.06408141, -0.12170146, -0.05114992, 0.017522521, 0.023925291, -0.07906254, -0.004067612, -0.10202806, -0.06064924, -0.003907147, 0.08139871, -0.071860544, -0.0021216054, -0.077630766, -0.015835857, 0.0054223468, -0.07047789, -0.0011560092, -0.296923, 0.1238837, 0.0011715797, -0.14526917, 0.066970855, -0.069543645, 0.123025894, -0.024528665, -0.015392946, 0.030628966, -0.06887884}, 
{0.1438955, -0.033631478, 0.14056894, 0.17397216, -0.032897953, -0.08075298, 0.19273417, 0.043336574, -0.17763735, 0.20121615, 0.013692221, -0.04384726, 0.1499144, 0.052932426, 0.065926395, 0.07323482, -0.31486356, 0.13287961, -0.0030291632, 0.04853788, 0.021467827, 0.087223925, 0.12666246, 0.11421359, -0.034222014, -0.20634015, -0.048578, 0.12680884, -0.03728233, 0.03665672, 0.17671467, -0.13709192, 0.060227696, -0.008419818, 0.30647045, 0.15838303, -0.21691886, -0.10915486, -0.048133034, -0.003970613, -0.057756837, 0.038865462, -0.051280998, -0.05184193, 0.22003037, -0.013186867, 0.12981255, 0.19900756, -0.14711273, -0.03976191, -0.0698849, 0.18634897, 0.11938707, 0.06276061, -0.05697673, 0.21682972, 0.30962574, -0.17744647, 0.012951265, 0.1262693, -0.036451545, -0.13936417, 0.24440144, -0.18895079, 0.082289316, 0.08206551, -0.0035487001, 0.06690092, -0.0032782967, -0.040681504, 0.16733412, -0.023793109, -0.012188538, -0.132298, 0.051870808, 0.15800042, -0.06512119, 0.006141905, 0.1723811, -0.042958073, 0.20980732, 0.14986925, -0.019513128, 0.07527346, 0.067741685, 0.16096643, -0.08186073, 0.11643057, 0.048260402, 0.024274498, 0.09462689, 0.033734366, 0.17276761, 0.17795737, -0.00081729016, 0.1089864, 0.015778532, 0.0053139576, 0.075568706, -0.008078086, -0.06345616, -0.015040304, -0.074646495, 0.13465148, -0.061789606, 0.032048505, 0.20738655, -0.05869055, -0.11112419, -0.08887476, 0.055128343, 0.25303185, -0.19716093, -0.033262286, -0.16269568, 0.19206347, -0.015646555, -0.06681715, -0.18229991, 0.14980376, 0.09965898, -0.21622524, -0.05386274, 0.069018126, -0.06764625, -0.078199476, 0.22598144, -0.17315473}, 
{-0.0450204, -0.12133367, -0.16555378, -0.14224014, 0.14772375, 0.03393518, 0.2665866, 0.17029448, -0.18300468, -0.13974793, -0.10048589, -0.030090095, 0.10442918, -0.095595405, 0.17290772, -0.15099357, -0.16499564, 0.0018333466, -0.15383163, 0.013649458, 0.14128901, -0.035269234, -0.096911564, 0.03297712, 0.15030594, -0.012156331, -0.050362878, -0.014325432, 0.026135087, -0.04413757, -0.043330763, 0.07556132, 0.12551819, -0.022048807, 0.05081913, 0.039284144, 0.073478416, 0.06741352, 0.0014919094, 0.16595404, -0.23323175, -0.21797773, 0.00094321603, 0.0015604594, 0.014858008, -0.05691302, 0.024535088, -0.09492309, -0.13727199, -0.10925433, 0.026150396, -0.0067003854, 0.017578665, -0.1786881, -0.06366289, 0.0011249706, -0.08207352, -0.10519341, -0.03426568, 0.15892974, 0.006261659, -0.26678896, -0.09189784, -0.008946431, -0.1648172, -0.061657883, -0.04980216, 0.008233512, -0.033877805, 0.15329292, -0.16088699, -0.382224, 0.15857564, 0.11177489, -0.0165106, -0.115717344, 0.12771338, 0.014882557, -0.122188404, 0.008277674, 0.021005433, -0.051854588, 0.12491496, -0.030951237, 0.03800968, 0.0034825888, -0.06210973, -0.04321469, 0.092366755, -0.010623264, -0.136059, 0.13132112, -0.09937362, 0.090385765, 0.05596094, 0.09137678, 0.15339871, -0.08775534, -0.20362782, -0.101929486, 0.10577436, 0.15627366, -0.016945437, -0.00072082406, -0.13369656, -0.23364489, 0.045103315, -0.02588533, 0.13560458, 0.13566594, -0.03299793, -0.12184601, 0.035740286, -0.22308746, -0.10882287, -0.11202075, 0.06300869, -0.12637438, 0.07540499, -0.27890393, -0.021027636, 0.025768727, -0.047159757, 0.22362916, -0.12701674, -0.19375552, -0.10462433, -0.18233432}, 
{0.05185675, 0.001844734, 0.101997405, -0.13572387, 0.090707086, -0.0013960163, -0.012086605, 0.07879082, -0.052749764, -0.17022228, -0.09440992, -0.069963895, 0.073559344, -0.07918184, -0.12033023, 0.046508748, 0.116566256, -0.10785374, -0.05082005, -0.11009642, 0.16822934, 0.0085119335, 0.033005945, -0.15825093, 0.0032151504, -0.044858187, 0.11628957, -0.0020833337, -0.025532903, -0.17679028, 0.05753006, 0.0020689229, -0.15004052, 0.09308695, 0.036105134, 0.18642806, -0.04574533, -0.009029912, -0.01923606, -0.021980014, -0.28433672, 0.03849974, -0.06931111, -0.16246682, 0.18960956, -0.036117487, -0.018478686, -0.014582028, 0.09956884, -0.22726744, -0.22365351, 0.15247244, -0.003079994, -0.17637204, 0.13232732, -0.061666716, -0.17215447, 0.053761523, 0.22663724, 0.10087872, 0.009679051, -0.13823608, 0.13735761, -0.04667648, 0.12405055, -0.13096963, -0.08587906, -0.056969266, 0.10014102, -0.1516162, -0.0818581, -0.03178496, 0.041959375, 0.10823155, -0.104632385, -0.13438565, -0.018924559, 0.04855855, -0.10329173, -0.13271722, 0.05843593, -0.049532305, 0.056416236, -0.09949894, -0.05848229, -0.03328228, -0.15418103, 0.05044333, -0.053680524, -0.07371341, 0.08723891, 0.047135703, 0.09572037, 0.14096017, 0.14226861, -0.1295568, -0.019536488, 0.05794691, -0.015510327, 0.2372065, -0.035296667, 0.046925228, 0.08212946, -0.022417024, -0.0483049, -0.07032313, 0.06273503, -0.07769956, 0.07852164, 0.036867127, 0.056685798, 0.07985769, -0.064426206, -0.0002440137, 0.0006060083, -0.05677415, 0.11714374, 0.049867965, 0.1061401, 0.09419892, -0.20887627, 0.004570009, 0.06349956, 0.070656046, -0.05803934, 0.013347821, 0.07195946, -0.117435694}, 
{0.06942838, 0.19793943, -0.07724339, 0.13576525, -0.16732694, -0.03695996, 0.13341823, -0.17685507, 0.17147535, -0.093716785, -0.14761405, 0.19628356, -0.15561149, 0.06381531, -0.02612702, -0.027562222, -0.04935146, 0.16815366, 0.09503625, -0.11027823, 0.12482674, 0.1266789, -0.119533576, -0.109988526, 0.036159895, 0.09194418, -0.07339715, -0.12918216, -0.080605544, 0.18150893, -0.07848745, -0.072573416, 0.010769692, 0.19970089, -0.088485286, 0.09412865, -0.033449896, -0.14776532, 0.007488796, -0.031260785, 0.127174, 0.0036478643, 0.029297208, 0.09944956, -0.09509311, 0.34201044, -0.10275232, -0.06146959, 0.04931755, 0.18113212, 0.048459966, 0.060573436, -0.05886141, 0.24604048, -0.23383898, -0.100450546, 0.25945827, 0.082726546, -0.122640744, -0.16716959, -0.065227374, 0.1838711, -0.019592226, -0.045685437, 0.014459984, 0.12792481, 0.04737488, 0.26516023, 0.072348684, -0.005297752, 0.10276256, 0.017829435, -0.023932735, -0.0029148248, -0.037973654, -0.07532951, -0.048708837, 0.088201165, 0.07185155, -0.0767235, 0.13359284, 0.17715086, -0.061480314, -0.017050823, 0.12906878, 0.09749338, 0.07516909, 0.17399327, -0.025000758, 0.061901953, -0.026139827, -0.01167888, 0.09817302, -0.21784978, -0.09968234, -0.036917076, 0.045667693, 0.028955836, -0.046000402, 0.24453525, -0.15670192, -0.12731421, 0.032774378, -0.2482721, 0.26754585, 0.081052825, 0.07783453, -0.0016111591, 0.01031735, -0.06775657, -0.14479278, 0.11070539, 0.0049193343, 0.010594458, 0.16157548, 0.096076354, -0.1222822, 0.24505311, -0.06945208, -0.18566984, -0.00096579624, 0.029395673, 0.045615032, -0.18518937, -0.06965339, 0.0916201, -0.031307925, -0.21365315}, 
{0.12799053, 0.07497707, 0.0053858072, 0.1147149, -0.12737294, 0.124437645, 0.088672, 0.050092116, -0.1256815, 0.074761845, 0.094653435, -0.13386804, 0.09706966, 0.09036076, 0.008316931, -0.055747967, 0.0729774, -0.026873723, -0.020982258, -0.07551535, -0.007996291, 0.06656851, 0.11374885, 0.050980844, -0.071358606, -0.11148024, -0.114351876, 0.043931227, -0.14844301, -0.22930248, 0.0048130862, -0.089653134, 0.056298226, -0.15639275, 0.016714048, 0.07502676, -0.11995554, 0.02758057, 0.033135798, 0.21825103, -0.062344875, 0.08879972, 0.1380792, -0.10328789, 0.16288134, 0.050068688, 0.12811013, 0.003597332, -0.08942507, -0.081679575, 0.027592659, 0.06495391, 0.014551686, -0.06384678, -0.05447202, -0.027819231, 0.06677377, 0.0048490847, -0.08936224, 0.20374988, -0.108965226, -0.027573684, 0.065822095, 0.14938907, -0.020156644, -0.0021668775, -0.05707557, -0.28158394, -0.008023183, 0.031452075, 0.17959034, -0.18590733, 0.0105464365, -0.07138895, 0.12334902, -0.08361376, 0.040701006, 0.114012435, -0.055743087, -0.0045975535, -0.070951626, -0.13659194, 0.033799887, -0.10900117, 0.059286997, 0.15664016, -0.026307676, -0.013295824, 0.13084559, 0.11244797, -0.13522188, 0.050511725, 0.04178581, 0.14984307, -0.1940066, 0.05871739, 0.021170486, -0.14881685, 0.13719705, -0.20504744, 0.1116598, 0.09580887, 0.08947149, 0.25641853, -0.2838407, 0.09296895, 0.22839963, -0.056885257, 0.052486792, 0.117949836, 0.030179719, 0.033297665, 0.08774435, 0.15096617, -0.013771985, -0.1814893, 0.223371, -0.105196275, 0.082638286, 0.10542182, 0.015103306, -0.01939682, 0.1564269, 0.3131733, 0.040577404, -0.062818125, 0.047137234, 0.1004506}, 
{-0.01661142, -0.0001041678, 0.20452608, 0.17465921, 0.07905563, -0.12017241, -0.013831586, -0.041491047, 0.09778485, 0.010256904, 0.2337917, 0.15858057, -0.028392563, 0.22841969, 0.2085696, 0.13543104, 0.047616817, -0.0020185323, -0.019426825, 0.009022943, -0.14784433, 0.1308843, 0.07023829, 0.06738302, 0.16315268, -0.08832322, -0.08825626, -0.04379179, 0.08664165, 0.16892435, 0.01879871, -0.10155743, -0.1517138, 0.12443766, -0.037529774, 0.093119495, -0.09850716, -0.065068565, -0.065536365, 0.12460775, 0.05016949, 0.06684563, 0.025172068, -0.13311066, 0.1307448, 0.031134343, 0.12936004, 0.011797715, 0.1447792, -0.12515758, 0.009531083, -0.066946186, 0.028089246, 0.13795008, -0.11787536, -0.065080315, -0.0067431964, -0.02387522, -0.015354628, 0.010749658, 0.010165789, 0.19522561, 0.28429604, -0.08678163, -0.20649868, -0.11084368, -0.025346262, 0.027877983, 0.19770662, -0.053876124, -0.16390172, -0.13716961, -0.008127317, 0.029337982, -0.04663957, -0.058041923, 0.059757642, 0.06814382, -0.12629882, 0.11797314, 0.01402819, -0.07115462, 0.10856336, -0.12101093, 0.012178002, -0.064136826, -0.07336051, 0.13041253, -0.078942664, 0.060508084, 0.19579673, -0.06996347, -0.09675864, -0.054590266, -0.042413726, -0.13994133, -0.16256945, -0.13454302, 0.05629124, 0.10513468, 0.09820334, -0.254704, 0.0900002, -0.13262105, 0.1564405, 0.21188489, 0.18621543, -0.0025230981, -0.21210921, -0.008730706, 0.15303901, 0.16717665, 0.06150756, -0.07185046, 0.0062886053, 0.04436285, 0.04189068, 0.08163218, -0.14623934, -0.067822106, 0.053109087, -0.05613164, -0.22451352, 0.07990091, 0.07427618, 0.029688306, 0.016262792, -0.12996334}, 
{-0.10042302, -0.060548667, 0.09819966, 0.0770639, 0.11548739, 0.11723811, -0.13770677, 0.057433166, -0.16434063, 0.062688805, 0.1506446, -0.013143994, -0.01872901, -0.028343398, -0.029385371, 0.1641696, -0.0077690403, -0.030009156, -0.13248803, -0.012102466, -0.10730461, 0.0076574762, 0.074890226, -0.080047876, 0.065745465, 0.028982902, 0.20148937, 0.0321629, 0.116233185, 0.021112243, 0.2539147, 0.22706094, -0.1558586, -0.23474886, 0.22032946, -0.019545367, -0.07617869, 0.24571764, 0.03417727, 0.03561811, -0.038218662, -0.03835319, 0.026181476, -0.06565488, 0.41073605, -0.05979057, 0.14453715, 0.13428807, -0.04151223, -0.12205803, -0.14856014, -0.16609223, 0.01946779, 0.0052184355, 0.017166102, -0.08610212, -0.2033513, -0.041507356, -0.021509713, 0.1072997, 0.08025147, -0.00012657083, 0.11171889, -0.0069620404, 0.1422901, -0.09732367, -0.13822521, -0.10351358, 0.06357678, 0.26413637, -0.0015695102, 0.10316369, 0.21852285, -0.073607005, -0.10653651, -0.06723592, 0.019576317, 0.1052176, -0.11406108, -0.090920016, 0.1420012, -0.15608616, 0.24724208, 0.04206, -0.099019416, 0.18496235, -0.15812801, 0.018939974, 0.07437238, 0.029225923, -0.17211044, 0.11790591, 0.17475733, 0.02605876, -0.068128556, -0.0068705925, 0.17350656, -0.09642674, 0.034701124, -0.13758485, -0.19766156, 0.17101702, -0.016585717, 0.016492082, -0.15385556, -0.01762494, -0.021143837, -0.081967354, 0.016713466, 0.058701143, 0.09514425, 0.10883978, 0.06469335, 0.037675083, -0.064270146, -0.012426806, -0.13447608, 0.031738237, 0.07197961, -0.03761741, -0.21593717, -0.09795922, 0.019651614, 0.18554334, 0.040404633, -0.07401524, 0.2471233, 0.17781489}, 
{0.016460082, 0.16301556, -0.0102343215, 0.07424114, 0.056156028, 0.04605166, -0.13216496, -0.118854105, 0.07091892, -0.14722402, 0.039966602, 0.15703455, -0.16980577, 0.0066086603, -0.056710105, -0.23764117, 0.22299801, 0.2727303, 0.037637662, 0.020465551, 0.0007937644, 0.068027295, 0.1688736, -0.05236519, -0.0209745, 0.43668506, -0.070833035, -0.1459869, 0.086866684, 0.07723712, -0.033177897, 0.022799298, -0.07457474, 0.09813359, -0.116669886, 0.058487695, 0.13552067, -0.037036538, 0.007162732, -0.20272861, 0.06267629, -0.21451776, -0.10768238, 0.03545848, -0.18731336, -0.053960063, -0.20259477, -0.14092079, 0.17637795, 0.017100578, 0.098999314, -0.021649456, -0.13230981, -0.18855456, -0.15617085, -0.13374966, -0.15140964, 0.17515828, 0.0005285962, -0.19222039, 0.081379056, 0.12313808, -0.17032297, -0.04612117, -0.035893656, -0.12886097, 0.0589056, 0.11602209, -0.16254957, -0.134928, -0.08716572, 0.103875406, 0.07333069, 0.10061781, -0.08381693, 0.08148049, -0.03673378, 0.0731874, 0.19006439, 0.23495357, 0.03572564, -0.058598902, -0.08301716, -0.045592837, -0.07033951, -0.05368877, 0.035393234, -0.25367013, -0.16664675, 0.009990775, 0.038563255, -0.13047485, 0.03762937, -0.062663935, 0.22825268, -0.021861013, 0.104897894, 0.09538802, -0.10600875, 0.042321883, -0.006634455, -0.020972796, -0.21376511, -0.046034157, -0.06214097, -0.04769302, 0.04014207, 0.13201869, -0.1290033, 0.08227319, -0.1640009, 0.00062090793, 0.20913912, 0.038796965, 0.10848093, -0.12037921, 0.11453507, 0.01889271, -0.023451058, -0.17571685, -0.07552781, 0.21795647, 0.038330127, -0.30435297, 0.15298602, -0.04704819, 0.012716166, -0.031899173}, 
{0.042807557, -0.005243644, 0.014461241, -0.22514588, -0.045552183, 0.09797009, -0.0823113, 0.2584617, -0.07711643, 0.06377902, -0.028897958, -0.06937714, 0.06045683, 0.016897727, -0.19441907, 0.024421724, -0.086008675, 0.060021088, -0.10915661, 0.06116998, -0.09798302, -0.015667923, -0.06295957, -0.060340412, 0.10993576, -0.007090488, 0.23660752, 0.18672432, 0.015315505, -0.12231464, -0.09396109, 0.22659704, 0.050847277, -0.019215314, -0.15933302, 0.021122, -0.03735302, 0.06509466, -0.044271838, 0.17214845, -0.05742084, -0.053359292, -0.05504635, -0.08566419, 0.19000642, -0.13049316, 0.079958804, 0.026969872, 0.02934539, -0.046653025, 0.10735505, -0.06290504, -0.059416734, 0.20379983, -0.07397289, 0.05074633, -0.19526796, 0.089516, 0.14904957, -0.07376026, -0.038177107, -0.15742415, -0.046238773, -0.07878686, 0.028662851, -0.08853365, -0.24323323, -0.04137355, -0.17412029, 0.050805543, 0.15600617, -0.037867356, 0.035343263, -0.018771973, -0.013452205, 0.013662249, -0.12787728, -0.010744215, -0.047272865, 0.00053401524, -0.10519315, 0.11868103, 0.094450064, 0.028556222, 0.1143678, 0.0705592, 0.14137025, 0.043814447, 0.08550778, -0.06522276, 0.11434932, 0.03399978, -0.13620204, 0.110230416, 0.036157336, 0.05451101, 0.16609235, 0.04490069, -0.020122312, -0.1987877, -0.07516588, 0.120497234, 0.029123105, 0.0911105, -0.16863917, -0.078108445, -0.020175425, 0.06556053, 0.055865444, -0.084133916, -0.065152206, 0.16347723, 0.035200324, -0.00093366473, -0.014290449, -0.043798294, 0.07557115, -0.21847092, 0.1355439, 0.019451572, 0.037564352, 0.026612252, 0.17855656, 0.09671594, 0.04226993, 0.04369104, -0.076488, 0.17702267}
};
#define layer_0_bias_size 128 
const data_t layer_0_bias_weights[layer_0_bias_size] = {0.034171548, 0.03131127, 0.042072047, 0.03074138, 0.011771703, -0.0034244403, 0.10254582, 0.019748736, 0.073447295, 0.0794652, 0.07579833, 0.045920677, 0.05628712, 0.04704383, 0.10203033, 0.050533973, -0.015930345, 0.023746114, 0.06693148, 0.05467203, -0.02483851, -0.004481972, 0.019431932, -0.05010786, 0.03185802, 0.0154185835, 0.02133383, 0.04328859, 0.035794176, 0.056709465, 0.059153575, 0.019352242, 1.0799156, 1.055683, 1.0501691, 1.0321639, 1.0287702, 1.0279522, 1.0977416, 1.0962738, 1.0884877, 1.100332, 1.0521122, 1.0504922, 1.1115469, 1.0531178, 1.1085488, 1.0627162, 0.99549156, 1.0550961, 1.0803355, 1.068355, 0.9802281, 1.0321165, 1.0085267, 0.98476166, 1.2280142, 1.0340837, 1.0298539, 1.1242764, 1.0423276, 1.0728898, 1.0697632, 1.029341, -0.03316449, 0.017195774, 0.0101273265, 0.04195417, -0.022944396, -0.01416458, 0.05736289, -0.028831055, -0.023393702, -0.004812911, 0.05704253, 0.058427107, -0.016645126, -0.019764395, -0.04791049, -0.020892518, -0.03701372, 0.04338213, -0.008932256, 0.007031727, 0.017461747, -0.016941445, 0.032256372, -0.0069161984, -0.017545402, 0.0033668273, -0.0073602116, 0.03644794, -0.038794845, -0.046715353, -0.029292723, 0.067164615, 0.025365023, 0.01055937, 0.052636635, -0.006503969, 0.014157515, -0.006256313, 0.10186136, 0.090458006, 0.088659935, 0.07375381, 0.078139514, 0.057421267, 0.06543311, 0.04008039, 0.11390769, 0.05810352, 0.027329868, 0.039917506, 0.07883189, 0.052548006, -0.012848763, -0.005845996, 0.026830748, 6.886973e-05, 0.10451029, 0.013631701, 0.04445319, 0.09546511, 0.039641254, 0.07801699, 0.066957004, 0.020132082};
