const integer layer_0_input_size = 6 
const integer layer_0_kernel_size = 256 
const data_t layer_0_kernel_weights[layer_0_input_size][layer_0_kernel_size] = {{-0.079536535, -0.040885597, -0.037901193, 0.026827345, -0.11309148, 0.0043545444, 0.03709513, 0.039312426, -0.03666089, -0.049073014, 0.0074913395, -0.016573917, -0.08792324, 0.008178118, -0.08099181, 0.023205467, -0.032420345, 0.03472185, 0.036537547, -0.010357448, 0.032988045, -0.045206595, 0.033205632, -0.032660127, -0.020388585, 0.03548172, 0.015787307, -0.09315763, -0.0008893059, -0.00096459256, -0.13334022, 0.10185926, -0.075479046, -0.023240017, 0.14719218, 0.013080509, 0.077886015, -0.009078413, 0.064739764, -0.0120208245, -0.010599414, 0.07953322, 0.0948867, -0.10529884, 0.00025000266, -0.04871859, -0.091708526, -0.19245681, -0.27661613, -0.13702291, 0.12675956, -0.1632074, 0.03955218, 0.06847897, 0.032548063, -0.12821083, 0.05261608, -0.13609707, 0.0780377, -0.013968155, -0.11789809, -0.07858937, -0.049076162, 0.019142685, -0.040481973, -0.091094114, -0.052918293, -0.09488515, -0.20006004, 0.20961472, 0.23101723, -0.01443546, -0.0021680803, -0.07073857, 0.08792869, -0.06831798, -0.064773075, 0.1370932, 0.056385685, 0.0038351608, 0.03729261, 0.037456, -0.012628361, -0.0922762, 0.043865014, 0.020059405, 0.12904042, -0.17433289, -0.10077545, -0.09863419, -0.079255246, -0.011205422, -0.117975906, 0.09638497, -0.113804676, 0.008948635, -0.1159278, -0.016624918, 0.025216555, -0.044493936, -0.13328098, -0.0080852425, -0.07470582, -0.11920083, -0.086538576, -0.041846078, 0.0012982446, -0.14964783, 0.1495556, -0.07295176, 0.016519967, -0.166673, -0.15859117, 0.087040745, -0.038176008, -0.10832336, -0.07054735, 0.07288937, 0.13537891, 0.06924374, -0.08971416, 0.12165543, -0.011696672, 0.068118475, 0.07188074, -0.16908504, 0.096442625, -0.093919225, -0.15826535, 0.1056606, -0.12909707, 0.046375085, 0.06458794, 0.09101138, 0.16997808, -0.07948915, -0.064096555, -0.05914455, -0.16483968, -0.24652229, 0.17612898, 0.16264707, -0.08933827, 0.050949853, -0.001535747, 0.036462277, -0.08862291, -0.058949478, 0.015349205, 0.2235148, -0.020962365, 0.04322164, -0.054665256, -0.093392745, 0.02687827, -0.09936377, 0.048703406, 0.09950405, 0.184097, 0.13007817, -0.04470614, 0.13309218, -0.117717266, 0.16004957, -0.1024562, 0.0019973274, -0.044090077, 0.21447282, 0.03223172, -0.078217, 0.08962804, -0.03129404, -0.10598883, -0.038573656, 0.09270428, -0.032984342, 0.12285144, -0.13619523, -0.1876343, 0.14630523, 0.019712782, 0.11549104, 0.069288924, 0.05165895, 0.12231649, 0.10306508, 0.08120728, 0.07696402, -0.010785275, -0.19903761, -0.06257778, -0.11008895, -0.17049296, 0.032021876, -0.0028790538, -0.12854816, -0.02061497, 0.15816998, 0.10541042, 0.079119146, 0.19338699, 0.06467371, -0.001963552, 0.085962124, 0.09745234, 0.16990581, 0.10804092, 0.20454717, -0.01569921, -0.01016117, 0.12471284, -0.05853331, -0.027091287, 0.059268184, 0.05095435, 0.10726352, 0.017194586, 0.09020166, -0.11065546, 0.060957685, 0.04409467, -0.023407709, -0.013076255, -0.011006401, 0.06776202, 0.13023393, 0.084375955, -0.07335638, -0.15194374, -0.11386096, -0.16802531, -0.15211588, 0.018901428, 0.09057526, 0.11023846, 0.08703529, -0.047593568, 0.13560541, -0.09078769, -0.10013543, -0.19546603, -0.10168034, 0.012670793, -0.09244501, 0.026139544, -0.013932212, 0.047393512, -0.13801736, 0.060582735, 0.020113146, 0.097626075, 0.06955341, 0.0039118924, -0.0867088, -0.0031850329, -0.012156054}, 
{-0.047842275, -0.21426961, 0.14074717, 0.06306038, 0.031013783, 0.16921878, -0.024216197, -0.12295365, 0.06196625, 0.067586064, 0.10251105, -0.10735502, 0.18634476, -0.1250214, -0.0056928787, 0.03871551, 0.07110026, -0.10658586, -0.09657454, -0.11293859, -0.024503078, 0.11060511, -0.11691322, 0.18320628, -0.172708, -0.06402591, -0.04306862, -0.062004343, 0.17600864, 0.030174507, 0.035429142, -0.12711419, 0.060834594, 0.04081413, -0.061346933, 0.12361427, 0.07215173, 0.06101752, -0.059082408, -0.13266876, 0.109742925, -0.14133447, 0.13480322, -0.057001866, 0.11453501, -0.01822726, -0.023962919, 0.14898604, -0.11629416, 0.032318342, -0.016258465, 0.09283381, -0.015194406, -0.070736274, 0.057511557, 0.03730566, -0.106414415, 0.070648625, -0.090911865, 0.13624352, -0.2071557, -0.18489921, 0.10597476, 0.09875626, -0.020431044, -0.010840366, -0.014361012, 0.015889643, -0.016579017, 0.08578772, -0.106317155, -0.16437022, 0.058744006, -0.07449808, 0.14922771, -0.043543622, 0.12044592, 0.075558804, -0.05187502, 0.057018477, 0.115503296, -0.058491543, 0.10570935, 0.11379521, -0.028182857, -0.07154069, -0.0676191, 0.15452199, -0.12759283, -0.14582571, -0.13579342, 0.05655838, 0.035893068, 0.028827105, -0.03655296, 0.091990665, -0.08004534, -0.12647669, -0.10435297, -0.11876524, 0.042006593, -0.088235945, 0.094710305, 0.042326555, 0.14923316, 0.110782064, -0.024267655, -0.024356324, 0.18507744, 0.011726423, -0.052281503, -0.16455178, 0.06832379, 0.06327437, 0.012769293, -0.06261417, -0.028158573, -0.11254975, 0.064778455, -0.12608401, 0.045851864, 0.08833505, -0.084434584, 0.04998232, -0.02789962, -0.13461939, 0.1635476, -0.08536406, 0.078189835, -0.15726018, 0.17844136, 0.10676064, -0.06133291, 0.035094883, -0.1566817, 0.06367115, -0.08185762, 0.14691652, 0.19089735, 0.24916619, -0.03069973, 0.00074409216, 0.06504835, -0.07324128, -0.013993963, -0.019521853, -0.04812668, 0.06395134, 0.04066891, -0.021677403, 0.14316386, 0.16375723, -0.09380648, 0.032260273, 0.09192797, -0.012638654, 0.0012419202, 0.054614916, 0.0042330525, -0.018128201, 0.16394882, -0.05444223, -0.19397685, -0.13410872, -0.09075909, 0.08117257, 0.017304547, -0.17545043, 0.1660735, -0.19854872, -0.045035828, -0.15874632, -0.20158145, -0.004606653, 0.06932969, -0.053842608, 0.10941669, 0.16282447, 0.024941245, -0.004932683, -0.07879783, 0.038661215, -0.13924101, -0.066749565, -0.038169637, 0.11676049, -0.17277907, -0.052500885, 0.039677862, -0.15142232, -0.0042227483, -0.08145617, 0.024451304, -0.040418386, 0.04099684, -0.024483338, 0.13646182, 0.21765971, -0.20607506, -0.18833415, 0.009213047, -0.069709726, 0.049021143, -0.05437804, 0.0031550194, -0.063685514, 0.11335498, 0.019902067, 0.09197188, -0.008929375, -0.081625715, 0.09985766, -0.0059809536, -0.070172, -0.061192006, 0.06967052, -0.1635641, -0.063280806, -0.1891983, 0.06477652, 0.21009016, 0.14531936, 0.08250166, 0.1111924, 0.030280001, -0.05619558, -0.04082598, 0.002284781, 0.05055735, -0.05602465, 0.18851237, -0.014654162, 0.1638155, 0.08251778, 0.122829095, -0.05518331, 0.042561628, -0.1328847, -0.04483003, -0.06384499, 0.042853504, -0.08122828, 0.05599116, -0.08377218, 0.056949552, -0.11430487, 0.053952318, -0.11880661, 0.112971775, 0.030954435, -0.018840248, 0.21363933, -0.24669075, -0.061001867, 0.0327937, 0.08039997}, 
{0.17517927, 0.048774555, -0.09059133, 0.15385222, 0.0465482, -0.074901365, -0.120091476, -0.0077730115, -0.046967413, 0.10169429, 0.15141633, 0.10765139, 0.096542366, -0.058972735, -0.0063122083, -0.16111253, 0.13736892, 0.13785987, -0.07948145, -0.020774804, -0.09649838, -0.050642513, 0.124661066, 0.08029185, -0.045762368, 0.108014606, 0.11495665, 0.18355067, 0.08031528, 0.19271892, -0.05192863, 0.08670923, 0.044142935, -0.040904384, 0.0013861371, 0.0041616885, 0.11818044, 0.13086824, 0.04006822, 0.019411426, 0.049676403, -0.0165538, -0.07741376, -0.10771074, 0.13180158, -0.022277031, 0.06061423, 0.08384391, -0.04241003, -0.063166395, 0.07884952, 0.11728356, -0.0138745885, 0.00038428983, 0.014643095, -0.05980196, -0.095720604, 0.0036286558, 0.16476984, 0.08869295, 0.06060918, 0.14675343, -0.092508435, 0.031101177, 0.115979455, 0.039417744, 0.033015124, 0.07646079, 0.042285837, 0.029935544, -0.101890676, 0.007155447, 0.033894837, -0.13162059, 0.074806735, 0.06801595, -0.092060484, -0.037374556, 0.0021503, 0.03347721, -0.09337441, 0.06152061, -0.07215209, 0.105503425, -0.007490311, 0.035058588, 0.15912125, 0.0154038, -0.12528019, 0.027797563, 0.08114638, 0.16216004, -0.019789008, -0.06923597, 0.089939885, 0.1666329, -0.09991702, 0.15169957, 0.0058985036, 0.16488618, 0.14520043, 0.11210846, -0.08665212, 0.18321568, 0.112847716, -0.083394624, 0.036989767, 0.14957649, 0.039078485, 0.06369778, 0.14231968, -0.07969947, 0.051108833, 0.07728947, 0.13310347, 0.0014450134, -0.031835597, -0.08231539, 0.03921519, 0.121558316, -0.09928386, -0.114587344, 0.021357734, 0.012457257, 0.08927151, 0.10586519, 0.0075071203, -0.071572304, -0.069507785, 0.0016395123, -0.16102806, 0.013319037, -0.014049077, -0.050544742, 0.16499703, -0.059334382, 0.18480842, -0.10483955, -0.11994238, -0.08550894, -0.062592275, -0.09936937, 0.099118225, -0.09315882, -0.0762237, 0.12835348, -0.020200098, 0.076862805, 0.09826327, 0.1119513, 0.04051831, -0.017249819, -0.14627546, -0.06797083, -0.17725854, 0.10640546, 0.072625, 0.102030404, 0.06692524, 0.15619309, -0.090829395, -0.088760614, 0.09609291, -0.14441584, 0.039350037, 0.033157114, 0.1168432, 0.1400258, -0.1080117, -0.118878126, 0.019042952, -0.157059, -0.09825185, -0.15764749, -0.10615166, -0.12482364, 0.01690896, -0.029614286, 0.03080303, -0.10805105, -0.16957627, -0.14766823, 0.06347412, 0.16598555, -0.037989806, 0.042561803, 0.016794596, -0.07109053, -0.032254472, -0.15421356, 0.037258442, -0.10629743, 0.10861031, 0.07344179, 0.16050255, 0.058027502, 0.12966922, -0.08460854, -0.026991233, 0.16248451, 0.028654478, -0.025492096, 0.103418365, -0.0034513983, 0.055419285, 0.1653611, -0.070522405, -0.028423931, 0.15430996, -0.05773915, -0.11757224, 0.041692846, 0.07680305, 0.12008674, -0.051661458, 0.012405591, 0.09262895, -0.068605244, -0.03768823, 0.13260058, -0.0730361, -0.0080957655, 0.049283806, -0.026992971, -0.012467803, 0.01900342, 0.02242393, -0.023270536, 0.15017773, 0.030890958, 0.025287775, 0.059101682, -0.030628622, 0.12343017, -0.11886303, -0.008281763, -0.015393148, 0.0132269785, -0.09180298, 0.10466243, -0.0069681224, -0.02463017, 0.043257702, -0.08194225, -0.04845015, 0.015760975, 0.014958712, 0.074147105, -0.063485816, -0.106439136, -0.05971759, -0.0076967278, -0.03484641, -0.06116283, 0.005505514, -0.10809845}, 
{-0.114037015, 0.0152707435, 0.1994945, -0.18958426, 0.05804353, -0.091169894, 0.13379242, -0.21096984, 0.14072946, -0.07759872, 0.17990199, -0.075669646, -0.1508918, 0.10710725, 0.12059773, 0.023631608, -0.06918765, 0.01575579, 0.046878338, 0.15150356, 0.054940756, 0.052584507, -0.086148165, 0.049297746, 0.09642221, 0.0055554686, -0.18560122, 0.1643013, -0.06390863, 0.011728524, 0.13060711, 0.0015903085, -0.052520115, -0.0051083458, 0.097993165, 0.108881555, -0.123507515, -0.08264486, -0.12636004, 0.2032953, 0.02861165, 0.1515185, -0.042176902, -0.11352442, 0.106611736, 0.11773371, -0.034741487, -0.12236422, -0.15246391, 0.014067957, -0.026100215, 0.15976408, 0.048849717, -0.010106506, 0.042946644, 0.1058334, 0.12636718, -0.14587143, -0.08169349, 0.092908025, -0.083248444, -0.07460414, -0.1748843, -0.11003398, 0.06503959, 0.20658354, 0.12880728, -0.050237212, 0.08936485, 0.058918152, 0.0022395179, -0.05187349, -0.06644966, 0.18175621, -0.12782434, -0.06553982, -0.07166912, -0.021228846, 0.08443135, 0.11983819, 0.00011578722, 0.105786726, 0.06429595, 0.12766299, -0.011386109, -0.110725746, -0.021135455, 0.014070562, 0.14996989, 0.021229267, -0.063202426, -0.064670816, 0.11234227, -0.17627135, -0.0044531897, -0.01871271, 0.077671506, 0.11752396, 0.089206286, 0.1610725, -0.018613905, -0.0803883, 0.07757152, 0.11162148, -0.092372574, 0.12244082, -0.16754928, 0.011850341, 0.1472787, 0.021434778, 0.10581457, 0.09143258, -0.12387465, 0.18250738, 0.022881502, 0.13622043, 0.15844685, -0.039277308, -0.027686931, -0.13294348, 0.13750777, -0.008823035, -0.041839954, -0.028419556, -0.10601369, -0.024025543, -0.021846632, -0.1460532, -0.05313068, 0.13727781, 0.06705535, 0.105189055, 0.037872493, 0.020728983, -0.0014184515, 0.1903079, -0.13892601, -0.17419401, 0.08866963, -0.029696524, 0.1680604, 0.15769182, -0.049980976, 0.15354946, 0.16591601, -0.063987605, 0.16706182, 0.04570486, -0.040342513, 0.05571066, -0.09950267, 0.11104418, 0.07825897, -0.17589545, -0.104685254, -0.18915844, -0.17865418, 0.20571831, -0.03657236, 0.0329428, 0.025610164, 0.038606197, -0.14437199, -0.047413543, -0.038690496, -0.16085218, 0.08520056, -0.03235706, 0.0686973, 0.11808597, -0.02841898, -0.08849525, 0.13406706, -0.026315143, -0.12273052, 0.14050527, -0.047854573, 0.15901357, -0.18247303, -0.05487634, 0.06124823, -0.06187663, 0.05865736, 0.14235373, 0.002383751, -0.13793157, 0.15281259, -0.11388149, -0.09909199, -0.12187169, -0.17292121, 0.15524822, -0.09716171, 0.09673886, 0.09436579, -0.13482152, 0.02112652, -0.04463775, -0.007248503, -0.024279814, 0.0005135708, -0.086519524, -0.01718196, 0.099190205, 0.07878111, 0.13883325, 0.106701545, 0.0605129, -0.16927977, -0.07398946, 0.15615295, 0.0802691, 0.017200781, -0.09814873, 0.044146936, 0.1662074, 0.18995166, -0.07809878, -0.06090367, 0.15899819, 0.16107984, -0.114411615, 0.0989342, -0.049892917, -0.058154855, 0.13344683, -0.11133461, 0.023371987, 0.044926733, -0.1303363, -0.097953804, 0.06237606, 0.17337994, -0.043737195, -0.008444704, -0.049540095, -0.07393542, 0.105077334, 0.19399478, -0.019747006, -0.21102946, -0.043315392, 0.05466325, 0.18182431, 0.16969548, -0.13536105, 0.025589377, -0.039548185, 0.22037207, -0.031417247, 0.0049784416, -0.067466974, 0.044852145, -0.032067508, -0.16035952, 0.024437826}, 
{0.0019650587, 0.009894786, -0.04651793, 0.015544943, 0.04161426, -0.0054873573, 0.017962068, -0.058899447, 0.032277737, -0.13017538, 0.09229745, 0.055306837, 0.03406888, -0.067931145, -0.09575664, -0.070195004, -0.07622775, 0.12954466, 0.069283344, 0.18267527, 0.06570191, 0.044870563, 0.061361253, 0.10762209, 0.118494816, 0.09758128, 0.12013587, 0.14446606, -0.1555054, -0.06040361, 0.17571355, 0.04590264, -0.041274678, -0.17156404, -0.06551703, -0.061340548, -0.21934605, -0.017152483, 0.1270356, 0.07281919, 0.14425176, 0.14111543, 0.019626472, -0.10977422, -0.22044209, -0.018681485, -0.017596792, 0.018387148, 0.25528285, -0.21044578, 0.2128003, 0.17773728, -0.055373635, -0.06928775, -0.095809355, 0.20404547, -0.124808304, -0.14750575, -0.14160518, 0.06841611, 0.22199711, -0.005422853, 0.07266406, -0.040821202, -0.17647527, 0.06386375, -0.12667198, 0.12036996, 0.11697878, 0.14179794, 0.046292786, -0.062448047, -0.056644805, -0.113408856, -0.087600686, 0.16683283, 0.23934141, 0.12011095, -0.04122602, 0.043264803, 0.0066733635, 0.14113706, -0.11501844, 0.073734954, -0.044063922, 0.019759841, 0.3040965, 0.08708217, -0.12210623, 0.13797443, -0.04205135, 0.107076235, 0.04295272, -0.047998656, 0.019070491, -0.04398732, -0.09844353, -0.107807614, 0.039124124, 0.022202147, -0.10317036, -0.10623397, 0.17107028, 0.072116554, 0.24323517, -0.017842542, -0.0085371835, 0.11411469, -0.18317954, 0.12524232, 0.08766579, 0.08993314, 0.21667202, -0.11259632, 0.14819452, -0.09976289, -0.1888391, 0.08581762, 0.09009504, 0.024504453, -0.074897185, -0.050945073, -0.030653792, -0.10492138, 0.18318005, -0.048677396, -0.10139102, 0.11044568, -0.013363843, -0.12356398, -0.0855092, -0.032575827, 0.13743338, -0.026695682, -0.10833666, -0.12644345, 0.093937054, -0.14173646, -0.07608652, -0.10218131, 0.04370355, 0.1644812, 0.07855424, -0.033449482, 0.07561737, -0.057858884, -0.16940616, -0.10740351, 0.16018027, -0.029422473, 0.15269607, 0.14761892, 0.019487433, 0.016413562, -0.023743318, -0.09516313, 0.1562121, 0.043204676, -0.08985972, -0.012871976, -0.14880127, -0.172098, 0.111257836, 0.15822762, 0.1496407, 0.12028606, 0.05143706, 0.0978342, 0.00930793, 0.14787596, 0.15143174, 0.22416325, 0.022889972, -0.08500972, 0.04086495, -0.08738385, -0.19682564, -0.18520516, 0.18218343, 0.0016762554, 0.17057405, -0.1379539, 0.053658288, -0.13096519, -0.14026874, -0.15806238, 0.021399697, 0.1390167, 0.12441415, -0.035351884, -0.10972494, -0.15865576, -0.13144267, -0.004525539, 0.10175689, 0.013486984, -0.024995567, 0.0041394746, -0.17148103, 0.17865364, 0.10010132, -0.053147018, 0.08279187, 0.05318855, 0.14752923, -0.06144934, -0.059509836, 0.08088669, -0.15670368, 0.059890483, -0.018553479, 0.14385237, -0.13831015, -0.04745, 0.18347932, 0.14740899, -0.06849118, -0.13303694, 0.077758245, -0.0023426793, 0.057277393, 0.12401531, 0.08008958, 0.11909781, 0.071440876, 0.020875057, 0.10109146, 0.0043614483, -0.03924196, 0.08849667, -0.038637333, -0.10360402, 0.18803021, 0.14427958, -0.06273644, 0.10536941, -0.1301721, 0.068964124, -0.017835056, 0.085581586, 0.07884726, -0.12824559, 0.0796386, 0.07914167, 0.010535464, -0.10777048, -0.013582123, -0.08954836, 0.11283111, -0.14761485, -0.013655833, -0.11835384, 0.17675278, 0.062375885, -0.06541906, 0.18311578}, 
{-0.013111001, -0.07131435, 0.18593234, -0.10142449, -0.12079466, -0.05243354, -0.124651395, -0.06123656, -0.08622559, 0.05201751, -0.17514417, -0.23640901, -0.055230364, -0.066869594, -0.08304576, -0.06780105, 0.075684555, 0.11612353, -0.06874757, 0.1311507, -0.08242213, -0.19635774, -0.17347899, 0.12032552, -0.010004317, 0.113099486, -0.09789092, 0.18650192, -0.05622426, -0.16342564, 0.036700673, -0.110958874, 0.0051976177, -0.10921725, 0.076342955, -0.009403034, -0.14642684, -0.08704825, -0.13954504, 0.15715075, -0.13480102, -0.021655595, -0.048224885, 0.0332296, -0.12939571, 0.052436065, 0.1667109, -0.10133352, -0.22263616, 0.09158937, -0.12922531, -0.04501678, 0.0870977, -0.19422174, -0.16896874, 0.22287466, 0.07248, 0.0065899678, -0.09012603, -0.026213676, -0.0039715944, 0.11919263, -0.17386949, 0.09182558, -0.041463915, -0.03921123, 0.011899962, -0.022627199, -0.014088553, -0.101281166, -0.039018713, -0.106674105, -0.037931338, -0.022148555, -0.03884837, -0.102036774, -0.16037309, 0.08819782, 0.06693683, -0.07304895, 0.019507544, 0.016757619, -0.07109648, 0.16727902, 0.08880129, -0.20511003, -0.12231128, -0.051343437, 0.05922353, -0.08285395, 0.105193764, 0.0034571409, 0.13646857, -0.036301624, 0.001388135, 0.09630321, 0.093110345, 0.028119255, -0.09403434, -0.120071076, -0.13776824, 0.038855303, 0.116472304, 0.21298212, -0.13066424, 0.05213326, -0.20320255, -0.12108918, -0.124003224, 0.009949162, 0.051264983, 0.1249253, -0.097412355, 0.04230287, 0.023049235, 0.16116619, 0.10791534, -0.06385166, 0.08688156, 0.1609275, 0.1776292, -0.18737471, -0.107717805, -0.0059385686, -0.0535257, 0.14822778, 0.0020396307, -0.07998427, -0.23512065, -0.043139204, 0.10442701, 0.13516067, 0.1531759, -0.18736483, -0.056123238, 0.07509735, -0.08726646, -0.22346152, 0.061429664, -0.20347692, 0.13547546, 0.16646363, 0.060481757, 0.038426567, 0.07037513, -0.09959819, -0.0888348, -0.14365064, -0.018881336, 0.17000912, -0.06404176, 0.051920373, 0.05761271, -0.024883425, -0.0067239706, -0.12472574, 0.05820302, 0.1342619, -0.063996375, 0.012134054, 0.1946084, -0.1711967, 0.011168765, -0.08183715, 0.0015009056, -0.14837943, 0.19375879, -0.2205083, -0.090229385, 0.11773398, -0.15496105, 0.19417372, -0.2110132, 0.055047035, -0.050790545, 0.18477851, 0.09226433, -0.12558392, -0.118008524, -0.038656533, 0.17063105, 0.060186356, 0.19295877, -0.06638036, -0.001022624, -0.10126167, -0.061946306, 0.05727716, 0.046011683, 0.000708812, -0.19792783, -0.09724148, -0.14712876, -0.019973563, 0.18375589, 0.09035406, 0.043405112, 0.03755582, -0.029067812, -0.21111324, -0.13181117, 0.17397568, -0.020316537, -0.2546527, 0.039937284, -0.025219869, -0.08542866, -0.16060652, -0.17440626, -0.07491676, 0.0003324023, 0.042481277, 0.1883827, -0.14718004, -0.15442769, 0.15374035, -0.0075149676, -0.08288248, -0.051412683, -0.04628037, -0.08080504, 0.03614467, 0.14965743, -0.13814068, -0.0912111, -0.19339438, 0.04913088, 0.023739364, -0.11123774, 0.11402024, 0.10052226, 0.06775199, 0.080812894, -0.048275594, -0.15063399, 0.02403772, -0.17972355, 0.14755538, 0.123313576, 0.16788164, -0.2186004, -0.091138065, -0.07344451, 0.11035232, -0.147224, 0.026525281, 0.083570436, 0.045169912, -0.08899611, -0.2747597, 0.09518143, -0.046428952, 0.050247654, 0.14830251, -0.18529923, 0.06464531}
}
const integer layer_0_recurrent_kernel_size_0 = 64 
const integer layer_0_recurrent_kernel_size_1 = 256 
const data_t layer_0_recurrent_kernel_weights[layer_0_recurrent_kernel_size_0][layer_0_recurrent_kernel_size_1] = {{0.008273961, 0.008777651, -0.016679151, 0.048470985, -0.04052395, 0.0016079083, 0.045133468, 0.019569024, 0.011996603, -0.048420373, 0.074224, 0.03980743, 0.061269857, -0.056044918, 0.14824943, 0.0031439315, 0.0135374535, -0.007687854, 0.04628156, 0.14841345, -0.016315755, 0.13014911, 0.10279489, 0.0057879407, 0.094916925, 0.04515481, -0.048151977, -0.09698912, 0.069792464, 0.054848053, -0.024865046, -0.044908836, 0.06588823, 0.023427082, -0.06388327, 0.0532649, 0.004325889, 0.010208422, 0.051662162, -0.15131648, 0.035215426, -0.047988687, -0.074312665, 0.010581503, 0.07062545, -0.03164048, -0.14803939, -0.010279339, 0.006039334, 0.026649296, -0.021425685, -0.12823237, 0.12688473, -0.03960234, 0.072965, 0.039011564, 0.059368033, 0.06802972, 0.06590882, -0.0027905784, 0.029943177, -0.105196886, 0.08682445, 0.09361291, 0.118943796, 0.11880356, 0.012335775, 0.08022108, 0.01642204, 0.04055427, 0.0512273, -0.05245275, 0.12128086, 0.04238473, -0.020765802, 0.15327084, -0.052402932, -0.027513608, 0.087985285, 0.08067324, -0.025251785, 0.015852958, 0.10087082, 0.006100799, 0.07411641, 0.10709922, -0.011242472, 0.10941204, 0.111976355, -0.084704354, 0.1478559, -0.0056522614, -0.0076058223, 0.066180326, 0.0327592, 0.057446893, 0.056369197, 0.0053851935, -0.01164205, 0.057466857, 0.022218883, 0.102966726, 0.14761004, -0.04328092, -0.08414683, 0.025362642, 0.053317264, -0.030135036, 0.052968513, -0.018783236, -0.14383224, 0.11172173, 0.030199103, 0.002870958, 0.16570796, -0.06640782, 0.051491145, 0.049123608, 0.021968331, 0.034534294, -0.007619961, 0.050774537, -0.028774248, -0.05670676, 0.116039924, 0.03384519, 0.069301434, 0.053384747, 0.12552078, -0.07522025, 0.027848788, 0.006056433, 0.0056595174, 0.058259293, 0.053866733, 0.027528355, -0.09605758, -0.117876075, -0.026728112, 0.09493376, 0.107393585, -0.004990178, -0.08694093, 0.13001603, -0.13810791, -0.034794785, 0.0946676, -0.06204504, -0.07226995, -0.12628005, -0.00046801995, -0.054329675, 0.01256557, 0.09730363, 0.1454538, 0.001537957, -0.11165377, -0.17023045, 0.026128935, -0.05586989, 0.01039842, 0.020349734, -0.032374725, 0.043562233, 0.035975896, 0.010199443, -0.005542029, 0.08930666, -0.06043337, -0.02793471, -0.07209086, -0.112030506, 0.118279606, -0.04184072, 0.0740152, -0.054455224, 0.028430674, 0.12849103, 0.11014443, 0.04327901, -0.023607397, 0.083674885, -0.07321358, -0.12596731, 0.06007179, -0.05089615, -0.018918404, -0.00043606362, -0.095148325, -0.0671366, 0.08029027, -0.09123495, 0.07081078, 0.058421396, -0.08880815, 0.06289763, -0.101061404, -0.061449174, -0.012164379, 0.122864306, 0.10923353, -0.0229243, -0.018049583, 0.09663784, 0.016613714, -0.123195216, 0.1773843, -0.0866555, 0.120823644, 0.015799485, 0.051852457, -0.15428048, 0.04951659, 0.09759392, 0.12841104, -0.052119657, 0.10152459, 0.0637547, 0.06965757, 0.029822806, -0.00010943455, -0.003330874, 0.005938581, 0.06216528, 0.14062552, 0.19421452, 0.037243884, -0.043823637, 0.04103084, 0.1467244, 0.04961462, -0.08618818, -0.018078515, 0.05539107, 0.03461251, 0.08438447, 0.0907961, 0.064175665, 0.004282727, -0.028940117, 0.059433524, 0.035293117, 0.06424344, 0.08596371, 0.13225125, 0.045087922, 0.06873193, -0.009579973, -0.10359912, -0.0037646508, -0.0039869784, 0.007925259, 0.00759435, -0.070740014, 0.103534445, -0.028921384}, 
{0.032008223, 0.17503507, -0.007283569, 0.08723539, -0.038978387, 0.11834734, 0.079222105, 0.011843681, 0.06242192, 0.039027747, -0.01861943, 0.016333764, 0.060472846, -0.033308376, 0.22683059, 0.1327586, -0.01929931, 0.11791897, -0.11410111, -0.10629947, 0.0465408, -0.0153740635, 0.08651075, -0.073858, 0.14344956, -0.1387544, 0.108882904, 0.023950448, 0.05940002, -0.04945835, 0.00821013, -0.034581054, -0.24774325, -0.00046779463, 0.0256662, 0.087784514, -0.08895279, 0.008334671, -0.055958588, -0.026446031, 0.19437456, 0.023187201, -0.09582235, 0.15371029, 0.06361994, 0.039969027, -0.04780429, -0.03593571, -0.12509663, -0.055076387, -0.10323653, 0.05263672, 0.0048848544, -0.021312436, 0.022895208, -0.103925765, 0.13536023, -0.10456931, -0.018120406, -0.063342325, 0.049409226, 0.043078966, -0.030212834, -0.009092885, -0.0283981, 0.12263187, 0.08560691, -0.034259863, 0.04654695, 0.08692123, 0.032260735, 0.026817868, -0.0047891685, 0.10135304, -0.008183255, 0.03645286, -0.021169925, -0.059439488, 0.1416768, 0.067302786, -0.06513178, 0.0575123, -0.027922321, -0.06532337, -0.019897863, 0.062503584, -0.059558753, 0.024092076, 0.027243942, 0.07621164, 0.07528552, -0.015721485, 0.07278403, -0.07453253, -0.011414926, -0.08744128, 0.032143284, 0.00833784, -0.036170606, 0.057255775, 0.043647334, -0.035901114, 0.19323397, 0.034926698, 0.013925418, -0.13674684, 0.01524877, -0.014734762, 0.026078831, 0.068675004, 0.026922941, -0.014912919, 0.09172991, -0.019624142, 0.018633056, 7.132239e-05, 0.15196688, -0.11857734, -0.040778767, -0.062028456, -0.07694647, 0.07935437, 0.045158256, -0.01321956, 0.060916863, -0.0050408007, 0.02090687, 0.0025744333, -0.011386498, 0.05028526, 0.04815677, -0.023610832, 0.082845554, 0.037690476, -0.015631357, -0.094942264, -0.09089498, -0.030924974, -0.0063524, 0.08548921, 0.11111589, 0.17207193, -0.03198771, 0.08237297, 0.06067419, 0.019686753, -0.09774959, -0.037155025, 0.0010031112, -0.050926298, 0.029205061, 0.027319986, 0.13273506, -0.054961443, 0.06551268, -0.01605306, -0.020443153, -0.038273, 0.009832017, -0.060648594, -0.099632904, 0.027882783, 0.022057177, 0.026103128, 0.026689019, -0.01320584, -0.029389475, 0.027130144, 0.05253811, 0.0019911856, -0.11953901, 0.054081295, -0.022606429, 0.06912918, -0.003970787, 0.0043635033, -0.10286572, 0.031032136, -0.07222959, -0.069475055, -0.0334572, 0.1615811, -0.060880695, 0.02310729, -0.04618054, 0.03383437, -0.026221942, 0.12064574, 0.031278398, 0.022222463, -0.05146574, 0.043834034, 0.018466393, -0.025014305, 0.021252964, -0.06816356, 0.101873055, 0.12369556, 0.07962515, 0.04885969, 0.034510955, -0.073473856, 0.049461596, 0.0698404, -0.11097853, -0.04237939, 0.059753895, 0.1474238, 0.0016718177, 0.057490222, 0.07953807, 0.015243576, -0.016242575, -0.031103294, -0.070277855, 0.08151933, 0.043351498, 0.040185504, 0.01598609, -0.01999326, 0.023500973, 0.0022488083, -0.0053181713, 0.096765265, -0.02103821, -0.0058808546, -0.007912585, 0.061721444, 0.07902072, 0.0015253987, 0.10296229, -0.077663675, 0.007953233, -0.0040889387, -0.09288596, -0.03798373, 0.05482132, -0.010931326, -0.019388156, -0.05347087, -0.11041366, 0.052830633, 0.0013900516, 0.11491332, 0.12563047, 0.041062143, 0.06512906, -0.10952756, 0.058324497, -0.016550329, -0.007304075, -0.045143872, -0.025691668, -0.111849315, -0.042367242, 0.00042368198}, 
{0.116317175, 0.020206219, -0.026885632, 0.11169007, -0.17946889, -0.014479465, -0.045439463, -0.05344853, -0.07937071, 0.07220894, 0.06298505, -0.13439475, -0.06757817, 0.115295425, -0.015484402, -0.05872482, 0.032916807, -0.019115364, -0.009067186, -0.012214416, 0.07831443, -0.087622754, -0.032596864, -0.029779697, -0.040151555, 0.0048302338, 0.013017482, 0.14749314, 0.04020257, -0.1112596, -0.07302565, 0.049059886, 0.0021515395, -0.06450152, -0.120072745, 0.01941179, -0.022650901, 0.03905318, -0.076869115, 0.03036958, -0.028238438, -0.13249692, 0.09370293, -0.008592305, -0.13098586, -0.16133098, 0.059916068, 0.069053896, -0.12575811, 0.11053098, -0.05229014, 0.005226128, -0.007026138, -0.014000544, -0.013618169, -0.08541854, 0.058286257, 0.06274835, 0.008916996, 0.07706692, -0.09650132, 0.07851319, -0.08808783, -0.10632964, 0.1083629, -0.07682633, 0.048172016, 0.017267564, 0.050543018, -0.015097144, 0.03651152, -0.094498456, -0.025689801, 0.09670221, -0.017423656, -0.1577443, -0.046378132, 0.002462689, 0.011457334, -0.0033710336, 0.061343666, 0.057249345, 0.03597047, -0.0023026746, 0.046453014, -0.008935664, -0.0471682, 0.028182134, -0.045970958, -0.02395497, -0.0022102254, 0.14439861, 0.056398008, 0.029258957, 0.007780554, 0.007160104, 0.038015377, 0.058585856, 0.007498812, 0.047550984, -0.064667195, -0.08646802, 0.08185891, 0.015472304, 0.08137474, -0.10395392, -0.037969887, -0.040180575, 0.07212949, -0.098419555, 0.00038994546, 0.027189877, -0.124113314, -0.013537197, 0.046151605, 0.10599267, 0.022400998, 0.11075307, -0.05704076, 0.055744763, 0.050520495, 0.13148609, -0.08483654, 0.1323868, -0.09561065, 0.008337637, -0.007396656, -0.07379681, 0.056888852, 0.042693585, 0.07687697, -0.043270186, -0.12586887, -0.023778941, -0.08803354, 0.06831975, -0.018658234, -0.12581669, 0.06487611, 0.026611015, -0.112327345, 0.048417263, -0.03612031, -0.03995041, 0.025039455, 0.0036450014, 0.08812095, 0.0967234, -0.011950384, -0.0409366, -0.056783773, 0.003358668, 0.030677432, -0.017955605, -0.072984524, -0.08416948, 0.034894727, -0.021196233, -0.046930555, 0.03664398, 0.018858537, 0.02204575, -0.020832323, 0.037543945, 0.06484033, 0.013934701, 0.024280205, -0.10556539, -0.01495188, -0.08647336, -0.0427657, -0.022596806, 0.059081037, 0.0068651033, 0.05608186, 0.02480065, -0.0026312557, -0.006725504, -0.03202039, -0.09266643, 0.00035275577, -0.035787523, -0.042663973, -0.117962904, 0.030557519, -0.02616695, -0.106791414, -0.030126235, 0.06865394, 0.013373284, 0.089935526, 0.0030427685, -0.11879332, 0.043532077, 0.14019687, 0.0900164, -0.07244782, -0.027751308, 0.031204509, -0.03506999, 0.03787113, 0.019251214, 2.2541888e-05, -0.21048439, -0.1168316, 0.058420487, 0.018916361, 0.053753164, 0.06435525, -0.008177133, -0.0011157506, -0.028851343, 0.0009229957, -0.078870244, 0.13811247, 0.11981412, 0.070857085, 0.09177427, 0.017715422, 0.116444714, 0.10916115, 0.074843414, -0.04008454, -0.034317456, -0.12081603, -0.10285056, 0.08209318, 0.053405963, -0.09018506, 0.03749752, 0.008102812, 0.008173881, -0.010641601, 0.09671916, 0.013315562, 0.029007746, 0.049356025, 0.034658987, -0.018466672, -0.100635834, -0.1648731, -0.042070355, -0.09622718, 0.046339825, 0.0034490612, 0.12449791, -0.15082282, -0.06915155, 0.018690012, 0.030453121, 0.015242116, 0.12715027, -0.053569008, -0.047206677, -0.07744343, 0.013391738}, 
{-0.17758001, -0.047834504, -0.09677346, -0.1039971, 0.13367778, 0.04800645, -0.0048373737, -0.06878973, 0.059686877, -0.07435071, -0.074443474, -0.05942157, 0.04384869, -0.12700355, -0.051987473, -0.007337161, -0.025362873, 0.015571787, -0.09184483, -0.12586322, -0.036852375, -0.054998137, -0.0533377, 0.07076005, -0.06486352, -0.031754673, -0.1132216, 0.00470927, -0.04524549, -0.056198247, -0.12192471, -0.0906194, 0.01004595, -0.00913725, -0.008101566, 0.047316153, -0.08928324, 0.009275637, -0.03472897, 0.053504933, -0.09283847, 0.07926415, -0.017663017, -0.14136438, -0.058870904, -0.01799084, 0.07621341, -0.17945135, 0.04107038, 0.14169267, -0.009274005, -0.03508677, -0.17237732, -0.1369023, 0.02948926, -0.18556903, 0.0012257348, -0.020138314, -0.071622886, 0.016238894, -0.086035684, -0.17007671, -0.000327621, -0.066550784, -0.04305303, -0.06910027, 0.0064077787, -0.24876209, 0.073615454, 0.090508655, 0.0023103831, -0.15093288, -0.07744912, 0.029085279, -0.010658996, 0.051165774, -0.06171866, -0.051751878, -0.028988384, -0.02492958, -0.08358674, -0.06454658, -0.022085344, 0.023847828, -0.035003908, -0.069697864, -0.089913204, 0.012415149, -0.06861051, -0.018658357, -0.056985084, 0.051896818, -0.0047317394, 0.03777859, -0.11128557, -0.09649371, -0.11653278, 0.042314168, 0.045272965, -0.068706684, -0.14990267, -0.056754462, 0.011626299, 0.012676359, -0.19572626, 0.026601091, -0.14671044, -0.16572161, -0.0070282626, -0.17596781, 0.021089392, -0.09488797, -0.09449082, 0.05066544, 0.024777738, 0.014742936, -0.08510386, -0.15810324, -0.08260622, -0.05924955, -0.029552212, -0.0018825072, -0.08354454, 0.028835822, -0.09105329, -0.042826056, 0.07076565, -0.14004411, -0.060842443, -0.12731673, -0.0033182737, -0.044738185, 0.046433304, 0.05720329, -0.1509169, 0.014861978, -0.014599555, -0.08778658, 0.09457066, 0.068093196, 0.017721154, 0.059045803, -0.1061269, -0.03625757, 0.085739195, 0.13210464, -0.033408355, 0.070022225, 0.028533258, 0.07731622, -0.022183398, -0.0011185214, -0.103388265, -0.019212622, -0.10358746, 0.056366418, 0.04366625, -0.0035658523, 0.032674585, 0.036548156, 0.08717097, -0.027651075, 0.059405874, -0.034656383, -0.114434965, -0.06819365, -0.093455024, 0.017280022, 0.0469321, 0.08452592, 0.03248245, -0.015609782, 0.026859144, -0.025294784, -0.032190446, -0.026437806, 0.021127502, -0.033281315, 0.016187737, 0.04017046, -0.030015513, -0.044995584, 0.014363476, -0.056941986, 0.036628734, -0.004735502, -0.022520795, 0.059988786, -0.11493702, -0.0099524455, -0.115903124, -0.15850826, -0.18292637, 0.011354522, 0.030820489, -0.17435269, 0.08915894, 0.024426961, -0.048819244, -0.0530511, 0.06857758, 0.07014709, -0.07804279, 0.054882057, -0.077158995, -0.07466967, -0.088756956, -0.013184579, -0.097094476, -0.0073887245, 0.016591577, -0.09825404, 0.044293836, -0.011701994, -0.2158178, -0.09678708, 0.005723124, -0.032937262, -0.10588628, 0.010852644, -0.0040964885, 0.093430035, -0.07301726, 0.07485795, -0.00028815513, -0.015307267, -0.061983578, 0.02438273, -0.097388715, -0.06295315, 0.010124519, -0.04245091, -0.08946847, -0.013721352, -0.06397936, -0.03650176, 0.02560614, -0.0013152182, -0.075038195, -0.08427735, -0.15185846, 0.016330326, -0.07456941, -0.12105181, -0.17673333, -0.027901972, -0.10339437, -0.045566715, 0.00548591, -0.08238985, -0.12478831, -0.04961573, -0.18042628, -0.020728106, -0.13309698, -0.065438904}, 
{0.0049037565, 0.014265187, 0.011977679, 0.16007017, 0.036255736, 0.06107339, -0.030362742, -0.04473899, -0.07661047, 0.0684562, 0.04979152, -0.035996933, -0.034643907, -0.0982397, -0.042223886, 0.08194383, -0.023418365, 0.03590216, -0.08692233, 0.022770727, -0.012751089, -0.10414024, 0.026392553, -0.045611747, -0.051963955, 0.033919107, -0.09077993, -0.067971006, -0.009822642, 0.042974167, -0.006179674, -0.042415522, 0.023027373, 0.010278214, 0.082478374, -0.11181457, -0.07261367, 0.008160338, 0.0762303, 0.13505718, 0.057145532, 0.047634702, 0.027453728, 0.014017701, -0.030606939, 0.11557275, 0.0072386237, -0.014074949, -0.09384793, -0.0016135172, -0.09684179, 0.026302174, -0.03576463, -0.15158242, -0.09463118, -0.046956725, -0.046681076, -0.098772414, -0.1328431, 0.010581376, 0.0501099, -0.0006699134, -0.105668604, 0.0461647, -0.13245966, -0.06822473, -0.043779477, -0.08823099, -0.017718522, -0.027460722, 0.036155526, -0.027018866, 0.062144026, 0.056357495, 0.029213501, -0.044302393, -0.1030154, -0.01702978, 0.02675657, 0.024993472, -0.029859219, -0.054806132, 0.090851665, 0.00029494677, -0.063568, -0.15482174, 0.002596901, -0.074700914, -0.04428921, -0.016658626, -0.16646165, -0.041998662, 0.07197831, -0.03526818, -0.0015765725, 0.06291456, 0.019818543, -0.015002382, -0.042414807, -0.017462255, -0.16722031, -0.039634217, 0.07974048, 0.005251671, 0.0062432284, 0.09907147, 0.100092374, 0.0727956, 0.03903534, 0.08013196, -0.07745805, 0.047671977, -0.08649077, -0.0006630715, 0.077261455, 0.08734733, 0.028583422, 0.014156088, 0.037363213, 0.022972086, -0.015580456, 0.027140068, -0.0020669322, -0.040465828, 0.050342537, -0.033246525, -0.05424731, 0.0036638123, 0.045048583, 0.11076569, -0.008662925, -0.05704692, 0.05962913, 0.041588962, -0.021114413, 0.03614249, 0.09063953, 0.06887639, 0.03647931, 0.06540286, 0.03724759, 0.06980361, 0.016051674, 0.03523134, -0.03291082, -0.024533704, 0.0019926184, 0.02197607, -0.08493204, 0.04622668, -0.02577383, 0.10080088, 0.14276938, 0.04630655, -0.06424393, -0.05559026, 0.085816085, -0.006839509, 0.018357309, -0.015390294, 0.108096756, -0.06904611, 0.030675108, 0.06496199, -0.0055803834, -0.12537095, 0.08880548, -0.051808663, 0.1368395, 0.023634719, 0.009807666, 0.015685126, 0.08007963, -0.005219485, -0.03908415, 0.043914516, 0.077041894, 0.05522124, 0.0471418, -0.027395425, 0.04317717, 0.02974667, -0.19819741, -0.006808015, -0.051349897, 0.0645355, 0.058497008, 0.043331936, -0.011133153, -0.07289798, 0.051802523, -0.17808424, -0.016907651, 0.009282963, -0.050828993, 0.066719905, -0.0037608065, -0.012117154, -0.103142105, -0.1205045, -0.11232773, 0.17222404, -0.09740224, -0.11779577, -0.112004764, 0.026211785, -0.15870756, 0.013305899, -0.04164119, 0.050744273, -0.080697715, -0.12672123, -0.008127891, 0.0008681922, -0.0143118, 0.032453746, 0.06325223, 0.043405652, -0.019737259, 0.038182653, 0.050663233, -0.02905583, 0.022868922, -0.059472114, -0.04317479, 0.030454906, -0.022609035, -0.008872699, 0.06456303, 0.0668499, -0.12972148, 0.025532678, 0.07806137, -0.059954245, 0.024564074, -0.116623685, 0.008403812, -0.04591757, 0.0135547975, -0.04287987, -0.007857814, -0.07008194, -0.055889376, 0.07546582, -0.03752107, -0.030124357, -0.08007467, -0.048377745, 0.04345369, -0.1456114, 0.015134236, 0.05737811, -0.032797698, 0.06323055, 0.029968647, -0.015630491}, 
{0.04835331, 0.05818743, -0.031375363, 0.03833394, 0.048658676, 0.05067975, -0.00072396634, -0.075599946, 0.04524386, 0.0601373, -0.071130686, 0.06968449, 0.08590353, -0.07827316, 0.095387176, -0.040377993, 0.027773181, 0.08998091, 0.0016072628, 0.05594412, 0.046995427, 0.040632237, 0.06184787, -0.047857903, 0.123749435, -0.006355325, -0.046107158, 0.062740915, -0.060798123, -0.03732814, 0.0038874857, 0.004706207, 0.0628677, -0.055509515, 0.07057148, -0.08781411, -0.06902851, -0.08576686, 0.03507439, -0.12849268, -0.010492354, 0.010931655, 0.0019735594, -0.08654923, 0.094376676, -0.0040337075, -0.06898283, -0.05878152, 0.123758495, 0.041616876, -0.03822894, 0.038099542, 0.10763333, 0.11870897, 0.10741802, 0.08889877, 0.03856127, -0.039370168, -0.07810558, -0.09223872, -0.046329398, -0.11632794, -0.0058770436, -0.030965524, 0.04633834, 0.109295614, 0.096848756, -0.084325284, 0.058750175, -0.03813666, 0.039535753, -0.006495324, 0.09138497, 0.013979777, 0.025712669, -0.037511826, -0.05231601, 0.010476773, 0.07605157, 0.07102467, 0.038957972, 0.11180912, 0.02125459, 0.033883844, -0.16750488, 0.077507704, 0.092575796, 0.060031716, 0.14164671, -0.12527207, -0.063005134, 0.009683955, 0.07817881, -0.016443275, 0.02739529, 0.03651677, -0.030727265, -0.060923018, 0.0051863124, -0.10091535, -0.050107285, -0.013051292, -0.022483947, 0.06705173, 0.123864144, 0.054953057, -0.03794064, 0.09214838, 0.007632078, 0.08472184, 0.062391117, -0.013229287, 0.07672467, 0.14671241, 0.07041629, 0.116034664, 0.07160176, 0.07046525, 0.08923761, -0.069250576, 0.03958895, -0.09585715, 0.0012752557, -0.004543437, 0.012451366, 0.012794206, -0.07914827, 0.010263831, 0.08009883, 0.030291831, 0.14378615, -0.03918069, -0.02311427, 0.03796388, 0.067671806, -0.13853209, -0.1280125, -0.04090269, -0.04099564, 0.07180704, -0.08113412, -0.021329101, -0.10549484, 0.086955726, 0.04294959, -0.10112765, -0.0022365486, -0.045188107, -0.07601867, -0.040231686, 0.0027763667, 0.04603373, 0.10910082, -0.0056762127, -0.012729397, -0.06444705, 0.06586954, 0.016481593, -0.0924031, 0.071920134, -0.011566292, -0.054417104, -0.07916684, -0.065304466, -0.135103, 0.122765526, 0.07610444, -0.046920266, 0.09956599, -0.0052349186, -0.03672453, 0.0032563168, 0.059036825, -0.058099806, 0.09550538, 0.014902177, -0.065689154, 0.0059570237, -0.10551464, -0.045702238, 0.03527363, 0.07060276, 0.036880143, -0.17876266, -0.09759823, -0.014901177, -0.12472768, 0.107243784, -0.023741264, 0.010580948, -0.07325305, -0.055395044, 0.008294202, -0.03323068, -0.013787809, 0.108121775, -0.06801144, -0.1208081, 0.006315669, -0.07355659, -0.097444266, -0.025899284, 0.08507847, 0.051828086, 0.032683656, 0.1512739, 0.12062431, 0.05072707, -0.1312028, 0.06246393, 0.010137798, 0.0186654, 0.023542086, 0.05363681, -0.0525433, 0.09748101, 0.0040549478, 0.03242338, 0.023584416, 0.0028034016, -0.06494589, -0.039580557, -0.084197715, -0.12968989, 0.020375663, 0.12192069, 0.026593603, -0.011109338, -0.030649252, 0.033834983, -0.038236275, -0.073727615, 0.053202204, 0.06809525, 0.03841825, 0.13142945, 0.13138504, 0.03381126, 0.09231839, 0.014021485, 0.037479144, -0.05313307, 0.030525688, 0.026131291, 0.0014258346, 0.035340663, 0.074371934, 0.01852048, -0.002471133, 0.05653895, -0.026992992, 0.1160534, -0.09094691, -0.19562478, -0.052844163, 0.021359306}, 
{0.07158788, 0.11954489, 0.006656813, -0.15476198, 0.019783843, 0.103841424, -0.024818247, 0.13434355, 0.056250367, 0.033613663, 0.12947905, 0.2048908, -0.029191604, 0.06881994, 0.07696346, -0.03654321, -0.024845237, 0.019561877, 0.13889025, -0.048653148, 0.087932095, 0.022393238, -0.1226656, -0.07010504, -0.015495159, -0.098256886, 0.05223097, -0.09589382, -0.06586801, -0.00022815668, -0.022272104, 0.05869127, -0.02145611, 0.041875932, 0.062435802, 0.038665287, -0.016993271, 0.029008504, 1.3221934e-05, 0.053567015, 0.020392505, -0.028593885, -0.004357102, 0.024949675, 0.12632132, -0.020957967, 0.013722357, -0.05728004, -0.063633814, 0.051265366, 0.0013779864, -0.06632372, 0.09300154, -0.044751137, 0.029541038, 0.09870218, 0.0027519166, 0.0747633, 0.1145242, 0.048991185, -0.03165788, 0.037701353, -0.0572579, 0.03626829, 0.042826805, 0.09530927, 0.11852619, -0.047983743, 0.03733511, 0.06673067, 0.071549386, -0.03563925, 0.011502542, 0.038803868, 0.048496276, 0.219935, -0.09935343, 0.08183712, 0.14537887, 0.0048499904, 0.078759305, -0.07363276, 0.010239934, 0.083928704, 0.042796064, -0.07624294, -0.061207667, -0.085606284, 0.08445865, -0.12393323, 0.08313974, 0.049468808, -0.01772863, 0.00843448, -0.0040881606, 0.055076286, -0.06599641, 0.08292231, 0.1045912, 0.10620663, 0.057756618, -0.0077235503, -0.0046916255, -0.057754792, 0.03420607, -0.072225526, 0.066123165, 0.013810996, 0.0920116, 0.00539002, 0.040274646, -0.0143336095, -0.049024057, 0.035437856, 0.02112844, 0.17474934, 0.122201756, 0.11477917, 0.033260997, 0.005732301, 0.008351562, 0.022354355, 0.092630275, 0.034137275, 0.12603928, 0.019005876, 0.029421698, 0.004439501, 0.123543136, -0.022192607, 0.024275545, -0.016950905, -0.03075019, 0.019688014, 0.11754641, 0.014145576, 0.10956921, -0.003406359, -0.080915645, -0.007321305, 0.020813724, 0.056689933, 0.040775076, -0.03739528, -0.04383888, -0.029141068, 0.040002655, -0.078600585, -0.018459292, 0.086882554, 0.024535343, -0.018620888, 0.046229906, -0.13167255, -0.02742462, 0.1102221, -0.069330126, 0.045198325, -0.06852232, -0.030972183, 0.055782508, -0.112561114, 0.060454536, 0.12242831, -0.012861575, -0.008245781, -0.06412639, 0.08516378, -0.0018924624, 0.011465997, -0.13200621, -0.03570067, 0.06309268, -0.009747891, -0.0951118, 0.03932112, 0.021103282, 0.06896639, 0.063888855, -0.12353247, -0.045118842, -0.0044235676, 0.122228116, 0.07801425, 0.0022242137, 0.060759414, 0.048837274, -0.045187123, 0.060897555, -0.125972, 0.10315107, -0.03196507, -6.0817656e-06, 0.029692424, -0.0011365456, -0.14844222, -0.068273515, -0.024736015, 0.022379203, -0.11064588, 0.1499287, -0.0027339815, 0.059280794, 0.052831013, 0.06014131, 0.18357933, 0.13024604, 0.09584843, 0.04904014, -0.08999775, 0.005380962, 0.06391224, -0.006099454, 0.10544435, -0.08296062, 0.13482569, 0.036676183, -0.015106583, 0.020462899, 0.03220651, 0.016041711, 0.05660744, -0.024344377, 0.14640757, -0.1094968, -0.010662686, -0.07204823, 0.09741793, -0.03859131, -0.08682523, 0.06289582, 0.044059433, -0.07140217, -0.0470726, 0.054678876, 0.13737977, 0.044950116, -0.057829544, 0.022925163, -0.04797768, -0.019525537, 0.041760053, 0.055355806, -0.0061124545, -0.035356387, 0.018366355, 0.07625671, 0.06596942, 0.0757461, -0.0059850276, 0.14175723, -0.0086617945, -0.018798377, -0.05325488, -0.03757841, -0.0113071455}, 
{-0.041685008, 0.029342234, -0.089223646, -0.016135214, -0.034957398, -0.046557125, -0.031532075, -0.0007534804, 0.057067603, 0.025395617, -0.060209136, -0.14135155, 0.018601391, -0.11805391, -0.024741104, -0.010932938, -0.10306199, -0.05804987, -0.06426274, 0.023164408, 0.06160706, 0.014423589, -0.11311048, 0.05971254, 0.016725942, 0.010685339, -0.0073881545, -0.04847292, -0.077763416, -0.12046775, -0.04451262, -0.015176805, -0.08865715, 0.061205085, 0.09851696, 0.03879914, 0.0829548, -0.043545023, -0.11464112, 0.019647857, -0.058295544, -0.15061462, -0.017598245, -0.101391174, 0.06552152, -0.028208707, -0.053191964, 0.10930414, -0.04844637, 0.15894629, -0.06237131, 0.09930342, -0.07861666, -0.095115684, -0.034909986, -0.06039437, 0.029717786, -0.006964908, -0.041047644, 0.090821564, -0.11801112, -0.02525105, -0.18496667, -0.08252129, -0.08008903, 0.11872586, 0.075737044, -0.055238105, -0.14708717, 0.025862038, -0.06857374, -0.1837984, 0.010119071, 0.08083642, -0.12194224, -0.11148137, -0.06899913, 0.045235634, 0.07797613, -0.15440728, 0.017966187, -0.017314369, -0.00034509192, 0.030573064, 0.07007434, -0.08971009, -0.024633236, 0.15170413, -0.068261504, -0.12523358, -0.009763728, 0.04728094, 0.12795858, -0.005068996, 0.030295758, 0.11887773, 0.09381182, 0.026847124, -0.1271665, 0.026261212, -0.029927276, -0.056924522, 0.10706336, 0.098844856, 0.07824642, 0.15905553, 0.029940864, 0.048214782, 0.12455493, -0.06703231, 0.039935317, -0.06986932, 0.0024539547, -0.07352063, -0.015557153, 0.042565543, 0.01246846, -0.1235788, -0.010556669, -0.030084547, -0.027117144, 0.0777633, 0.08595442, 0.06308044, -0.11340736, -0.032395374, -0.12044119, -0.063331805, 0.03566814, -0.03486168, -0.015094895, -0.0401425, 0.059582725, -0.0076468284, 0.014542038, 0.16581236, -0.0057399026, 0.0474577, -0.06011343, 0.023238525, 0.09792376, -0.17614011, 0.04348556, -0.07952388, 0.08764236, 0.113909855, 0.07848932, -0.041783195, -0.028388133, 0.08044482, -0.066379406, -0.017783217, -0.056521297, -0.026929336, 0.038162656, -0.07047261, -0.009421914, 0.05409068, -0.03705149, 0.0335044, -0.08265179, -0.12361456, -0.04823021, 0.016434032, 0.052652355, -0.08707629, 0.07306651, -0.045626268, -0.025357286, -0.10454101, -0.04650622, 0.097199865, -0.10622679, 0.047898006, 0.10034979, -0.0022654748, 0.079143725, -0.026964098, 0.017889267, 0.095494635, 0.0037008848, -0.08863799, -0.020878097, -0.042745773, 0.06942028, 0.027378222, -0.03229723, 0.029612036, 0.015351013, -0.027044399, -0.07874997, -0.0095105115, 0.009511994, -0.039381694, -0.032746594, -0.09590257, -0.04945937, 0.004806456, 0.05895802, -0.01993485, -0.08418796, 0.054864936, -0.0197104, -0.020423613, -0.011524642, -0.0629541, -0.04791975, 0.10274252, -0.057526696, 0.03492363, 0.052730773, -0.057765942, 0.0018035922, -0.043967497, -0.11699226, 0.017250644, 0.034080125, 0.08661788, -0.028900908, 0.03221881, 0.13222387, 0.019851994, 0.07365454, -0.03527515, 0.0410248, 0.032328647, 0.05129769, 0.064112164, -0.04036036, -0.09381447, -0.0688649, -0.010574954, 0.06518493, -0.029992685, -0.028765501, 0.000439813, -0.0839744, -0.1037398, 0.019404007, 0.026158022, -0.159298, 0.07835667, -0.0017512214, 0.059597738, -0.004020621, -0.01973744, 0.064742126, -0.031410877, -0.01475616, 0.01828837, -0.05046929, 0.09583935, -0.010005379, -0.07616708, 0.02410783, -0.013850781}, 
{0.0406426, -0.09592421, -0.04343529, -0.07669537, 0.003970085, -0.060265362, 0.058213003, 0.12151409, -0.07910077, -0.061994266, -0.075441636, 0.064039886, -0.014860034, 0.059288867, -0.09984565, 0.06322983, -0.01944074, -0.02182797, -0.06240915, 0.021438057, -0.08254616, 0.02258074, 0.09180819, -0.011025986, -0.018909175, -0.0108444225, -0.030903727, -0.051324375, -0.04831706, 0.057275202, 0.004811642, -0.0045603006, 0.03569082, -0.032685243, -0.012010909, 0.10719334, -0.050745707, 0.13633634, -0.03804867, -0.112890586, -0.08707256, 0.057986658, 0.0067572305, 0.010395736, -0.09274764, -0.040525373, -0.11849779, 0.124693304, 0.017191332, 0.029564336, 0.00468974, 0.04504662, 0.004924777, 0.08061196, -0.036346704, 0.041458413, -0.10681092, 0.06858817, 0.12771963, -0.061508313, 0.012619131, 0.08283128, 0.03399404, 0.14726661, -0.10597574, -0.0735167, -0.074995056, 0.016855964, -0.07117301, -0.015110218, 0.07167906, 0.082415886, -0.086628206, -0.052054595, 0.09349525, 0.089999735, 0.086002015, 0.078427374, -0.019857686, -0.048512608, -0.025127264, -0.21695821, 0.04323092, -0.18260841, -0.088110805, -0.07737626, 0.06981414, 0.017865041, -0.13249685, 0.1084315, 0.10487349, -0.013273231, 0.017896632, 0.028202556, -0.057735804, 0.070776045, 0.027854633, -0.085262954, -0.01021153, -0.022473702, 0.036473606, -0.020741297, -0.077648945, 0.014420304, -0.031979166, 0.040682983, 0.0061030807, 0.030600915, 0.0026666163, -0.01348896, -0.014752235, 0.1425423, -0.08158919, -0.08075607, 0.07683101, -0.00022777122, -0.024250103, -0.04848637, 0.009784736, -0.028975353, 0.0682195, -0.028209904, -0.08722786, -0.014405065, 0.03499948, 0.10293432, 0.049444064, -0.011492836, -0.061390232, -0.13972601, 0.08390956, 0.10433507, -0.1071233, -0.0446715, 0.06438596, -0.055449497, 0.04215205, 0.017657228, -0.08091772, -0.06829509, 0.014558626, 0.048354737, -0.1066127, -0.08479573, 0.0015963593, 0.08116359, -0.055560607, 0.07533853, 0.07198471, 0.13978232, -0.088861406, -0.03667779, 0.07682135, 0.13069536, -0.10446122, 0.017816348, 0.10729343, -0.027807167, -0.003175524, 0.009626387, 0.0502997, -0.011508752, 0.10385969, -0.091302514, -0.07846858, 0.021681653, 0.014831649, 0.11937965, 0.0038574669, -0.083778605, 0.004221863, -0.013831711, 0.12976398, 0.07136187, 0.009890278, 0.093276516, -0.15168709, -0.16078138, 0.08281262, 0.03362102, -0.041555215, -0.0063073104, 0.15056592, 0.06921449, -0.037416052, 0.040923085, 0.034068186, -0.12611698, 0.06423913, -0.043961186, 0.01610495, 0.026957227, 0.07660323, -0.05902489, -0.07364232, 0.050326932, -0.0299134, -0.18080056, -0.04258846, 0.055549446, -0.020396594, -0.016135704, -0.008464198, 0.13938044, -0.012770644, -0.017550828, -0.09334866, 0.0727886, -0.05380435, -0.037774783, 0.083210774, 0.013255628, -0.13336192, 0.11672209, 0.06134237, -0.035659704, -0.0065421183, 0.11030786, -0.051659495, -0.025446316, -0.0039800783, 0.028138801, -0.076638274, 0.016552849, 0.014004252, -0.039823882, -0.032878242, -0.099229686, 0.025135802, 0.06533657, 0.06706367, -0.024762137, 0.017439244, -0.048989065, 0.012443707, -0.019972932, -0.06391141, -0.06298806, 0.05536862, 0.102858424, 0.046908565, -0.09431975, 0.08190195, -0.07076636, 0.07619713, 0.024890028, -0.0013786037, -0.03777667, -0.055953205, -0.08128214, 0.11527857, -0.049974747, 0.055345267, -0.032501582, 0.059056338, 0.010629735}, 
{0.00034846264, -0.00074099243, 0.007926342, 0.021114698, 0.026519135, 0.06962788, -0.07190287, 0.014126399, -0.05138191, -0.0081025055, -0.12588646, 0.026884215, 0.081300765, -0.017118543, -0.060749054, 0.0328156, 0.02398635, -0.014992729, -0.024084002, 0.0047716405, 0.014819884, 0.04512091, -0.0075154137, -0.0260325, 0.027611144, -0.060754213, 0.100158304, -0.06504974, -0.009098844, -0.01455753, -0.11144606, -0.04393651, -0.052544285, 0.0003962608, 0.0056385146, 0.09034418, -0.014845496, -0.10815908, -0.100322895, -0.12128408, -0.14572155, 0.08702975, -0.07140773, -0.057802856, -0.035868827, -0.032953776, 0.0033001096, -0.026743546, -0.052666683, -0.023833774, 0.26672894, -0.038667712, 0.0060185073, -0.031889554, -0.03384972, -0.11856345, -0.029984074, 0.07726737, 0.10410269, -0.026983827, 0.001672541, 0.06695984, -0.053555198, -0.046090912, 0.10245463, -0.093105875, -0.010856322, -0.07454715, 0.15161143, -0.113840796, -0.12889089, -0.03305549, -0.08139884, -0.13937594, 0.06716384, -0.05021736, -0.0072041834, -0.0553634, -0.14967914, 0.021963412, 0.11758693, -0.11974588, -0.04094768, -0.0028630202, -0.063104786, 0.09310197, -0.15291731, -0.09857632, -0.114895344, -0.0928369, -0.02802962, -0.14972728, -0.0038404586, 0.08270414, -0.106721245, -0.0031831292, -0.1236393, 0.11829743, -0.03642899, -0.044156365, 0.121238165, 0.062021174, -0.070290364, -0.05119159, 0.09392941, -0.055685576, -0.06789706, -0.19906352, -0.038570482, 0.073214106, -0.099381745, -0.007644184, 0.096569456, -0.13366139, 0.1490019, -0.14900634, -0.026784746, 0.010889373, -0.0060013924, -0.034740463, -0.011623253, 0.006889993, 0.07389049, -0.07981377, 0.010389236, -0.037868638, 0.12076812, -0.09606232, 0.0199739, 0.0415792, -0.01613243, 0.11864578, 0.08666685, -0.034260683, -0.10620042, -0.04959237, 0.04913689, 0.039616622, 0.063213624, -0.014507322, 0.034325548, -0.0998206, 0.046326954, -0.034922358, 0.029970398, 0.10397609, -0.005662433, -0.041778684, -0.006244603, 0.0016760872, -0.009535624, -0.07132838, 0.06343277, 0.13460483, 0.01921705, 0.06906697, 0.09513303, -0.08805976, -0.013921587, -0.0813812, -0.060263958, -0.0042466177, 0.0036397192, 0.027106242, -0.07200633, 0.015566771, 0.05592656, 0.03115364, -0.020846501, -0.030266177, -0.061745085, 0.10027294, 0.061604306, 0.058217738, -0.008588396, 0.019107886, -0.04213929, 0.15521389, -0.022691442, 0.07177004, -0.14061455, 0.0024506447, -0.10637225, -0.023672877, 0.037095886, -0.007577544, 0.001691469, -0.04724297, 0.09513949, 0.073879, -0.02356148, -0.0003139527, -0.094560176, -0.012563903, -0.050116256, 0.109220445, 0.060631037, -0.054177724, 0.01582406, -0.025414808, 0.012152579, 0.035548516, -0.002130719, -0.019092845, -0.044325795, -0.112824254, 0.007360817, -0.074977905, 0.073436156, -0.15973215, -0.046707876, -0.10874737, -0.075022176, 0.10221059, 0.022443566, -0.1099809, 0.08143887, 0.018582447, 0.06256074, -0.10921064, 0.027024178, -0.032809373, -0.027761204, -0.08310099, 0.1070086, 0.10258863, -0.009425763, 0.023735147, 0.007552711, 0.011232287, 0.029237531, -0.049075328, 0.027935326, -0.019746652, -0.00940918, 0.04902162, 0.0144362645, -0.05494232, -0.042070262, 0.014273835, 0.12474721, -0.11268639, 0.07321716, 0.02210781, -0.11581296, 0.0037251615, 0.12477716, -0.053341344, -0.0024958793, 0.13188288, 0.016362425, 0.008935522, -0.034480307, -0.0018227872, -0.05279116, -0.013469442}, 
{0.10024201, 0.059337873, -0.096381195, -0.016416905, -0.061374046, 0.16487186, -0.12446941, -0.15664807, 0.13412009, 0.016464079, -0.04054535, -0.1319017, 0.046309233, 0.0110662645, 0.114317246, 0.028918155, 0.022099143, 0.12575245, 0.119149484, -0.030931449, 0.18134819, -0.02805907, -0.012016562, 0.061524127, -0.009670588, -0.10733789, -0.08572172, -0.04851497, 0.07706635, -0.088725485, -0.020044703, -0.05907267, 0.029217519, -0.09543966, -0.046347134, 0.04076804, 0.0250488, 0.06726723, -0.022050384, 0.08080651, 0.015391355, -0.09845673, 0.005869215, 0.018597178, 0.053029068, -0.007126081, -0.005232038, -0.14404269, 0.045016903, 0.06332208, -0.071948625, -0.05281163, -0.102749705, -0.043364674, -0.07496294, -0.11362301, 0.096320786, -0.10569001, -0.0005708053, 0.09399499, -0.0961043, -0.122891866, 0.04163466, 0.059614502, -0.0977884, 0.062497243, 0.041823283, -0.06924683, 0.028174803, 0.095439866, 0.030344138, -0.019460132, 0.105713114, -0.09815017, -0.019644467, 0.019884832, 0.0017155091, -0.15803392, 0.0713768, 0.001687789, 0.0029133488, -0.056241825, 0.059871208, -0.13294522, 0.15167116, -0.03212381, -0.09543555, -0.022143535, 0.04712791, 0.019217957, 0.01676778, -0.071609415, 0.026906798, 0.003020626, -0.025551518, 0.05011638, -0.0017450585, 0.02151417, 0.06230513, 0.08017975, 0.04681898, -0.019663826, -0.019815471, -0.11866195, 0.042446826, -0.016160125, 0.04262886, 0.046006046, 0.18213858, 0.030274458, -0.07625685, 0.0048288675, -0.0018860315, -0.16199365, -0.11272022, 0.10504832, 0.064070225, -0.0219812, -0.028511606, -0.020671811, 0.022353124, -0.043864653, -0.06145698, 0.01677206, -0.10641715, -0.029148482, -0.047984023, -0.012980852, 0.037534848, 0.13598923, 0.026055308, 0.06783508, -0.10192435, -0.10377828, 0.022599628, -0.011480227, -0.1286507, -0.052814376, -0.039883137, 0.064915426, -0.03052649, -0.055287622, -0.0027571411, -0.059262294, -0.0028531987, 0.040033877, 0.038800694, -0.05014879, 0.05574008, -0.06526633, -0.034901436, 0.076587096, -0.0929685, -0.03988965, 0.013396866, 0.020730043, -0.02268583, -0.06182111, -0.14420073, 0.070710644, -0.012312776, -0.053110227, -0.09649612, -0.071918644, -0.119479805, 0.056950536, 0.04559183, -0.118886285, -0.032787055, -0.07929508, -0.016041614, 0.03691441, -0.024245808, 0.15819468, -0.061737027, 0.03953878, -0.11280692, 0.08219738, 0.013915561, 0.037024207, 0.0395821, -0.067677595, 0.0405394, -0.09874755, 0.114728905, -0.02458211, 0.053370506, -0.04352098, -0.048555274, -0.020179715, 0.017749112, 0.0040730652, -0.09169394, 0.14368048, 0.07185329, 0.055634312, -0.0021507735, 0.0852716, 0.036431458, 0.077915244, 0.12875788, -0.03378013, -0.0074574794, -0.09891309, -0.08783226, -0.071324944, 0.06588467, 0.012344329, -0.021843422, 0.11010947, 0.0015202612, -0.019091776, 0.11736857, -0.013019799, -0.047039416, -0.066460356, -0.03599247, 0.100932896, -0.0063815117, -0.08967189, 0.02071924, -0.08396686, -0.008903284, -0.07529409, -0.00045271797, 0.10012124, -0.021488704, -0.043474432, -0.012126797, 0.035827756, -0.018804934, 0.036485408, -0.012636099, -0.08594376, -0.022953624, 0.06382598, 0.059540596, -0.06784071, -0.041901767, -0.04543084, -0.0010622563, 0.018435014, -0.027114647, 0.1791848, 0.018244263, -0.050637767, -0.045442134, -0.02186666, 0.09284267, 0.05396613, -0.042053703, -0.0192564, -0.06482608, 0.031696953, 0.0060974527, -0.08255461}, 
{-0.0738947, 0.112650864, -0.04834026, 0.019054856, 0.15759352, -0.0449272, -0.15232556, -0.073858224, -0.00021283446, -0.09644932, 0.0062504513, -0.026803508, 0.00053946226, -0.07993824, 0.024594098, -0.13457413, 0.028954854, -0.09908962, -0.14678878, -0.03021632, 0.07132969, 0.013911624, 0.05917499, -0.06732806, 0.00044063607, 0.08970189, -0.026275588, 0.062088225, 0.055223677, 0.08716255, -0.076502725, -0.0081613865, -0.018487282, -0.01186293, -0.031075148, 0.09534994, -0.034018222, -0.042624187, -0.00886002, -0.0131473495, -0.03551803, 0.061626457, -0.04986275, -0.043447234, 0.08985274, -0.027504053, -0.18749054, 0.08928168, 0.059478544, 0.060532246, -0.08302276, -0.055723984, -0.12603968, -0.033900395, -0.08133493, -0.07399859, -0.04537968, 0.09604413, -0.0051075118, -0.09538121, -0.097914174, 0.06784384, 0.08205862, 0.06869777, -0.015953258, -0.0152207585, -0.10478919, -0.01812213, 0.043914925, 0.05744227, -0.052526396, -0.111848935, 0.08972829, -0.15531245, -0.08212099, -0.02914901, 0.002172274, -0.02155378, 0.0045384327, 0.018593555, -0.14201973, -0.02995535, -0.056153994, -0.023546558, -0.005314072, -0.053147692, -0.09218844, 0.009230421, -0.042667758, -0.08232416, -0.1287367, 0.0041057067, 0.07090888, -0.026402658, -0.09687223, -0.013149937, 0.008796088, 0.008310173, -0.14474042, 0.08419354, 0.16672471, 0.057592947, -0.016252175, -0.07505525, -0.09850252, -0.07736401, 0.05992061, 0.0006535968, -0.008606234, -0.01543018, -0.14316945, -0.12883857, -0.09582619, 0.019356392, 0.17758082, -0.027323779, 0.042911936, 0.009281155, 0.023600413, 0.073603824, -0.036526926, 0.04425394, -0.065302394, -0.045033403, -0.08915752, -0.08271417, 0.09473755, -0.01590675, -0.029811803, -0.022950744, 0.08388916, -0.0018711084, -0.032227807, -0.048256658, -0.12031315, 0.11263635, -0.05017767, 0.07873098, 0.047046714, 0.026849166, -0.029020876, -0.10931553, 0.06997455, 0.07836066, -0.0093483105, 0.043329526, 0.09142449, 0.019575654, -0.027297791, -0.10722561, -0.052032374, -0.23401913, -0.07146754, -0.11071874, -0.063925065, 0.017509528, -0.08907217, -0.06469003, -0.06961543, 0.018619448, -0.11243852, 0.037124526, -0.0424972, -0.08464694, -0.24667013, 0.052672792, 0.035863873, 0.08189801, -0.09397456, -0.082606375, -0.07973614, 0.03326005, 0.03918086, 0.05064339, 0.07245662, -0.03267505, 0.049239412, 0.004294327, -0.018026525, -0.022430142, -0.012977847, 0.106274396, 0.011561612, 0.09052169, -0.013162148, -0.12139755, 0.04416646, 0.0051096994, 0.033175904, -0.023093607, 0.15653285, 0.02829719, -0.018409153, -0.006265697, -0.06485246, 0.085904, -0.037162162, 0.0059585953, -0.031564347, -0.076346956, -0.051069245, -0.16922702, 0.04523955, 0.021683928, -0.046589915, -0.031249015, 0.101610094, -0.04063669, 0.083008215, -0.01609246, -0.07208249, -0.025367942, -0.02350572, -0.055806473, -0.13400824, -0.048137594, -0.11472188, -0.098036975, -0.11318123, -0.09721182, -0.0077571934, 0.04045866, -0.03134608, -0.02296025, -0.022397237, 0.07401119, -0.124271855, 0.11777905, -0.03832065, -0.036567554, 0.017744424, -0.061861012, -0.043849085, -0.08453957, -0.027350465, 0.03565717, 0.013320872, -0.06878566, 0.018238885, -0.006483681, -0.049976174, 0.088751, 0.09128699, -0.0866462, -0.098063655, -0.031022886, -0.04514171, -0.05208203, -0.010941631, 0.10614658, 0.036303442, -0.027087322, -0.120077334, 0.020135581, 0.0056497897, -0.0228442}, 
{-0.042229105, -0.03306277, 0.015044854, 0.09025603, 0.011730527, 0.13220933, -0.13479939, 0.01806405, 0.011482559, 0.0892385, -0.057285134, -0.19650905, -0.0108830845, 0.02268864, 0.14364822, -0.009796404, -0.05858226, -0.050910044, 0.018066823, 0.08175146, -0.012483255, -0.053088695, -0.018282901, 0.019669734, 0.113455884, 0.14388388, -0.11578735, -0.07469484, -0.04312984, -0.07005702, 0.015643252, -0.01622953, 0.096618816, 0.14209162, 0.01627247, -0.10327065, -0.10083449, 0.0626739, -0.047990017, 0.059421703, 0.074770406, -0.0074355933, -0.087343305, 0.10314917, 0.009630195, -0.019775556, 0.041175254, -0.081279114, -0.050590504, -0.040183157, -0.06937261, 0.05620343, 0.09305743, -0.018878534, -0.08116492, -0.08084712, -0.02198853, -0.10288249, 0.10836234, 0.033228178, -0.027933273, -0.09610941, -0.076093964, -0.010695778, -0.025371231, 0.0076277535, 6.273588e-05, -0.039013185, 0.014947529, 0.08435095, -0.11530675, -0.1684832, 0.046885416, 0.14983068, -0.13928899, -0.0143903475, 0.083599955, -0.047428682, -0.08789856, 0.056917485, -0.10988068, 0.07549576, -0.0027764947, 0.00017793661, 0.0018227686, -0.058343846, -0.07589183, -0.008845713, 0.10123168, -0.043217696, 0.01061182, 0.13938585, 0.015148187, 0.03414853, 0.020280348, -0.0042469683, 0.0483328, 0.07504833, -0.020516245, 0.053373814, -0.00965498, -0.056116372, -0.097211316, -0.00029532824, 0.07431733, 0.09440827, 0.07006281, 0.00015017201, -0.11739173, 0.10982064, 0.053247914, -0.06340068, 0.05441441, 0.044057548, -0.10122535, 0.09858095, 0.096629195, -0.045288097, -0.06448184, 0.006538356, 0.10248459, -0.009215083, -0.10245016, 0.10306903, -0.015320795, -0.011129969, -0.04429841, -0.045906484, -0.010974921, 0.02678098, 0.05078513, 0.022090103, 0.07011815, 0.05201539, -0.015917348, 0.0236773, -0.032054827, -0.08701437, 0.04214587, -0.091561586, -0.028757883, 0.19282642, -0.034331445, -0.038071945, -0.062648855, -0.06795191, 0.02821491, -0.0016510888, -0.012178975, 0.1642548, 0.0077086724, 0.033147383, -0.09706902, 0.015006724, -0.038431603, 0.015708566, 0.07512393, 0.016946169, -0.12861672, 0.005462725, 0.011520129, -0.0046967734, -0.013951654, 0.06133171, 0.05084866, -0.008724461, 0.043865956, -0.048540287, 0.005606676, 0.06209474, -0.118727945, 0.016462931, 0.015675368, 0.097728334, -0.0017297899, 0.015016787, 0.003582471, -0.112004, -0.04367847, 0.03945647, 0.08930867, -0.032967623, -0.07396443, 0.021961924, -0.03873593, 0.05112189, -0.02157445, -0.03453592, 0.038838472, 0.10668762, -0.0961544, 0.012288246, -0.019227892, -0.039482657, 0.06163408, -0.03749725, 0.02609297, 0.09097476, -0.020168444, -0.07576402, -0.026948027, 0.11888775, 0.06803549, -0.07562941, -0.015149308, 0.045675118, 0.008421002, -0.041568603, -0.12076465, 0.011859622, 0.049533974, -0.026944764, -0.004525424, -0.07582612, 0.0016074398, 0.06877513, 0.121285684, -0.10109029, -0.16157717, 0.13049197, -0.10007383, -0.08330181, 0.05330188, -0.0733133, 0.040290695, 0.0063002775, -0.07924373, -0.040122073, -0.027928682, 0.013529676, -0.0433586, 0.046405334, 0.15881069, 0.0049253744, -0.014124666, 0.046182998, -0.12377315, 0.010384534, 0.05006552, 0.08817257, -0.16454211, 0.03207558, -0.17427573, 0.0008631035, 0.05285742, 0.0088848965, 0.033134572, -0.07504963, -0.037401, -0.044168394, 0.034658678, 0.14802787, 0.031964965, 0.015112335, -0.12750125, -0.09020963}, 
{0.0400615, -0.009552994, 0.066599846, 0.0057467553, -0.15071768, 0.110765785, -0.036578063, 0.061632074, 0.0026168358, 0.013968841, -0.03556298, -0.015370829, -0.0028334777, 0.03432666, -0.02723987, -0.041432746, -0.07973301, 0.098035015, -0.032328192, 0.15858606, 0.17087124, -0.13112909, 0.03860477, -0.05109934, -0.0012374594, 0.03230916, -0.010474997, 0.108961366, 0.16107814, -0.13521913, 0.11778467, -0.0070647984, 0.09154196, -0.041895244, 0.09172832, -0.07051485, -0.08996952, 0.028724998, 0.0041090706, 0.023365242, 0.09784169, 0.010807798, 0.035478745, -0.07573697, -0.07362456, 0.16262019, 0.11751669, 0.084994145, 0.055839345, 0.022872942, 0.009948965, 0.17145838, -0.026751574, 0.11440568, 0.06910112, 0.0565341, -0.034486823, -0.024837805, -0.02854821, 0.008938406, -0.019739283, 0.010358163, 0.025468944, 0.018375421, 0.017928522, 0.04017648, 0.019993441, 0.02241284, -0.04666775, 0.062054552, 0.16458695, -0.037135746, -0.022336356, 0.029584084, -0.095437124, 0.013505811, -0.015505928, 0.07518791, -0.06469297, 0.06659505, -0.13536009, 0.062900424, 0.09319879, 0.093543164, 0.022663921, -0.014751223, 0.10928096, 0.016693944, 0.0500064, -0.019832248, -0.015488561, -0.04667271, 0.13280773, -0.07714568, 0.1374167, 0.16437392, 0.08321565, 0.014632885, 0.06672981, -0.033382524, -0.118106306, -0.101758495, 0.04369082, 0.21071745, 0.0881459, 0.06372706, 0.025474148, -0.06331377, -0.18793356, 0.10108147, 0.1089067, 0.0007011656, -0.15366073, 0.015272203, -0.03127029, 0.12158942, 0.003223607, 0.0698858, -0.072057314, -0.02535182, 0.09560058, 0.009226874, 0.10047648, -0.02679546, -0.06872752, 0.0063465233, -0.10175638, 0.029113155, -0.12627853, -0.042612817, 0.01447151, -0.10223242, 0.063933566, -0.011509252, 0.046942312, -0.07809875, 0.051866803, -0.07091258, 0.022883577, -0.094114386, 0.048044477, 0.09698213, -0.0075882906, 0.018141495, 0.042765785, -0.009613711, 0.033364907, -0.073900454, -0.11617917, 0.09476567, 0.1867856, -0.06962277, 0.07473938, -0.03572668, -0.097928196, -0.16241372, -0.12404292, 0.08469828, -0.12268796, 0.07470554, 0.043800227, -0.031494945, -0.008090628, -0.1092531, 0.12304058, -0.041946817, -0.01724255, -0.10968362, -0.008041172, -0.00082397327, -0.04640624, -0.048336037, -0.0003490918, -0.060463138, -0.05292286, 0.041482843, 0.057880003, 0.102676004, 0.01715148, -0.047164697, 0.049905773, 0.095337294, -0.04630811, 0.031124724, 0.013005106, 0.10361323, 0.020853061, -0.15833086, 0.016416129, -0.095327966, -0.04999536, 0.008291559, -0.111243755, 0.09677183, 0.11631135, 0.011270651, 0.021024805, 0.13594069, 0.058736563, -0.006612785, 0.017823584, 0.040744778, 0.0627062, 0.022841645, -0.0436511, 0.15150775, -0.010870317, 0.08291794, 0.0012515433, 0.09692577, 0.099920675, 0.14729396, -0.026251756, -0.026807707, -0.04482015, 0.017445788, 0.074414626, 0.07438498, -0.015846409, 0.13441287, 0.038266946, -0.029163832, 0.033899937, 0.12974824, 0.12652078, 0.029492892, -0.031761788, -0.10709907, -0.0040465593, -0.076152906, 0.020169701, 0.069782354, 0.0708542, 0.08288958, -0.06394536, 0.098625064, -0.04209503, 0.14282775, 0.046977736, 0.033553958, 0.06782374, 0.08993267, 0.02774959, 0.111667246, -0.024730707, 0.067770734, -0.12196155, -0.021992104, 0.0187728, -0.07115356, 0.031539813, 0.099758066, -0.0066796923, 0.037153117, -0.062119316, -0.026989251}, 
{-0.04434366, -0.032026973, 0.039599948, -0.020131342, 0.1658374, 0.030491635, 0.009958711, 0.124665216, 0.033755932, 0.061326977, -0.0739029, 0.028284404, -0.08067542, 0.104119755, 0.033271994, -0.015245187, 0.0030404902, -0.03171996, 0.09132132, -0.053558484, 0.003879983, 0.031715628, -0.0350234, 0.028758334, -0.04289121, 0.17479703, 0.14700755, -0.009422858, -0.041146237, 0.0886793, -0.0016948191, 0.11660333, 0.029304815, -0.099194914, -0.06104735, -0.02539516, 0.04291564, 0.10169584, -0.047281362, 0.112724476, 0.028305871, 0.038980015, -0.04566846, -0.084508166, 0.033997726, -0.028562674, 0.07197085, 0.030151373, -0.16505568, -0.1173463, 0.0036680799, -0.11652042, 0.011384327, 0.063785024, 0.117740974, -0.003163163, -0.041421797, 0.04329223, -0.08072816, -0.09761242, 0.0014070024, 0.12617342, -0.025661666, 0.102856286, -0.0012119651, -0.04254859, 0.05739336, 0.038032357, -0.009715442, -0.15642427, -0.029285833, 0.04305753, 0.011218651, 0.079656824, 0.08861001, -0.0031750922, -0.050911456, 0.048402697, -0.060981303, -0.21218506, -0.019498153, -0.047277987, -0.020611392, -0.08907986, 0.022304581, 0.084588915, 0.008913367, -0.04461227, -0.027968433, -0.060345035, 0.07623277, -0.04097086, 0.0069393627, 0.0740805, -0.033684127, 0.11649046, -0.047173213, 0.09494173, -0.013629686, 0.012650399, 0.07581408, 0.0039423658, 0.028999798, -0.059555843, -0.061906975, 0.13250321, 0.032949146, -0.12604108, -0.038682304, -0.11776017, -0.019852934, -0.026391217, -0.0052532367, -0.0018412555, -0.06017181, 0.0018966233, -0.11624104, -0.035392605, -0.022714673, 0.03237804, -0.034139536, 0.085297056, 0.01068474, 0.057784144, -0.0492045, 0.091671206, -0.07200536, 0.052080687, -0.0014032604, -0.06483365, 0.040829174, -0.058322437, -0.04780297, -0.048177507, -0.039517254, 0.013505245, 0.07233548, 0.101224855, -0.12734254, -0.02336264, -0.009254323, 0.08849048, 0.04666282, -0.07461301, -0.11393872, 0.019292215, -0.08107355, 0.034760434, 0.15086865, -0.0071401135, -0.049180657, -0.10635721, -0.001442207, 0.03586246, -0.011924072, -0.012419126, 0.022951052, -0.102546036, -0.013132895, 0.013861805, -0.009514711, 0.044634536, 0.046391204, -0.11431162, -0.009890231, -0.00830524, -0.07249754, -0.08887356, -0.028688574, -0.036007337, 0.10627479, 0.031253148, 0.10418471, -0.06984366, 0.06328626, 0.13481303, 0.09569708, 0.038457353, 0.084118076, 0.05145953, -0.060630854, -0.04813855, 0.15146068, -0.008085663, 0.06071027, 0.012209986, 0.03339638, -0.019642143, -0.16995934, 0.068172, 0.019094499, -0.045804154, -0.0758763, -0.1275188, 0.050615825, 0.08919454, 0.07653784, -0.04367436, 0.018295042, 0.012905162, -0.07254708, -0.055184413, -0.0057303603, 0.13637823, -0.02837498, 0.09262418, -0.086394764, -0.12008482, 0.06587027, 0.016740566, 0.11529783, -0.047952868, 0.0082340855, 0.0064830948, 0.050966065, 0.02947028, -0.22483209, 0.013682936, 0.014647784, 0.101253316, 0.034733754, 0.10355015, 0.04847431, 0.031290982, 0.105128504, -0.039073788, -0.052024323, 0.11751827, 0.07803456, 0.0984172, -0.04684017, 0.11380534, -0.11285662, -0.07552805, 0.03253942, -0.017383488, -0.009086741, 0.06435718, 0.014906503, 0.0517131, 0.006208242, -0.040167876, -0.044583306, -0.048321478, 0.012858918, 0.058208745, 0.037906207, 0.01877043, 0.07109204, 0.09375909, 0.15170527, -0.05842212, -0.11565428, -0.058843613, 0.03279146, -0.06054878}, 
{0.019980114, 0.020926697, 0.02253904, 0.0028099243, 0.03681389, -0.018843578, -0.008167859, -0.066221945, 0.02250065, -0.108634025, 0.08991957, -0.049497176, 0.056823768, 0.13658941, 0.069005206, 0.11950922, 0.037316073, 0.1107891, 0.10660982, 0.06730785, -0.047438696, -0.052816283, -0.058423754, 0.04602471, 0.058979947, -0.13946073, -0.029168464, -0.012594501, 0.010378532, -0.048790693, -0.036413245, -0.034104846, 0.07033927, 0.103022166, 0.06781074, 0.16058728, -0.06296479, -0.048598178, -0.00078897446, 0.12594052, 0.14361103, 0.0006901742, 0.03719118, -0.078055315, -0.06976632, -0.10973807, 0.011151996, -0.0917669, -0.09901435, 0.042664137, -0.08339655, 0.096342504, 0.029019384, 0.11980669, 0.08026063, 0.04079008, 0.087645024, -0.047555372, -0.03129724, 0.06855878, 0.0127287535, -0.10802837, 0.06697984, -0.07395035, 0.06217247, 0.17991433, 0.15777884, -0.0045771655, -0.010477014, -0.04527148, 0.17061518, -0.07190727, 0.12539576, -0.062417407, -0.11560452, 0.09832311, 0.014241116, -0.063348606, 0.09200851, 0.08899973, 0.03826724, -0.041053697, 0.059807234, -0.042209856, 0.054186687, -0.059869073, -0.020535316, -0.024398621, -0.04290375, -0.070359014, -0.033955306, 0.055705715, 0.108300276, -0.109459825, 0.1399692, -0.14223851, -0.03685234, 0.049079157, 0.016224196, 0.031816565, 0.10109363, 0.014901062, 0.07174353, -0.024018155, -0.03762429, 0.093522, 0.011049131, 0.0015752042, 0.036688775, 0.032322206, 0.10227631, 0.00025654054, 0.020819366, 0.0074096755, 0.016552102, 0.024912275, 0.11883145, 0.04054232, 0.10021129, 0.039914478, 0.19353177, 0.011431764, -0.0032274234, 0.1257458, -0.024960322, -0.06362573, -0.13533604, 0.0049645826, 0.06696698, -0.0052778944, 0.011230335, -0.043818574, 0.02969072, 0.13392922, -0.0449894, 0.07702666, 0.066735186, -0.019603988, 0.018850634, 0.05462737, 0.0661812, -0.030936828, 0.1494287, 0.12962592, -0.0020367107, -0.030621117, -0.024365127, 0.084800854, -0.021480314, 0.11863072, 0.015277862, -0.01671354, 0.11844348, 0.024939016, -0.092888884, 0.042286865, -0.02093107, 0.027454695, -0.21230732, 0.0022751675, 0.03545481, 0.11958398, 0.031026652, 0.13761427, 0.03204966, -0.049980607, -0.004112161, 0.04245536, 0.05477294, 0.05328711, -0.03881006, -0.009656111, 0.03814885, 0.017344901, 0.047727406, -0.009290969, 0.06526417, -0.07244937, 0.039212845, -0.00932941, -0.098560624, 0.06290159, 0.036127586, -0.0026674285, 0.047452684, -0.04256579, -0.07126379, -0.037211597, -0.03355548, -0.02397165, 0.06259535, -0.08886972, 0.046881605, -0.013582159, 0.0073835184, -0.03845983, 0.06633213, 0.040449955, 0.14062169, 0.058561973, 0.065858, -0.104886904, 0.08398435, 0.09771953, 0.05760728, 0.010203752, -0.03057498, 0.044980362, 0.06187207, 0.16446649, 0.108895265, 0.0642512, 0.10205102, 0.004282061, -0.031150592, -0.08344736, -0.014752525, -0.04774566, -0.009398761, 0.053237196, 0.030096922, -0.05323011, 0.018295802, -0.07660755, -0.020407436, 0.0380887, 0.05503207, 0.035115942, 0.05758988, -0.07004698, -0.036481492, -0.045051586, 0.02878725, 0.047506943, -0.024437774, 0.08025586, 0.13634136, -0.05551937, 0.059145402, 0.06752256, 0.053806532, 0.032000978, -0.05431541, 0.116232246, 0.06385073, 0.014709824, -0.034512293, 0.040985007, 0.026801595, 0.09508957, -0.10336505, 0.04694839, -0.052766573, -0.05970595, -0.071099766, 0.010077707}, 
{-0.0958424, -0.13099127, 0.11377585, -0.09903935, -0.0037114036, 0.047472183, -0.18413441, -0.13114609, -0.06936145, -0.0036834893, -0.020041574, -0.13951027, -0.02186605, -0.03141853, 0.060205337, -0.049431898, -0.17681007, 0.0062792213, 0.028933235, 0.10438746, -0.047406405, -0.05876127, 0.004056696, -0.0046264487, 0.0634745, 0.007890838, -0.014124776, 0.08673614, -0.009903018, -0.11646534, 0.024352964, 0.0328688, 0.030356975, 0.013128525, -0.01968047, -0.13959387, -0.08603375, -0.12811802, 0.035054218, -0.00026928112, 0.025791662, 0.08273033, 0.0485384, 0.12905473, -0.0024753127, 0.015126915, 0.00021970895, -0.014614907, -0.030003503, -0.029191818, -0.024324302, 0.12510318, -0.010411471, -0.067295365, 0.018398516, -0.03784845, 0.026609749, -0.104140304, -0.18107516, 0.04674769, -0.011038658, -0.046981633, -0.11778969, -0.055002384, -0.19740473, -0.09287299, -0.088789344, -0.09940112, 0.042876087, 0.123360194, -0.013223638, 0.026612723, 0.008162859, 0.107749656, 0.05703112, -0.087644055, -0.01383565, 0.041932605, 0.03364749, -0.07753586, 0.04301653, -0.056877, -0.06181093, -0.009758885, 0.03584362, -0.039577108, 0.11204147, 0.1273844, 0.026118232, 0.009629479, -0.060052734, -0.008075824, 0.036603723, -0.1381399, -0.001647342, -0.0763994, 0.08035355, 0.054990817, 0.0086871805, 0.06578929, -0.06312045, -0.0073849084, 0.06261398, -0.033501204, 0.053652234, -0.10134344, -0.1017114, 0.05578969, -0.023883373, 0.075223826, 0.13765146, 0.061781067, -0.15293375, 0.06178206, 0.027506582, 0.03867716, -0.045782227, -0.0024418738, -0.045784343, -0.05655819, -0.08519454, -0.0058098673, -0.03730346, 0.16347694, -0.093814954, -0.0061986917, -0.08176766, 0.003677183, -0.026611399, -0.04808582, 0.12870489, 0.08224782, 0.1142542, 0.117307074, -0.053739104, 0.050889086, 0.03033088, 0.07579969, -0.06236798, 0.05665633, 0.066941194, 0.016516527, -0.05437983, 0.03696276, 0.079882346, 0.12389916, -0.045702863, -0.049337078, 0.08369374, 0.080597684, -0.024768464, 0.020367298, 0.019657431, -0.07190161, 0.0052046767, -0.11699279, -0.04415924, 0.03316238, -0.10009698, -0.024142835, 0.0020344567, -0.10905985, 0.00771936, -0.03980421, -0.01499172, 0.065983124, 0.070657775, 0.026119208, 0.11809072, -0.015320667, 0.06478981, -0.028725328, -0.005360792, -0.055044293, 0.03035067, -0.027530162, 0.017806636, 0.017487824, 0.031200636, 0.10370386, -0.065647066, -0.11694422, -0.040598717, 0.036733214, -0.026674986, -0.077718586, -0.081640966, -0.045644596, -0.023871144, 0.022487069, 0.06694823, -0.04956391, -0.08175935, 0.089199126, 0.09797291, -0.119694196, -0.009479458, 0.073175944, 0.064548485, -0.03849867, 0.12800059, -0.033714715, 0.18065242, -0.1014765, -0.050103135, -0.023567451, 0.018378226, 0.0033527904, 0.014987318, 0.043985378, -0.09585098, -0.039766066, 0.12351655, 0.029665766, -0.056333467, 0.16050069, 0.087132305, -0.022837969, -0.06296593, 0.06772226, -0.047152877, 0.019656315, 0.05227215, 0.008451244, 0.11686817, -0.045909286, -0.039170027, -0.019485338, -0.07425778, -0.00823854, 0.012522455, 0.09073261, 0.07323584, -0.012585457, 0.012817438, -0.026655342, -0.015128289, -0.07427551, 0.15659784, -0.02452443, 0.05406242, 0.018124115, 0.020973427, 0.06556726, 0.023860289, -0.020685099, 0.00058182696, 0.016563067, -0.07284264, -0.036004327, -0.08259435, 0.16603537, 0.04572073, 0.034718323, -0.090318315, -0.09773899}, 
{0.11330479, -0.036607023, -0.052338816, 0.103039086, 0.018552331, -0.04852505, 0.011226583, 0.029922172, -0.013380176, -0.08255708, 0.029295666, 0.103094265, 0.015335237, -0.11917104, -0.012338915, -0.034238372, -0.03814855, -0.050291784, 0.042116676, -0.08395211, -0.057364564, 0.019189797, -0.09506248, 0.004809491, -0.016751533, -0.072532885, 0.1066281, -0.002388973, -0.051844817, 0.11647096, -0.14325133, -0.08312939, -0.06811375, 0.023520492, -0.012421334, 0.014957601, -0.028288744, 0.010081014, -0.015633306, -0.07330286, -0.015425135, -0.046855636, 0.023047471, -0.07569054, -0.045597438, 0.072643474, -0.12566663, 0.023254348, -0.04776245, 0.07153105, 0.0933846, -0.060955595, -0.008689762, 0.12677391, 0.029541766, -0.2077568, -0.045493346, 0.117982574, 0.21226473, -0.07573905, 0.016112559, -0.06839763, 0.07411059, 0.0029973616, -0.053904258, -0.1736696, -0.102839, 0.07357433, -0.024363967, 0.0054484378, -0.12954408, 0.014494215, -0.04848897, 0.026300129, -0.031824738, -0.12208005, 0.0054722866, -0.023213737, -0.07877062, -0.02369241, -0.057216834, 0.0040865275, -0.031090053, -0.01511636, 0.05146874, 0.14974542, 0.030496225, -0.025662377, 0.038707286, 0.061002858, -0.034409106, -0.0069955257, -0.12346054, -0.0063915504, -0.1683477, -0.01958331, -0.0077219247, 0.09290478, -0.08322326, -0.05176742, -0.00070315803, 0.06879072, -0.009533684, -0.07048983, -0.05212332, -0.03645656, 0.042850945, -0.124840535, 0.024556777, -0.1471948, -0.13952607, 0.002327431, -0.036152925, -0.09215647, 0.091669664, -0.04946309, 0.02772854, 0.122104116, -0.036894783, -0.035164103, -0.018530564, -0.01305083, 0.046314806, -0.005585869, 0.08148402, -0.12980066, -0.08183833, 0.057427056, -0.12339966, -0.023735393, 0.055596408, -0.011931872, -0.021408848, 0.058856554, 0.041657615, 0.029289482, -0.022546854, 0.06231131, -0.098122075, -0.016582372, -0.029172052, -0.11490043, -0.024466364, -0.014588495, -0.032195073, 0.0072465288, -0.09624621, 0.057378978, 0.012391182, -0.05069173, 0.021814974, 0.014314483, 0.02780809, 0.019207127, -0.042202488, 0.10604225, 0.103416346, -0.022763766, -0.14844324, 0.06261317, -0.110846564, 0.021749705, 0.034238953, 0.17061378, -0.07641621, -0.044932738, 0.013054618, 0.09189076, -0.05322981, 0.023052955, 0.09424067, -0.023236243, 0.09076404, 0.0023724027, -0.012555695, -0.038482487, -0.039150614, -0.027096873, -0.05981089, 0.060042005, 0.09501145, -0.029952137, -0.018968152, -0.027014615, 0.00016812509, -0.041988958, -0.022722146, 0.06465086, -0.11621587, -0.01767703, -0.06402051, 0.028843116, -0.006899377, 0.082509704, -0.04784147, -0.09968902, 0.05515624, 0.029707428, 0.03557415, 0.06526514, -0.011566194, 0.019587671, -0.07691728, 0.059895348, -0.01303229, -0.06649626, -0.029486218, -0.037668724, -0.024613218, -0.11052861, -0.0064913873, -0.054852203, 0.12147652, 0.046609186, -0.19839393, 0.075651, -0.029594198, 0.04485037, 0.11999307, -0.022568794, 0.001694787, 0.04616159, -0.11655727, -0.112246394, -0.013640009, 0.16407076, -0.06850061, 0.102926806, 0.060232945, 0.088647984, 0.07862077, 0.004188292, -0.12118244, -0.071718514, -0.0895945, -0.0067060343, 0.01011399, -0.092098325, -0.040211502, -0.025034139, -0.14422761, 0.024159523, 0.07935006, -0.12290562, -0.033045456, 0.049888644, 0.011129168, 0.07989728, -0.005771864, 0.11145382, 0.13324559, -0.07839372, 0.015759893, 0.12621497, 0.01527428, -0.020662678}, 
{0.05999986, -0.044905696, 0.23492467, -0.049169164, 0.18616603, 0.09616849, 0.039927695, -0.11495471, 0.14183983, 0.042404287, 0.064416714, -0.015401781, -0.06290689, -0.12587059, 0.089264594, -0.02318754, -0.0072492696, 0.10136229, 0.04787517, -0.023442892, 0.13761528, -0.13333373, 0.07842382, 0.09506543, -0.045826282, 0.03291887, 0.050582476, -0.09317677, 0.014140732, -0.12276459, 0.094288096, 0.047986865, 0.021974124, -0.025617993, 0.05327593, 0.04839825, 0.00086038694, 0.015885787, -0.01632889, 0.06042126, -0.08380372, -0.02247148, -0.018312806, 0.025616098, 0.12490178, -0.03701921, 0.011776433, 0.009558462, -0.09272296, 0.09929724, -0.03732407, -0.14854822, -0.065776445, 0.0006962405, -0.028216736, 0.05086646, 0.11227528, 0.022621162, 0.047057275, 0.028562468, -0.10119243, -0.072074406, 0.03263792, -0.052079435, -0.042021476, 0.07237492, 0.092207484, 0.034844417, -0.093609735, -0.05888475, 0.10285308, -0.08520837, 0.02310219, -0.0452052, -0.01366097, -0.045050725, -0.17427509, -0.1083816, 0.15439463, 0.13104716, 0.021245059, -0.013018227, 0.09513018, -0.034489647, -0.0113166105, 0.048875835, 0.10859263, 0.12851736, 0.094055444, 0.007314227, 0.13110223, -0.0020194214, 0.035223726, -0.100829065, -0.05662267, 0.007646271, 0.020610783, 0.059424654, 0.043554574, 0.05097032, -0.058948476, -0.1205426, -0.016289175, 0.07641185, 0.007432083, 0.011319547, 0.037005372, -0.042692047, 0.11621191, 0.04847632, -0.034306254, 0.023046086, 0.027762385, 0.036230586, -0.02094316, 0.045676958, 0.05102302, 0.14330027, -0.010758926, -0.08713908, 0.10164792, 0.07666124, -0.023466034, 0.00671991, -0.07825914, 0.053689536, -0.11881102, -0.006695687, 0.02312134, -0.014772097, -0.034904335, -0.04065361, 0.0012462882, 0.1027262, -0.0731066, 0.009919648, 0.06764555, -0.116840325, 0.06975996, -0.0005557038, 0.013491063, 0.042235736, 0.12929751, 0.09370873, -0.010360661, -0.02954372, 0.05388189, 0.03802551, -0.026050055, -0.12341658, -0.054809347, 0.030676581, 0.030492717, 0.041797083, -0.061045833, -0.016232017, -0.048446883, 0.09861185, 0.010597358, -0.09435819, -0.061070777, 0.066970244, 0.0636652, -0.0013092444, -0.092306584, -0.14095461, 0.018792596, -0.038408108, -0.058791853, -0.18498506, -0.015220562, -0.0011278949, -0.012061202, -0.054998174, 0.039589126, -0.11556603, -0.058067445, -0.038911767, -0.052884612, -0.01143283, -0.045550812, -0.0102382, 0.005932178, -0.029967811, 0.02539319, 0.028775824, 0.029260008, 0.09278963, 0.07109153, 0.069234885, 0.00056907214, 0.09982338, 0.032427605, 0.00017674894, 0.018622193, -0.014939701, -0.103515185, 0.09999691, 0.03616014, 0.021256633, 0.10870302, 0.15181117, 0.027495176, 0.012645709, -0.0034868277, -0.04986963, 0.05623343, 0.039404433, 0.101859145, 0.017347315, 0.09589833, 0.014292574, 0.009820413, 0.030218223, -0.0039280565, 0.06595238, 3.1642852e-05, -0.023674162, -0.017381856, 0.014655589, -0.018459227, -0.079816625, 0.06786867, -0.08641461, 0.05548575, -0.07467293, -0.056622967, -0.008305811, 0.03703173, -0.06745031, 0.06728558, -0.036245845, 0.1432432, 0.094604634, 0.106079675, -0.05705759, 0.11120133, -0.0026350585, 0.06947672, 0.056037787, -0.17343116, -0.073972136, -0.028318314, 0.088668294, -0.011836762, -0.027590903, -0.0138131585, -0.04597384, 0.07830373, 0.11899597, 0.041902024, 0.077112176, -0.07280554, 0.008131261, -0.057382304, -0.05074472}, 
{0.10840959, -0.0045001744, -0.021572763, 0.06734236, -0.014731629, -0.005685965, -0.024137981, 0.029500827, 0.034290615, 0.0064353007, 0.034064274, 0.06423821, -0.017316207, -0.023824299, 0.06257353, -0.05238832, -0.013344935, -0.111950986, 0.024453012, -0.076437615, 0.022248864, 0.05464492, -0.16336082, -0.05446241, -0.02700574, 0.06438502, 0.12761356, -0.20535411, -0.12786171, -0.010124934, 0.029575389, -0.004825551, 0.058542695, -0.02606435, -0.043179043, 0.06517949, 0.06931612, 0.022903273, -0.0049093664, -0.016035596, -0.14052525, 0.060314324, -0.030368699, -0.00735874, 0.03321108, -0.06317786, -0.09625875, -0.13498986, -0.02902514, 0.06558678, -0.002991525, -0.06649347, 0.03621515, 0.02245499, -0.07787215, -0.102699555, 0.06536371, 0.0705544, 0.035264052, -0.0490519, 0.017576046, 0.020714337, 0.09063595, -0.02224089, 0.08057378, -0.0049122195, -0.007995966, -0.07873186, 0.05616073, 0.03574309, -0.028062498, 0.120771356, 0.06831587, -0.043747205, 0.117029384, 0.12868914, -0.050958976, 0.0034404937, -0.01328282, 0.094917566, 0.21438561, -0.046651103, -0.047406297, -0.07935921, -0.04814201, 0.066037044, 0.011706993, -0.053169135, 0.04397818, -0.09792034, 0.0047265557, -0.027870534, 0.05931651, -0.05781613, -0.028229063, -0.13169082, -0.013211583, -0.042132948, -0.028785786, 0.07137795, -0.0038201122, 0.058481157, 0.026190173, 0.025516864, -0.09487852, 0.034151603, 0.053706706, -0.008077896, -0.07676088, -0.008800045, -0.08496332, -0.051921114, -0.043498058, 0.0898942, 0.013972184, -0.07857915, 0.038668424, -0.07630724, -0.15306444, -0.09712342, 0.07709345, -0.048774097, 0.014076303, -0.07148802, -0.11064671, -0.090407535, 0.03278696, -0.09740222, -0.016903276, -0.011788491, -0.02961093, 0.109451786, -0.026774777, -0.07820965, 0.022906858, 0.040511478, 0.016145913, 0.057706766, -0.016041921, 0.112273216, 0.15295285, -0.16915612, 0.10803297, 0.07149244, 0.036345888, 0.10337871, -0.010139905, 0.062110737, -0.017116318, -0.019382158, 0.11928289, -0.01909892, -0.09167626, -0.032502223, -0.0690837, 0.022411784, -0.040534973, -0.06444172, 0.09797956, 0.0117404545, 0.018330649, -0.060932413, 0.0044257585, 0.0092335, 0.04382298, -0.11176224, -0.040157106, 0.033584885, 0.13675982, 0.08575027, 0.033616748, -0.089241184, 0.06491167, 0.0953333, 0.059545863, -0.010972815, 0.018977102, -0.0824605, -0.16094917, 0.11976658, -0.027437143, -0.029339928, 0.092342585, -0.008603755, 0.00042152804, -0.019192023, 0.005421581, 0.08164975, -0.03667456, -0.05548608, -0.04487209, 0.09228976, -0.06994117, -0.0049458854, 0.044256628, 0.023563964, 0.060112633, -0.0037352704, -0.035224475, 0.017897658, -0.028657962, -0.07995821, -0.05606682, 0.080140695, -0.049922798, -0.02075548, -0.06639985, 0.028797183, 0.19286294, -0.081496485, 0.057138804, -0.03754736, -0.07002977, 0.053647056, -0.123598896, -0.03414251, -0.10032413, 0.079368174, 0.06179133, -0.0037932205, 0.041630108, 0.06373408, 0.04900753, 0.0068652285, -0.06775761, 0.044776533, -0.04691541, 0.019676503, -0.020168178, 0.044519857, 0.027441708, 0.031240074, -0.123513944, -0.058849342, -0.035958514, 0.07173919, 0.003110671, -0.0769419, -0.0014443073, -0.02779358, -0.024775729, -0.052926946, -0.01620648, -0.1468084, 0.15838584, -0.049315263, -0.15425171, -0.15250932, -0.023788523, 0.0733184, 0.05107711, 0.019916927, -0.02525908, -0.00016992801, 0.04667053, -0.11534921}, 
{-0.045759197, -0.021630878, 0.04778861, -0.005786328, -0.05775327, 0.0135423895, -0.092268385, 0.037575487, -0.008938381, -0.13057338, -0.036950532, 0.07087454, 0.025093986, 0.07487553, -0.03293582, 0.049869474, 0.044239383, 0.07473749, 0.013127401, 0.032848552, -0.03597871, -0.07344382, 0.10464247, 0.01308949, 0.0035406468, 0.049089644, 0.1596359, 0.073355, -0.0043241717, 0.14891593, -0.06110658, 0.057616897, 0.07167834, 0.05064362, 0.03101273, -0.049024247, 0.04655038, 0.03777769, 0.046188112, -0.029978892, 0.052749418, -0.0022523843, -0.10718965, 0.026793811, -0.04260547, 0.06296482, -0.045148645, -0.07638874, -0.030786544, -0.05269255, 0.01691606, -0.07263439, -0.053582814, -0.026913436, 0.009306796, -0.106132746, -0.13202606, 0.0014566989, -0.022214945, -0.028018884, -0.060933545, -0.023248369, -0.049625624, 0.02662087, -0.03592927, -0.038041517, -0.048711695, 0.0775502, 0.018417573, -0.059935924, -0.1654528, -0.0054204254, -0.06569258, 0.010181712, 0.021163035, 0.2088869, 0.09891033, 0.018721849, -0.07021175, 0.0014983597, -0.050789397, -0.04872698, 0.012559809, 0.082713954, 0.012940968, 0.06335258, 0.14000742, 0.018108228, -0.089841954, 0.0024508692, 0.08888008, -0.115950175, -0.10302821, 0.0070011723, 0.04161527, -0.0882805, 0.09040647, -0.12341595, -0.07924946, 0.05951366, -0.0742408, 0.0144013995, -0.11907385, -0.0022740318, -0.0194628, -0.016413374, 0.007481311, -0.00069791835, -0.07134873, -0.097733565, 0.0929059, -0.1093942, 0.07313657, -0.071954675, 0.13346063, 0.08447181, -0.024299853, -0.019697003, -0.025445573, 0.011549281, -0.02377005, -0.049560327, 0.032284066, -0.09145776, 0.063148625, -0.0039279107, -0.0136850355, -0.08697707, 0.06990398, -0.06756025, 0.03463431, 0.040254477, -0.01873341, 0.0045705126, 0.020464169, 0.04734223, 0.07753481, 0.036458775, 0.044252038, -0.006725432, -0.030270385, 0.047525547, 0.0031220696, -0.046124116, -0.017079303, 0.13885218, -0.045330014, 0.033203498, -0.041808996, 0.061116874, -0.057116937, 0.061248407, -0.020786181, 0.1555787, 0.066670805, 0.016606897, -0.019950474, 0.070070446, 0.11701767, 0.07205037, 0.052068092, -0.13440284, -0.0101104295, -0.08060486, 0.019408654, 0.021853173, 0.0682064, 0.0626169, -0.0024511295, -0.0003606623, -0.04233621, 0.042746313, 0.04665244, 0.044987343, -0.014511756, -0.017481428, 0.014392853, -0.03425851, 0.029639482, -0.10607182, -0.05644707, -0.07869906, 0.033786703, 0.06001984, -0.09609195, -0.0276977, -0.05096252, 0.019627934, -0.058470704, 0.03803698, 0.0019389135, -0.008396515, 0.014058667, -0.0068279305, -0.033098973, 0.06556753, 0.04418149, -0.05584023, -0.01402106, 0.036650416, -0.05376386, -0.0848946, 0.033127435, -0.08027982, 0.08736095, 0.13198781, -0.008581102, 0.040670916, 0.0031039116, 0.012185452, 0.04938035, 0.066983595, 0.021558538, -0.015042037, -0.02548783, -0.0904129, -0.15056515, 0.06000955, 0.20365414, -0.07937265, 0.014544746, 0.07336147, 0.14941722, -0.08506232, 0.04919815, 0.07397406, -0.008584396, -0.07657136, -0.065176465, -0.020252973, 0.057804417, 0.031006053, 0.074064136, 0.1204211, 0.12718382, 0.006419047, -0.028311808, 0.07022208, -0.0782211, -0.007902279, -0.10285448, -0.092216775, 0.08919108, -0.07741807, 0.03628068, 0.04545956, -0.098839745, 0.1256936, -0.03847981, -0.041494723, 0.02124788, -0.083888344, 0.006007136, -0.08093404, 0.026387377, 0.12665115}, 
{-0.12329864, 0.007881481, 0.11615848, -0.01534922, 0.005002244, 0.055847216, -0.009668303, -0.096393995, -0.050477203, -0.042526953, 0.06580995, -0.13713293, -0.069976285, 0.20067735, -0.10639769, -0.11014361, -0.061419886, -0.041581735, 0.07181434, 0.026977057, 0.06448804, 0.040625755, -0.0332272, 0.22744408, -0.07138923, 0.012295023, -0.114711195, 0.20754248, -0.048205484, -0.07105497, 0.09638156, 0.017952222, 0.068399906, 0.017250476, -0.012519471, -0.07427231, 0.014195729, -0.045058064, -0.023186306, 0.07066341, 0.009358221, -0.017100085, -0.00046583198, -0.008200948, 0.03877631, 0.036732208, 0.046971533, 0.0013347103, -0.08490567, -0.020410305, 0.022544427, 0.0919379, -0.011993903, -0.05246875, -0.016773287, 0.040477358, -0.06565462, 0.023309443, -0.03272208, 0.039366305, 0.0074435985, -0.055666927, -0.10194024, 0.037239376, -0.003036205, 0.026393512, 0.044358727, 0.043387327, 0.12405065, -0.0100707, 0.011817424, -0.020107394, -0.032182306, 0.117410995, 0.0055748657, -0.039218836, -0.066853866, -0.055335656, -0.11452497, -0.11124768, -0.09802947, -0.034373503, -0.060047846, -0.048368383, -0.0026141757, 0.033562418, -0.13154471, 0.078304335, -0.06075625, -0.1674125, 0.031547524, 0.06789109, 0.15625414, -0.05657182, -0.052571476, -0.053328484, 0.044603996, 0.015294032, -0.0017022523, -0.13644814, -0.1824649, 0.018028336, 0.04754726, 0.13020757, 0.0015161806, -0.07073998, -0.08516198, 0.05872362, -0.09968379, 0.053142253, -0.06433057, 0.00013868911, -0.039433043, -0.091474585, -0.10621915, 0.10049744, 0.036611304, -0.076233834, -0.022025004, -0.12527107, -0.03378564, -0.20862475, 0.042866085, 0.070491575, 0.022657732, 0.0874187, -0.07283084, -0.06239163, -0.0030892894, -0.112970695, -0.047254354, 0.03280976, -0.030331599, 0.1510036, -0.0919232, 0.09928086, -0.06953895, 0.11269935, -0.095435806, -0.089896396, 0.060156174, 0.04879029, 0.10748073, -0.06092814, 0.08050654, 0.049979866, -0.019649848, 0.029123737, 0.028613303, -0.07134374, -0.00045440142, -0.010349645, 0.04499209, 0.011672193, -0.11223474, 0.09680847, 0.09510766, 0.12394832, 0.0009763202, 0.069852285, 0.07784993, 0.009132757, 0.014338133, -0.026468992, 0.07702048, -0.058893796, 0.0045192805, -0.041064166, 0.062479068, -0.041279472, -0.0963021, 6.8000125e-05, 0.053367093, 0.008293134, -0.04731643, 0.12549846, 0.05591926, -0.069346555, -0.03182893, 0.023556147, 0.0320612, -0.03294626, -0.053589888, 0.006978937, -0.14842765, -0.027828733, 0.12574305, -0.010421715, 0.03054165, -0.032425523, -0.11934566, -0.014651689, -0.06796751, 0.010000837, 0.050312866, -0.17573561, -0.011726134, -0.09673555, -0.07001017, -0.081782505, 0.04962772, 0.09829706, 0.0550138, -0.010609199, -0.017775387, 0.06800042, -0.01032863, 0.09312897, -0.121128336, -0.022546899, 0.077904895, 0.15436278, 0.14477867, -0.0777951, -0.0961733, 0.0787451, -0.01803774, -0.02394396, 0.011357918, 0.10208164, 0.0155153675, -0.009375983, 0.078601256, 0.03372041, -0.07111949, 0.030849142, -0.034088578, -0.08763178, -0.040609162, -0.038089864, -0.049367193, 0.052707016, 0.052583605, -0.008231604, -0.10263448, -0.08377403, 0.035091434, 6.1020324e-05, 0.01050141, 0.037180338, 0.0045115887, -0.0036815754, -0.06731671, -0.045836844, 0.07447801, -0.04292624, -0.054017164, -0.14913936, 0.14619431, -0.04395674, -0.0769731, -0.034002848, -0.025947675, 0.10838758, 0.090588905, 0.047080845}, 
{0.028622847, -0.08603933, -0.03514233, 0.024644995, 0.01157579, -0.12446414, -0.007111618, -0.09561889, -0.02396857, 0.05901887, -0.012368401, -0.03215979, 0.019050362, -0.059135634, -0.13156796, -0.06340307, 0.012179132, 0.022093866, 0.041749593, -0.017579814, 0.09542915, -0.023075778, -0.030917035, 0.06307966, -0.21134156, -0.07252221, 0.09096695, 0.095607676, -0.0024916593, 0.00053479144, 0.14096951, 0.07804974, 0.11754713, 0.014925549, 0.037265558, -0.053433254, -0.08010736, 0.085390165, 0.06477782, 0.0052691414, -0.0040744636, 0.09664573, 0.02353196, 0.01454769, 0.00081648177, -0.0011023197, 0.050308146, 0.06373854, -0.048807934, -0.15861477, 0.094791435, 0.025922967, 0.04467599, 0.029904775, -0.01880672, 0.06625554, 0.0057340157, 0.08292394, -0.026918205, 0.040684037, 0.050118625, 0.061495986, 0.0019161814, 0.048159298, 0.029921181, 0.034261547, 0.12118385, 0.0226508, 0.011732078, 0.13544561, -0.1190944, 0.11948698, 0.013994666, -0.03386252, 0.008498603, 0.06498473, 0.0945022, 0.021831699, -0.0516877, -0.03223624, -0.13809937, 0.008771579, 0.04063365, 0.117293105, 0.0059544984, -0.10065538, 0.06105257, -0.004594008, 0.0024172952, 0.10277096, 0.07011384, 0.08832117, -0.052394286, 0.13906284, 0.11861651, 0.065348044, 0.023330385, -0.12607612, -0.04658097, 0.10590947, 0.06013783, 0.050101403, 0.079663135, 0.010402416, 0.017442321, 0.14605433, -0.027269723, -0.051116146, 0.034451164, -0.08440589, 0.0011422912, 0.015115816, 0.045749184, -0.093602166, -0.0006471157, 0.08611312, 0.03250426, -0.025078086, 0.09180862, -0.087635435, 0.082204044, -0.0038196621, 0.1214508, 0.067233026, 0.04381703, 0.054542888, -0.020013575, 0.19639853, -0.005706364, -0.057122417, 0.10479487, 0.026789919, -0.01907082, -0.05241586, -0.03315035, -0.009327324, 0.017466266, -0.034000237, 0.12291611, -0.00037904014, -0.051706195, -0.093107186, -0.028520321, 0.017624432, 0.006386269, -0.10283229, 0.061410166, 0.0108735375, -0.029133808, -0.025985602, 0.030882873, 0.10413006, 0.046995666, -0.0748674, 0.03757758, -0.0030068462, 0.04589589, -0.027007252, -0.11677899, -0.04092923, -0.096482106, 0.024145799, -0.052240074, -0.17986268, 0.057038847, -0.020644853, -0.0512359, -0.088352785, 0.0687685, -0.04139442, -0.14612354, 0.070338205, -0.051875636, 0.03086854, 0.020965975, -0.014384773, -0.05099382, 0.042926326, 0.017179012, -0.0394389, 0.07630398, -0.004197112, -0.010328883, -0.096309565, -0.07190374, 0.13796456, -0.050457958, 0.008253988, 0.075825445, -0.076743186, 0.08296473, -0.03123937, 0.10397827, -0.09132597, 0.058471523, 0.052255016, -0.03583287, -0.040940586, 0.18672621, 0.0609863, 0.1331754, -0.02346109, -0.08863031, 0.018440504, -0.046318755, 0.13437039, -0.13584359, -0.08601681, 0.10399063, 0.0817535, 0.006550366, -0.04419606, -0.108895004, 0.0870774, 0.098708756, 0.08000875, -0.027571077, -0.06482504, -0.04258569, 0.030422585, -0.06549179, 0.005599383, 0.1073434, 0.07724385, 0.05139133, 0.09484026, 0.038081743, -0.0073333043, -0.11241194, 0.08103225, 0.083156176, -0.11309885, 0.09231799, 0.0222754, 0.007917172, -0.09412398, 0.06357018, 0.10298838, 0.008642613, -0.0014014035, 0.081178084, -0.096070044, 0.10212519, -0.05077201, 0.006412922, 0.082803585, 0.05053916, 0.011713874, 0.013813827, 0.007391892, 0.036475867, 0.08457601, 0.09546504, 0.04560358, -0.020544207, 0.059060894}, 
